conv2d/kernel:0
(3, 3, 3, 16)
[[[[-0.15514678 -0.08713115  0.24365683  0.07561368 -0.04579282
     0.00159204  0.05343435  0.17149392 -0.16484417  0.2410731
    -0.16469456  0.22121915 -0.12416166 -0.26909867 -0.08376778
     0.0745506 ]
   [ 0.22967193 -0.03777029  0.04200469 -0.11421838 -0.0685221
     0.17034273 -0.02797572 -0.02336283  0.18111707 -0.1302634
     0.07392441  0.06101108 -0.04976038  0.10414893  0.11668404
    -0.01315966]
   [ 0.14514895  0.01667872  0.15796752  0.17078201  0.12816833
    -0.03346001  0.06104633 -0.02257698 -0.14560956 -0.12121817
     0.03900902  0.19197735  0.08840619 -0.1751327  -0.02958769
    -0.10502165]]

  [[-0.14226392 -0.18528423 -0.13949817  0.1985655  -0.18667933
     0.16823591 -0.20901816  0.11841153 -0.02726515  0.2805453
     0.0187946   0.19631088 -0.07257751 -0.12793125 -0.19715485
     0.14514183]
   [ 0.16024704 -0.04730906 -0.14314821  0.13338277 -0.10003273
    -0.14833856 -0.05986944  0.1235011  -0.02339243 -0.14442424
    -0.12427714 -0.21731837 -0.15819986  0.02939148 -0.12223422
    -0.09895682]
   [ 0.2277937  -0.03325567 -0.1992401   0.18458514 -0.00571841
     0.17005384 -0.05936553 -0.15040217  0.01970909 -0.11056725
    -0.21815293  0.01367728 -0.00782285 -0.17274186 -0.19766119
     0.04306337]]

  [[-0.01658241 -0.17959549  0.07767019  0.07842909 -0.12231187
    -0.07685979 -0.01148971  0.11405541 -0.0055134   0.13456303
    -0.07163328  0.16399844  0.16688801 -0.02490596 -0.029415
    -0.00868129]
   [ 0.13126779  0.11246315  0.04364578  0.19018094 -0.01132822
    -0.21557641 -0.17896825  0.12546346  0.20086549 -0.03449497
     0.0603493  -0.15153961  0.06323908  0.04147615  0.16384989
     0.17343904]
   [ 0.21174906 -0.03261685  0.17406219 -0.1468148  -0.08440465
    -0.07387742 -0.15311676  0.14490214 -0.08430826 -0.01125694
     0.07644543  0.21258269  0.25774994 -0.06291925  0.20729624
    -0.09873148]]]


 [[[ 0.06219779 -0.03699562  0.25405455 -0.09576935  0.20901376
     0.23827119 -0.07228038  0.12055096 -0.16037996  0.23470023
    -0.00176088 -0.12557761 -0.00428878  0.07304838  0.14626956
    -0.25515908]
   [-0.00474844 -0.12545262 -0.04895174  0.09348918  0.13416216
     0.23685981 -0.15994182  0.12073287  0.23449458 -0.23409341
     0.12363334  0.02712965 -0.0635248  -0.18604665  0.15451296
    -0.10338959]
   [ 0.08845547 -0.05049526  0.0454099   0.01711668  0.10190822
     0.19399723 -0.16499911 -0.19164383 -0.11390433 -0.0098287
     0.00817822  0.07941052 -0.13922074 -0.15750441  0.1471734
    -0.2745191 ]]

  [[ 0.15910186  0.0249704  -0.15791723  0.08218855 -0.10369726
    -0.1088066  -0.19364466  0.07035538  0.16154404  0.2253952
     0.10531971  0.07987084 -0.13308087  0.1275486   0.08860217
     0.0747107 ]
   [ 0.10044209 -0.05223998 -0.25514212  0.08647748  0.11030015
    -0.19567291  0.02446537 -0.04459457  0.07471737 -0.22157145
     0.14293285 -0.25691864 -0.18321832  0.19426839  0.2116283
     0.13843217]
   [ 0.04306429  0.00407097 -0.27074513  0.0432874  -0.0286175
     0.03980879 -0.00931129  0.1945588  -0.03676645 -0.09868251
     0.13274203  0.10045511  0.20451935  0.02480488  0.18966591
     0.22920617]]

  [[-0.13473812  0.07712368  0.13220476 -0.14100517  0.07949615
     0.03268709 -0.04559549  0.12088318  0.03062139 -0.0131961
     0.15413035  0.17526326 -0.02938114 -0.02744438 -0.13740212
     0.15105836]
   [ 0.01516815  0.06482553 -0.1300341  -0.02181578 -0.00660934
    -0.09317332  0.02137998  0.03591592 -0.00166775  0.01603591
     0.22393727  0.13112889  0.03118021  0.05805854  0.13608725
     0.04665336]
   [ 0.12699156 -0.17367433 -0.03262245 -0.09485722  0.25016344
    -0.28692722 -0.14210853  0.06477744 -0.05199128 -0.03920198
    -0.13194208  0.15881032  0.29695368 -0.23060125  0.2776153
     0.00494279]]]


 [[[-0.05166102  0.04743164  0.19816405 -0.17967714  0.248781
     0.10915636 -0.06630313 -0.22809793  0.20568188  0.21892507
     0.16336715 -0.15445928 -0.03235053  0.14739303  0.09695751
    -0.09751696]
   [ 0.00795815 -0.04852572  0.24550551  0.18775256 -0.23839982
     0.2776112   0.09147841  0.1311295   0.26735294 -0.19789518
     0.08428135 -0.25248674 -0.10248382  0.10281634 -0.04130378
    -0.2574019 ]
   [-0.2233311  -0.13462517  0.14455459  0.01671433 -0.181047
     0.06927118 -0.03688504 -0.00429777 -0.15615539 -0.03647457
    -0.12297992 -0.19254968  0.12442242  0.19646646 -0.09067423
    -0.17653222]]

  [[-0.12743661 -0.21232425 -0.0140613   0.03782992  0.16002655
    -0.15251264 -0.00070254 -0.1958266  -0.09161397 -0.09857383
     0.01954442  0.11123763  0.01858026  0.26869494 -0.24033515
    -0.04317804]
   [-0.07797103  0.06222026 -0.14891599 -0.01113948 -0.21991815
    -0.08431908 -0.15429708  0.06551316 -0.00800137  0.02398755
    -0.09760478  0.00866747 -0.19340959  0.2124641   0.01453967
     0.19537802]
   [-0.2946061  -0.04788888 -0.23324053  0.14405566 -0.089303
    -0.09964069 -0.19116735 -0.2520619  -0.25116122  0.10052652
    -0.16466446 -0.22444957  0.22903411  0.15136005  0.04630179
    -0.08210845]]

  [[ 0.00550818 -0.05603957 -0.12857136  0.024913    0.3499374
    -0.03587053  0.08651163 -0.23301099  0.14190724  0.09018774
     0.1643607   0.14241572 -0.07674047 -0.08636747 -0.21666527
     0.22591995]
   [-0.12105958 -0.13526241  0.09117982 -0.22105615 -0.09090949
    -0.160799    0.15468068 -0.19988759 -0.12577373 -0.10592739
    -0.12706465 -0.06154776 -0.08000664  0.11414579 -0.17225705
     0.12033118]
   [-0.15829805  0.05895804  0.23054214  0.02185272 -0.01273194
     0.017671   -0.18188316 -0.14597197 -0.08989163  0.05668788
    -0.22194271 -0.01556985  0.15164858  0.05321837  0.09857435
     0.1706779 ]]]]
conv2d/bias:0
(16,)
[ 0.04447195 -0.04837377  0.04154043 -0.02008671  0.03732032  0.03069221
 -0.04905008 -0.00675872  0.0054824  -0.00320147  0.01909211 -0.00361432
  0.01992     0.02356621  0.00477536  0.03043593]
batch_normalization/gamma:0
(16,)
[1.1139263 0.957344  1.2211936 0.9566247 1.4244484 1.310431  0.9715767
 1.1411299 1.1341903 1.2153639 1.0955323 1.0610503 1.1391342 1.0817726
 1.0792153 1.2370055]
batch_normalization/beta:0
(16,)
[ 0.04581794 -0.04859711  0.0431931  -0.01739779  0.03856493  0.03165646
 -0.04893455 -0.00517892  0.00707442 -0.00042919  0.02041028 -0.00170068
  0.02168543  0.02511397  0.00666404  0.03117969]
conv2d_1/kernel:0
(1, 1, 16, 16)
[[[[ 0.11029357  0.43407828 -0.46570525 -0.09072754  0.23627073
     0.38809514  0.11367124  0.15519935  0.49071845 -0.23149525
    -0.01093524 -0.00438133  0.12664904 -0.14523353  0.3735042
     0.11255711]
   [-0.03928104  0.0222828   0.32056096  0.3434948   0.3700799
     0.30184343 -0.25589168 -0.20593609  0.0699053  -0.03951562
    -0.39874944  0.19930054 -0.39538693 -0.40567866 -0.24796137
    -0.24454115]
   [-0.42251664 -0.31226227  0.05834629  0.20751491  0.49076033
    -0.23037785 -0.3880131   0.19606064 -0.29645276  0.27956292
    -0.32462966 -0.11910602 -0.4573842   0.34888652  0.2072348
    -0.25112298]
   [-0.4138215   0.01727615 -0.4223749   0.2290787  -0.2495768
     0.40139535  0.16909757 -0.00931674 -0.08730546  0.40126815
    -0.7830956  -0.14757426 -0.14372441  0.31259054  0.3115467
     0.20768641]
   [-0.28955305  0.1489688  -0.00623207 -0.33169973  0.23510894
     0.2571368   0.29868022 -0.08040672  0.22618677 -0.31153384
     0.4654111   0.50762963 -0.2102938   0.02362326  0.10259993
     0.18626018]
   [-0.17143703 -0.30544132 -0.11430991 -0.1120842   0.4488762
     0.03492041 -0.13571662  0.02557142 -0.1439301  -0.2640306
     0.26543006 -0.33202386 -0.94664776  0.05467989  0.21581095
     0.54811466]
   [ 0.16947874 -0.01174301  0.24317151  0.33354697  0.19222778
    -0.06612562  0.39854348  0.28863618 -0.05159104 -0.06311284
    -0.29823303 -0.36196738 -0.31278148  0.22107813  0.38515574
     0.23628429]
   [-0.3693646  -0.19387831  0.2395971  -0.544979   -0.48033303
    -0.2781765   0.33257568 -0.32168782  0.33268076  0.24899805
    -0.12149078 -0.15094592  0.18342999  0.20988631  0.2473561
    -0.36022356]
   [ 0.38558462 -0.16542512 -0.22413652  0.39743632  0.11133679
     0.16959384 -0.3611982  -0.52918315  0.13454235 -0.2501223
    -0.24899839  0.01310756 -0.11593341  0.11302495  0.41233188
    -0.08283839]
   [ 0.41112128 -0.1508945   0.3865899   0.34334484 -0.32560587
    -0.8786787   0.27337494  0.4853449  -0.13717416 -0.46567562
    -0.24787542  0.5273384   0.02718551  0.33648548 -0.29134405
     0.09737503]
   [ 0.05723672  0.22846377 -0.632648    0.24012743 -0.08055684
    -0.07714248 -0.55945754 -0.04543334  0.44272566 -0.49503613
     0.04351113  0.20984045  0.36354914 -0.10194194 -0.2778439
     0.0126013 ]
   [-0.02992535 -0.4176905  -0.22932655 -0.416536    0.0528737
    -0.15346117 -0.3530344   0.19482674  0.3878261  -0.05809512
    -0.30871332  0.43348888 -0.27298674 -0.1040995  -0.11012299
     0.2419456 ]
   [ 0.25254354  0.05190603  0.3637178   0.35814068  0.17845672
     0.44361424 -0.05240905  0.02629005  0.02248821  0.60432756
    -0.13454053 -0.18162067 -0.07217784  0.4093746   0.04911931
     0.08904634]
   [-0.22987035  0.3812337   0.11281026  0.39024597 -0.43799347
    -0.2419107  -0.23954801 -0.58128595 -0.25170186 -0.18008283
     0.28045824 -0.42817172  0.44938982 -0.23261721  0.21812287
     0.05659115]
   [-0.41420346  0.37520608  0.22109222 -0.3713913  -0.08461615
    -0.322075   -0.4325441  -0.2547184   0.46692672  0.5019597
    -0.5586749  -0.10218383 -0.10313182  0.37074563  0.33589542
    -0.03845455]
   [-0.28680217 -0.4179361   0.287773   -0.1135795  -0.11189348
    -0.18533425 -0.1606583  -0.01152203 -0.06097933  0.1302571
    -0.06476382 -0.27021316 -0.0378214   0.17085023  0.4322432
     0.16559996]]]]
conv2d_1/bias:0
(16,)
[-0.04796552  0.01138415  0.02213481  0.00914182  0.0276715   0.01444712
 -0.0884195   0.02969589 -0.04902666  0.00353809  0.01460009  0.04701499
  0.08216101  0.04551451 -0.03864381 -0.09617971]
batch_normalization_1/gamma:0
(16,)
[0.95817286 1.0430808  1.3379505  1.0907687  1.1355091  1.0609348
 0.93302655 1.379759   1.0876064  1.1068269  1.2941133  1.2234648
 1.2138274  0.9419382  0.9749636  1.0487354 ]
batch_normalization_1/beta:0
(16,)
[-0.04811706  0.01285927  0.02426807  0.01102502  0.02973333  0.01658602
 -0.08835819  0.03178728 -0.04661035  0.00544317  0.01631644  0.04876887
  0.0830906   0.04824869 -0.03633095 -0.09300262]
conv2d_2/kernel:0
(1, 1, 16, 16)
[[[[ 0.21741748  0.29395247 -0.02712506  0.00213667  0.32037985
    -0.19328856 -0.38725755 -0.30987945 -0.54687697  0.3370685
    -0.34340444 -0.02599809 -0.17747723  0.07486156  0.12703685
     0.01782956]
   [ 0.3364011   0.12823696 -0.29082358 -0.19539525  0.1517642
     0.01904988  0.2911378   0.24060798  0.34906867  0.06378601
     0.27755553  0.38535652 -0.18045196  0.17651555 -0.17329252
     0.30968443]
   [ 0.24987526 -0.11347768  0.3246794   0.31988496  0.39578927
     0.36348328 -0.4302499   0.23485404  0.41425955 -0.45431995
    -0.3253108   0.4027744   0.35684386 -0.09339936  0.09626674
    -0.26316136]
   [-0.07027125  0.4089109   0.3823487  -0.18341449 -0.18707778
    -0.29165146  0.2749044  -0.10487001  0.32181326  0.4359223
    -0.33866152 -0.03558618  0.10418364 -0.5207796  -0.30692878
     0.21065584]
   [-0.2007097  -0.34144732  0.02333214 -0.21718176  0.31819883
     0.64049715 -0.25039613  0.2426728  -0.4375335   0.28946647
    -0.25019518  0.23930858 -0.15892403  0.2220854   0.48381138
    -0.3806697 ]
   [ 0.51287615  0.3978413  -0.22188228  0.6401412  -0.44516876
    -0.24135204  0.4183105   0.473294    0.08805295  0.24388143
    -0.0778415   0.31858528  0.5505802  -0.63857925 -0.35955957
    -0.55863595]
   [-0.2512942   0.18392442 -0.4405479   0.22527777 -0.07577468
    -0.13418317  0.33030632 -0.0729411   0.13201883  0.32068652
     0.10053161  0.1322844  -0.32364833  0.23680669  0.13240048
     0.11881873]
   [ 0.4406293  -0.29412487  0.30128396 -0.07851177  0.15971112
     0.5287398  -0.12148649 -0.14505143  0.20127793  0.43311659
     0.29546753 -0.5739193   0.19333126  0.40987897  0.01570887
    -0.2012675 ]
   [-0.25122726  0.24615264  0.5024858   0.15414424  0.53856903
     0.04434213  0.07145276 -0.36154124 -0.10770411 -0.09629822
     0.4167244  -0.19548377 -0.02341547 -0.3598929  -0.12703468
     0.3547339 ]
   [-0.34015465  0.17273162  0.08436269  0.07829984 -0.24404398
     0.07101957 -0.34817955 -0.1524307   0.09723857  0.15105322
    -0.32551813 -0.19094291 -0.13508216  0.4375549   0.0803976
     0.08302888]
   [-0.12943369  0.13989101  0.42806944  0.35490236  0.27236736
     0.20455757  0.31646687 -0.26054895  0.05298238  0.26429272
     0.37012133 -0.09634561  0.34914804  0.01662473 -0.14598438
     0.13926841]
   [-0.13846338  0.44065464  0.0794705  -0.28137878 -0.39630255
     0.499904   -0.07384904 -0.40288013 -0.14756829 -0.42487934
    -0.4183643   0.41745174 -0.23915093  0.2177615  -0.17332888
     0.27115944]
   [-0.24977475  0.08684801 -0.3531609  -0.22473021  0.14150737
    -0.0983876   0.01063353 -0.26999748  0.22124    -0.2695264
    -0.02770646 -0.04954876 -0.22806291  0.507615   -0.0678115
     0.49908948]
   [ 0.2745432  -0.18492457  0.14847082 -0.26224592 -0.32198438
     0.20776409 -0.01236766  0.4877221   0.19995727 -0.38315037
     0.28292754 -0.50537646 -0.22616374  0.21421918 -0.09236542
    -0.18099138]
   [-0.32742763  0.12637371 -0.10561415  0.30794254  0.09884131
    -0.16055165  0.43129244  0.24973693 -0.3257214   0.3230485
     0.5241443   0.17073508 -0.14598309  0.34204608 -0.47079355
     0.29688314]
   [ 0.33012018 -0.01246215  0.04744663 -0.22367716  0.04149848
     0.13242365  0.15003361  0.11802425 -0.45084798 -0.05010906
     0.2664219  -0.31003028 -0.67994267  0.13710181 -0.06429009
    -0.00898047]]]]
conv2d_2/bias:0
(16,)
[-0.04606152 -0.11600709 -0.09083454  0.01710771  0.0057386  -0.0429912
 -0.02381536  0.02027316  0.04219823  0.01481609  0.04156163 -0.00404335
  0.03252345  0.01367917 -0.07696594  0.00561595]
batch_normalization_2/gamma:0
(16,)
[1.0834261 1.0358136 1.060573  1.0830665 1.2279742 1.1752055 1.0689906
 1.0926555 1.1904469 1.2081442 1.2122035 1.3386751 1.3467593 1.2263873
 1.0754001 1.0604106]
batch_normalization_2/beta:0
(16,)
[-0.04360716 -0.11347231 -0.08780424  0.01843019  0.00776308 -0.04017683
 -0.02122147  0.02213237  0.04282455  0.01582817  0.04270017 -0.00207983
  0.03400221  0.01499871 -0.07427944  0.00713769]
conv2d_3/kernel:0
(3, 3, 16, 16)
[[[[-9.19135585e-02 -2.49665797e-01 -5.35456352e-02  1.58125728e-01
    -1.42480671e-01 -6.14131205e-02  1.69942066e-01 -3.21142413e-02
    -3.60554792e-02  8.73843431e-02 -4.76474650e-02 -2.13386379e-02
    -8.48319754e-02  2.80389756e-01 -1.24862596e-01  1.66148469e-02]
   [-1.41701028e-01 -8.15765560e-02  8.29908922e-02  3.06321643e-02
    -9.45012867e-02 -1.19389124e-01  3.72412452e-03 -3.99770141e-02
    -1.30019754e-01 -6.52690083e-02 -4.08807360e-02  2.59664431e-02
     5.66042773e-02 -1.80632934e-01  1.69707552e-01 -1.23789273e-01]
   [ 1.21520218e-02 -1.94179565e-01  2.05556512e-01  3.46590169e-02
     5.08494601e-02  5.69290332e-02 -1.83162261e-02  1.19134849e-02
    -8.85142758e-02 -1.94499448e-01  4.15845998e-02  1.01894923e-01
     5.74549707e-03  2.09493376e-02 -6.23495039e-03  7.93042853e-02]
   [ 1.27094984e-01  8.80612209e-02 -4.85865586e-02  1.38366401e-01
    -8.98897648e-02 -1.25213293e-02 -4.99100797e-02  1.97696373e-01
    -6.10042550e-02  2.06596568e-01 -9.15100873e-02  4.07240205e-02
     9.85822082e-02 -8.12123045e-02 -7.62496218e-02  9.53325182e-02]
   [-2.66501494e-02  2.99622566e-01  1.03763275e-01 -1.25877991e-01
     8.21402669e-02 -1.88228145e-01  1.76331908e-01 -6.75953738e-03
     2.69433502e-02  1.29651472e-01 -3.72027382e-02  4.21961136e-02
    -7.65996352e-02  2.16572061e-01 -1.53334169e-02 -9.10471752e-02]
   [-9.05673578e-02  4.36640605e-02  3.33461374e-01 -1.56789478e-02
    -8.28324333e-02  1.14557648e-03  1.88768491e-01  9.36128348e-02
    -1.48118287e-01 -4.40027639e-02 -3.76086980e-02  5.37802652e-02
    -1.59229144e-01  1.72787294e-01  1.44401655e-01  3.99856158e-02]
   [ 1.70649111e-01 -1.87660351e-01  1.68319920e-03 -5.74184805e-02
     5.73433284e-03  1.82689592e-01 -4.34445031e-02  1.76894050e-02
    -6.67344853e-02  3.31482179e-02  2.49667894e-02 -1.26551138e-02
     6.16593249e-02 -1.50073871e-01  2.55333364e-01  4.54550944e-02]
   [ 1.56367704e-01 -2.28273362e-01 -1.56751096e-01 -5.54079562e-03
    -1.44064054e-01  4.77253459e-02  4.49218005e-02  5.78104239e-03
    -3.41779664e-02  2.28709847e-01 -3.37541737e-02  1.97312683e-01
    -8.36839154e-02 -1.27620697e-01 -4.30073440e-02 -1.29485697e-01]
   [-1.09298930e-01 -1.86222628e-01 -9.42387208e-02  1.01049423e-01
     1.39377147e-01  1.16169695e-02 -1.31186813e-01  3.97242308e-02
     2.97737354e-03  6.48718327e-02 -9.57042873e-02  2.67145395e-01
    -5.75767979e-02 -3.84623557e-01 -9.83102471e-02  1.19591609e-01]
   [-1.18162192e-01 -1.23668693e-01 -3.83182019e-02  1.40816182e-01
    -1.22574963e-01 -1.45889167e-02 -6.61081225e-02  4.44358699e-02
    -4.71760668e-02  1.32933706e-01  6.77258223e-02 -1.27377048e-01
     5.71858399e-02  7.52538964e-02  2.58931309e-01 -2.03463271e-01]
   [ 9.72488672e-02 -4.07426655e-02 -1.18970141e-01  1.70664206e-01
     1.91168077e-02 -2.46563796e-02  1.42146200e-02 -1.99389011e-01
     6.03804290e-02 -2.88168024e-02  1.03507996e-01  4.52234708e-02
    -1.59548353e-02 -1.74830109e-01  2.14331225e-02 -1.20936215e-01]
   [-1.66989878e-01  2.44631812e-01 -7.97605813e-02  4.44522011e-05
    -6.26096502e-03 -1.08814918e-01  1.14525959e-01  4.90483716e-02
     7.22049328e-04  1.48369800e-02 -1.30981982e-01  5.11099473e-02
    -3.34729552e-02 -1.68783471e-01  2.10799593e-02  1.50683060e-01]
   [ 1.92277893e-01 -3.28280807e-01 -6.55168947e-03  7.67713040e-03
    -2.37049773e-01 -4.47437959e-03 -7.40957260e-02 -6.31436035e-02
    -1.52958348e-01  2.49570325e-01 -6.68024793e-02  1.33582473e-01
    -9.34884548e-02  1.81542963e-01 -1.31937429e-01 -1.62714675e-01]
   [-1.54348582e-01  1.07227497e-01 -9.60412398e-02  9.78144631e-02
     1.10570557e-01  2.27448493e-01 -1.46785066e-01  1.19445227e-01
     4.01624218e-02 -1.24936529e-01 -1.95220709e-02 -1.57507449e-01
    -1.75291628e-01 -2.29575142e-01  1.05639771e-01 -8.92343000e-02]
   [-3.42364572e-02 -8.68963748e-02  1.29230201e-01  7.74797052e-02
    -2.05692220e-02  2.40048431e-02  1.55536205e-01  1.20094642e-01
     7.30132312e-02  1.20162986e-01  1.01292543e-01 -1.93257764e-01
    -1.40784532e-01  1.59882203e-01 -1.24395810e-01  7.94953927e-02]
   [ 6.01169728e-02  1.15570977e-01 -1.12313993e-01 -1.78273022e-01
     1.03867285e-01  2.00308740e-01  1.50709331e-01 -3.62855643e-02
     9.15659219e-03 -6.09644782e-03  1.56952292e-01 -5.45408800e-02
    -6.98204339e-02 -1.75837442e-01  1.59510270e-01  1.54597044e-01]]

  [[-2.08613873e-01 -7.96669275e-02  9.81999934e-02 -8.76321048e-02
    -8.29753131e-02  1.69469431e-01  9.01083648e-03 -3.03735137e-02
    -3.09962053e-02  2.96866685e-01 -4.25556935e-02 -3.24934199e-02
    -1.17054731e-01 -1.61604837e-01 -1.60604134e-01  1.06916977e-02]
   [ 7.75448531e-02  1.00034006e-01 -3.04116635e-03 -2.48285010e-02
    -2.28726417e-02 -1.35602579e-01 -1.10777025e-03  2.53569894e-02
    -1.18852094e-01 -1.16278268e-01 -3.57636735e-02 -1.60290450e-01
    -7.46280327e-02 -1.61845639e-01 -4.72968966e-02  1.07746646e-01]
   [ 4.20210995e-02 -5.26143871e-02  6.70471564e-02 -1.75905198e-01
     4.75608893e-02  1.10846879e-02  1.53563008e-01 -1.91999033e-01
    -8.65202025e-02 -1.56818449e-01 -7.76678771e-02 -6.90267161e-02
     1.71944629e-02 -1.15361094e-01  1.14732169e-01 -1.27269343e-01]
   [-3.98901582e-01  1.00121014e-01 -5.59644913e-03  8.34654942e-02
    -1.93336681e-01  6.17778078e-02 -2.13304721e-02  2.07794011e-01
    -9.41004679e-02  1.37595683e-01  1.07486267e-02 -5.08041941e-02
    -5.64471493e-03 -4.68401462e-01  1.54602423e-01  1.86529472e-01]
   [-5.81351668e-03 -6.23385422e-02  5.58589436e-02  1.49722427e-01
    -1.07591927e-01 -6.91272542e-02  1.77778825e-01  1.46339759e-01
     3.48489843e-02  2.48074867e-02  7.53353089e-02  1.05003782e-01
    -5.88046685e-02 -2.61294208e-02  1.28861470e-02  2.06235442e-02]
   [ 1.13567851e-01 -1.86911970e-01  2.32278526e-01 -1.30353197e-01
     1.26252070e-01 -2.28682607e-01  1.56519249e-01 -1.75562613e-02
    -4.93718908e-05 -2.29465872e-01  7.94310495e-02 -1.06686065e-02
    -1.49368405e-01  2.56186277e-01  1.36095703e-01 -2.09818244e-01]
   [-4.59321961e-03  2.00673342e-01 -5.89814223e-03 -1.26467342e-03
    -1.38648689e-01  1.31448641e-01 -7.90436417e-02 -8.59240070e-02
    -8.52209106e-02 -1.36534825e-01  7.74390856e-03 -1.21690974e-01
     3.27857099e-02  4.21615802e-02  2.19252810e-01  1.36963397e-01]
   [-3.71732920e-01  1.08166248e-01 -5.11496700e-02  1.96293861e-01
    -1.33165166e-01  2.32845530e-01 -3.14088762e-02 -7.98740834e-02
     8.20569471e-02 -6.65692911e-02 -8.63004774e-02 -1.17394030e-01
    -1.91923037e-01 -6.03649393e-02 -2.72839874e-01  6.67890534e-02]
   [-1.47074848e-01  1.94457397e-02 -5.87807298e-02 -7.92778656e-02
    -4.70873788e-02 -1.60668790e-02  1.71194710e-02 -6.96943179e-02
     3.01048812e-02  9.07832906e-02  1.35204047e-01 -1.34329930e-01
    -1.37385622e-01 -4.46925133e-01 -2.69236207e-01  7.26857707e-02]
   [-2.90708363e-01  5.07597923e-02 -1.82996932e-02  9.44610238e-02
    -1.76582739e-01 -2.11761221e-02 -1.54741347e-01  7.43202865e-02
    -1.05025388e-01 -5.25498837e-02  3.56504694e-04 -8.90365168e-02
    -5.24382666e-02 -5.16328476e-02  2.25525990e-01 -6.92907050e-02]
   [ 7.48802559e-05  2.51061674e-02 -1.51732817e-01  7.23923072e-02
    -1.71085130e-02 -3.76371741e-02  2.26383843e-02 -3.45874280e-02
    -1.05077386e-01 -1.87114850e-01 -1.47995027e-02 -3.00139308e-01
    -9.51851308e-02 -7.24433586e-02 -5.36050238e-02  5.42302243e-02]
   [-1.27032429e-01  1.30618080e-01  7.88041111e-03 -1.23663619e-02
    -1.59820020e-01 -5.97090758e-02  1.89708304e-02  2.44092450e-01
    -6.55171201e-02  6.96485341e-02  3.26358229e-02  2.13222168e-02
     8.06772802e-03 -2.12543711e-01  2.60321051e-02  6.97023720e-02]
   [-5.76557994e-01 -1.11488022e-01  8.48903134e-03 -2.55600791e-02
    -3.86017144e-01  1.66649044e-01 -1.50884733e-01 -7.26101398e-02
     8.18853006e-02  2.01122329e-01  1.70496833e-02  1.24657258e-01
    -2.82573402e-02 -2.54014999e-01 -1.24311790e-01  2.29893222e-01]
   [ 2.32280567e-01 -1.41221747e-01 -5.39010093e-02  4.56079133e-02
     1.93411633e-02 -1.02016933e-01 -1.52928650e-01  5.75334504e-02
     8.70163217e-02 -2.62791049e-02 -2.16645390e-01  4.51167375e-02
    -1.18075773e-01  3.47785987e-02  1.62295118e-01 -1.55804649e-01]
   [-1.20039120e-01  1.64870337e-01 -6.09926544e-02 -1.56817771e-02
     3.62760238e-02 -4.58323583e-02 -1.45507500e-01  1.43913731e-01
     8.32650661e-02 -1.50981799e-01 -3.19541432e-02  3.19932438e-02
     9.21183378e-02  3.92304480e-01 -2.44907334e-01  8.62337928e-03]
   [ 1.45438880e-01 -1.87020108e-01 -5.27268499e-02  1.23515129e-01
    -1.05252422e-01 -4.92498875e-02 -1.25493452e-01 -1.18358351e-01
     7.66515583e-02  4.55298945e-02 -2.49299556e-02 -5.08408155e-03
    -1.53783202e-01 -2.05086656e-02  4.00206260e-02 -1.01695590e-01]]

  [[-1.00548066e-01  9.86710638e-02  1.21576652e-01  1.09234132e-01
    -1.64862480e-02 -4.58083153e-02 -9.41962972e-02  6.12050556e-02
    -5.30559532e-02  1.08912826e-01 -1.12596564e-01 -1.25444040e-01
     3.16540129e-03 -3.10149379e-02 -7.19243586e-02 -2.12878399e-02]
   [ 1.34092914e-02  2.51992624e-02  1.26478687e-01  8.46129805e-02
     5.90347033e-03 -4.07653712e-02 -7.61989802e-02 -1.87589824e-01
     1.02172410e-02 -6.13714717e-02 -9.18144807e-02  9.58634615e-02
    -1.73418477e-01  1.21325187e-01  1.11986950e-01  9.16676372e-02]
   [ 9.90905538e-02 -7.94546232e-02  1.57354370e-01 -5.07295057e-02
    -2.05548648e-02 -1.16671048e-01  1.51586011e-01 -1.89804852e-01
    -7.01906905e-02 -2.48812824e-01  6.81591108e-02  5.44486456e-02
    -4.12814319e-02  1.46422952e-01 -9.01399478e-02 -1.34085596e-01]
   [ 1.66715786e-01 -3.10704082e-01  2.35670619e-02  4.52925377e-02
     1.55753400e-02  3.94476801e-02  1.92158401e-01 -1.33889660e-01
    -4.01841998e-02  4.57757059e-03 -3.78216840e-02 -2.03842536e-01
    -1.19636618e-01 -3.07782382e-01  2.22693130e-01 -1.71131626e-01]
   [ 1.45199940e-01  5.34344986e-02  8.25199336e-02 -1.96730956e-01
     2.26850793e-01  9.90974531e-02  2.38951176e-01  1.29420087e-01
     4.13461775e-03  1.41165182e-01  1.10379383e-01 -9.32205021e-02
     1.29766524e-01 -1.89484041e-02  1.74812078e-01 -1.86721519e-01]
   [-4.51695211e-02 -1.04917496e-01  1.17575824e-01 -8.15855805e-03
     3.97777371e-02 -9.72709507e-02 -3.29613797e-02  4.27616313e-02
    -1.25097781e-01 -1.33869350e-01  2.43825048e-01  6.85228258e-02
     1.05775468e-01  5.43938018e-02 -7.55446404e-02 -2.28788912e-01]
   [ 7.69417509e-02  2.98824608e-02 -9.77737159e-02  1.18466817e-01
     6.51236027e-02 -4.72204499e-02  7.20967203e-02 -2.00136587e-01
    -1.50258457e-02 -1.38843253e-01 -1.46842301e-01  5.02646044e-02
     4.03117649e-02  5.34752496e-02  2.53928676e-02  6.42189011e-02]
   [ 1.21664576e-01 -4.49718274e-02 -1.62920598e-02 -6.06259815e-02
     1.65635273e-02  4.95963357e-02 -7.48862745e-04  1.60589814e-02
    -1.63967595e-01  5.97209819e-02 -7.94968978e-02 -1.22796908e-01
    -2.01558359e-02  1.35675162e-01 -2.50984550e-01 -9.89537090e-02]
   [ 1.77808225e-01  7.41785467e-02  1.77204013e-02  1.52675912e-01
     2.05291361e-02 -1.07990049e-01 -4.48370986e-02 -6.88441470e-02
     6.68355227e-02  1.02902599e-01  2.75339931e-02  4.10951152e-02
    -8.31153318e-02 -2.64448989e-02 -1.69094026e-01  3.22666429e-02]
   [ 8.34712014e-03  3.18907574e-03 -4.81623374e-02  2.10481435e-02
     1.98771998e-01  9.98869166e-02 -1.31458074e-01  1.33707449e-02
    -6.32244125e-02  1.14590779e-01 -1.61286324e-01 -7.25377351e-02
    -5.09504713e-02 -1.18076332e-01  2.66762316e-01  1.09088525e-01]
   [-3.52673203e-01  1.92594782e-01 -1.40362352e-01  1.40694767e-01
     5.01127839e-02 -2.39710748e-01  1.12276766e-02 -2.04045117e-01
     1.24372922e-01 -5.43915331e-02 -2.92839140e-01  1.45326387e-02
    -1.16105996e-01  1.04381941e-01  3.20619047e-02 -8.39907750e-02]
   [ 2.08951950e-01 -3.05531383e-01  1.46847323e-01 -1.05416603e-01
    -1.15838312e-01  1.04886033e-01  4.57838215e-02  3.64105031e-02
    -2.51062810e-02 -1.64953962e-01  1.27915293e-01 -3.53526548e-02
    -1.76755041e-01 -8.36187080e-02  4.78680283e-02 -2.46790722e-01]
   [ 1.71472594e-01 -2.66387820e-01  7.88635835e-02 -9.99364480e-02
     1.73972234e-01  8.67855027e-02 -1.67670056e-01  2.60340702e-02
     8.65833759e-02  1.85216919e-01  4.19116020e-02 -3.11502721e-02
    -7.51101002e-02 -5.96850701e-02  2.23493483e-02 -1.49768695e-01]
   [-1.96574241e-01  9.26495939e-02 -1.77238539e-01 -3.79207879e-02
    -1.28654733e-01 -1.74649358e-01 -1.16158403e-01  1.39678374e-01
     7.09364489e-02  8.70946646e-02 -9.03767496e-02  6.13639727e-02
     1.60657298e-02 -3.12522911e-02  1.40616879e-01 -3.54240350e-02]
   [-2.38544755e-02  1.24727182e-01  6.39918223e-02  6.85426667e-02
     4.56912741e-02  3.24222334e-02 -4.87229265e-02 -1.23888448e-01
     1.38325423e-01 -1.48961037e-01  2.10507631e-01 -2.25667179e-01
     1.77493840e-02  5.80939539e-02  1.21487930e-01  5.42947575e-02]
   [-1.14248738e-01  1.21418983e-01 -6.02751151e-02  7.66606927e-02
    -7.67760724e-02 -9.29573029e-02  8.97365734e-02 -1.34979397e-01
    -1.55797854e-01 -1.07709453e-01 -3.35592553e-02 -6.79631159e-02
    -1.27350986e-02  2.12639689e-01 -2.23720521e-02 -7.86316469e-02]]]


 [[[-1.34978117e-02 -2.51634508e-01 -1.87256441e-01 -9.73860472e-02
     3.78906913e-02  6.73083439e-02  2.37917498e-01  6.87919930e-02
     5.22808768e-02 -6.04148693e-02 -4.49434966e-02  3.72146145e-02
    -6.64855400e-03  2.59808991e-02 -1.72858927e-02 -7.05283433e-02]
   [-1.09278830e-03 -2.23405026e-02  2.89045610e-02 -8.19495693e-02
     1.84252039e-02  6.50057793e-02 -5.89511059e-02  2.67795939e-02
    -6.11589774e-02  1.22116521e-01  1.70570388e-01 -1.74361374e-02
    -1.14492834e-01 -3.00480843e-01  5.46804741e-02  1.17849335e-01]
   [-6.16457034e-03 -9.75662470e-02 -1.79397629e-03 -4.84108217e-02
    -1.13479473e-01  6.78997263e-02  1.37728900e-01 -9.62561071e-02
     1.13363467e-01 -8.80528092e-02  1.53440788e-01 -7.35039040e-02
    -1.66027009e-01 -8.69437978e-02 -9.96444374e-02 -1.32985711e-01]
   [-5.81411906e-02 -1.11536995e-01 -8.50941911e-02  2.56854683e-01
     1.12028129e-01 -2.81104539e-02 -2.66058538e-02  8.90052468e-02
    -8.78059193e-02 -2.98865706e-01 -2.07159147e-01  6.95526674e-02
     1.57586291e-01 -5.15655391e-02 -6.99258000e-02  1.20420963e-01]
   [-1.54530806e-02  2.52230257e-01 -1.13771008e-02  4.45062108e-02
     1.75058186e-01 -1.36015132e-01 -1.06348336e-01 -2.08756551e-02
    -5.09424182e-03 -1.32816046e-01  1.44677628e-02 -4.18919355e-01
     2.59128120e-02  1.52913466e-01 -1.95049465e-01 -2.90138908e-02]
   [-2.01291412e-01  5.00052199e-02  2.22462177e-01 -9.16135386e-02
    -2.57614255e-01  9.59838182e-02  1.33514181e-01 -8.09646212e-03
    -3.50517444e-02  1.15530252e-01 -1.02947019e-01 -6.05922863e-02
    -1.74754590e-01 -1.73267312e-02 -1.49149418e-01 -2.22790092e-01]
   [ 3.55192535e-02 -1.64684772e-01 -2.58312430e-02  9.88820791e-02
     6.17347062e-02 -8.77616275e-03  6.17492460e-02 -9.31287333e-02
    -1.32752910e-01  9.86823812e-02  1.90790012e-01 -2.97700819e-02
    -1.12865064e-02 -1.16585515e-01 -1.41080931e-01  1.14802122e-01]
   [-4.00353968e-02  6.32432923e-02  2.96888724e-02  1.21761113e-01
     1.10368989e-01 -8.96156132e-02  3.17290723e-02 -3.01444139e-02
     5.13412207e-02  1.15198001e-01 -4.11864854e-02  4.72476892e-02
    -5.75618967e-02 -2.70624738e-03  2.11043522e-01 -5.10741509e-02]
   [-2.96771973e-02  1.85223341e-01  1.12970427e-01  1.85613930e-02
     4.04234082e-02 -1.73614338e-01  1.19867124e-01 -9.58299860e-02
    -1.54400721e-01 -1.64584652e-01 -8.91090706e-02 -1.34901227e-02
    -1.43310741e-01 -1.71724811e-01  1.41089931e-01  2.12888852e-01]
   [ 1.11935183e-01 -2.14410931e-01 -1.28163159e-01  8.80573764e-02
     1.96280822e-01  1.04158767e-01  1.37838766e-01  3.03704273e-02
     4.34538629e-03 -6.15721606e-02  8.82112980e-02 -1.35120839e-01
     4.30865400e-03 -3.91623795e-01 -2.04085961e-01  7.27737993e-02]
   [ 1.59338936e-02 -4.49574515e-02 -1.00086808e-01  2.23742217e-01
    -1.05219474e-02 -1.39329925e-01  2.10853562e-01 -7.47497976e-02
    -4.14317437e-02  1.18566416e-01  1.28451005e-01 -1.32237613e-01
     5.88429496e-02  1.08249858e-01  1.47187356e-02 -1.13476645e-02]
   [-8.93963873e-02  1.89794615e-01 -6.35646135e-02 -1.98620945e-01
    -1.21172339e-01 -1.17562383e-01 -1.21051550e-01 -3.25335562e-02
     1.12138353e-01  1.95773970e-02 -2.01125458e-01  2.74006091e-02
     5.76834679e-02 -2.28850573e-01  5.12901731e-02 -1.77732393e-01]
   [ 1.10841744e-01 -1.88065127e-01  8.54427069e-02  9.09431651e-03
     1.59005612e-01 -1.32029653e-01 -1.53895169e-01 -6.06465265e-02
     5.48927439e-03 -3.05734187e-01 -1.18632562e-01 -5.18941209e-02
     1.54854881e-03  1.00985719e-02 -1.80955663e-01 -1.23577550e-01]
   [-1.71082199e-01  7.79576376e-02  1.75300151e-01  1.62015736e-01
    -1.93153515e-01  1.40711069e-01 -8.11714679e-02 -2.27971628e-01
    -2.27461718e-02  1.27621312e-02  1.02146789e-02 -9.94056612e-02
    -1.64302185e-01  4.03918140e-02 -4.59674038e-02  1.14862710e-01]
   [ 2.31587216e-01  7.01322481e-02  1.33998603e-01  1.40455097e-01
     5.21874093e-02  1.11059368e-01  1.49156228e-01  1.56535998e-01
    -1.24252044e-01 -1.18847135e-02 -6.54186383e-02  4.29328606e-02
    -3.76793593e-02  1.82846978e-01 -1.28111258e-01 -2.83740945e-02]
   [-7.98616111e-02 -1.40890002e-01  1.12411663e-01  9.64507111e-04
    -2.03179158e-02  1.80428326e-01  6.06375486e-02 -1.52578920e-01
    -1.45189792e-01  9.53459740e-02  9.82743204e-02 -8.54357481e-02
    -1.51113803e-02 -3.21062744e-01 -5.03728017e-02  8.12732652e-02]]

  [[-1.69657975e-01  1.19635753e-01  8.94630626e-02  7.76268123e-03
    -1.84686214e-01  5.65649085e-02  1.11326844e-01  2.33399794e-01
    -1.08707666e-01 -1.57138914e-01  1.08040504e-01  4.86372821e-02
    -1.62214592e-01 -2.80267540e-02 -9.42670926e-02  5.31034134e-02]
   [-1.18629716e-01  1.38973370e-01  3.58378440e-02 -2.05702670e-02
     1.10479705e-01  4.25784774e-02 -7.46944472e-02 -1.63208038e-01
     1.59029774e-02 -1.88243672e-01 -8.36351290e-02 -1.95724100e-01
    -4.12667766e-02  4.07780372e-02 -2.19545081e-01  3.91095020e-02]
   [ 5.09148464e-02  1.57947749e-01 -7.76918903e-02 -3.25692147e-01
     6.53742105e-02 -8.97435844e-02  1.71225324e-01  4.19619977e-02
     3.08211818e-02  1.07990399e-01  1.00539878e-01  6.58109859e-02
     3.68279032e-02 -8.79287571e-02 -1.42400369e-01 -1.17651217e-01]
   [-6.04491472e-01  2.54753798e-01 -1.07894145e-01  1.56825900e-01
    -1.18884303e-01  1.41436875e-01 -4.41511646e-02 -2.37991028e-02
     1.13121413e-01 -8.57016891e-02  1.14335284e-01  8.13715607e-02
     7.14537576e-02 -2.68077374e-01 -2.42343754e-01  5.85761620e-03]
   [-5.57638034e-02  8.41307640e-02 -2.98178464e-01 -1.18428492e-03
    -8.16354156e-02 -2.52140433e-01 -2.07558602e-01 -2.71937847e-01
    -1.40578672e-01 -2.25105323e-02 -8.24654382e-03 -2.16878459e-01
    -1.39004052e-01  1.84128150e-01 -1.52369678e-01  1.63296700e-01]
   [ 1.11402079e-01 -1.59526337e-02  2.22421624e-03 -3.16581219e-01
    -2.32424065e-01 -1.42612249e-01 -3.68385203e-02 -8.81942175e-03
    -1.73110843e-01  1.11388996e-01 -1.24521226e-01 -1.16297700e-01
    -8.82323384e-02  2.55084969e-02 -6.77632615e-02 -1.34340793e-01]
   [-8.67205262e-02 -6.17363229e-02  1.21743537e-01  9.55361873e-02
    -1.83420703e-02  1.85875539e-02  9.64438468e-02 -8.35976973e-02
    -3.18180583e-02  3.11597288e-01 -9.25897583e-02  6.88823983e-02
     8.84275436e-02 -5.72783910e-02 -1.59324616e-01 -1.59509122e-01]
   [-2.05630228e-01  1.29981771e-01  1.52374864e-01  6.93557085e-03
    -1.37468338e-01  5.41613512e-02  1.14405127e-02  1.29909784e-01
    -8.10241774e-02  1.09925374e-01  6.59127235e-02  1.43582180e-01
    -3.94207500e-02  1.31917849e-01  2.33084392e-02 -5.23289777e-02]
   [-4.02962677e-02  1.87359840e-01 -3.00347270e-03  3.29795713e-03
    -6.13085292e-02  6.52596354e-03  1.65080860e-01  2.13942632e-01
     1.43016241e-02 -5.21926954e-02  1.80951864e-01  3.03944856e-01
     2.42314227e-02 -1.27441078e-01  1.67659432e-01 -2.53831536e-01]
   [-2.59955287e-01 -1.87583759e-01 -4.96714376e-03  1.53053820e-01
     1.40838921e-01  7.73467496e-02  2.41097603e-02 -2.55594105e-01
     1.22411758e-01 -1.85420066e-01  1.96156636e-01 -1.88282467e-02
     6.76498041e-02  3.44023891e-02 -1.78023815e-01 -7.09653422e-02]
   [-8.02283809e-02 -8.53965208e-02  2.64970623e-02  2.68690526e-01
     1.14388160e-01 -1.92139804e-01  9.85254347e-02 -4.62340936e-02
    -1.27984032e-01  1.04374848e-01 -3.09443712e-01  7.22644478e-02
    -1.30399212e-01  2.30493248e-01  1.30111590e-01 -2.74328291e-01]
   [-3.54304761e-01  1.22348806e-02 -1.54471293e-01 -3.12237032e-02
    -2.58646458e-01  1.24202827e-02 -2.30141416e-01 -2.89647847e-01
    -3.81090939e-02 -7.77434632e-02  1.01127923e-01 -1.63275257e-01
    -1.28730103e-01 -2.30865777e-01 -9.71960276e-02  2.90460706e-01]
   [-5.29472709e-01  1.03100404e-01 -5.42463660e-02  1.16102837e-01
    -1.74975842e-01 -4.98523526e-02 -2.02752039e-01 -1.47326425e-01
    -1.39395967e-01 -3.21467042e-01  2.36560121e-01  2.60611504e-01
    -3.93923111e-02 -2.26876326e-02 -2.83758640e-01  1.72432270e-02]
   [ 1.10856555e-01 -2.21715972e-01  1.94306374e-01  1.66583717e-01
     1.08021647e-01 -2.54920870e-01 -1.30764559e-01 -1.37457624e-01
    -6.18029982e-02  1.36770066e-02 -4.14693892e-01  2.73522902e-02
     7.02337995e-02  2.62846321e-01 -1.95555210e-01  1.08367383e-01]
   [ 1.28347576e-01 -5.33787832e-02  7.11881965e-02 -1.03203073e-01
    -1.00187354e-01 -4.12382111e-02 -1.69049706e-02 -3.26499157e-02
     1.24631673e-02  1.75794318e-01  9.42579508e-02  9.03647766e-02
    -1.36600509e-01  1.67431280e-01  1.07553661e-01 -5.45756854e-02]
   [ 1.96033642e-01 -2.55995333e-01  9.38091800e-02  6.10809177e-02
     1.06598236e-01 -3.75098363e-02 -1.14865519e-01 -1.31398514e-01
    -1.72430709e-01 -5.56428805e-02 -1.22249372e-01 -6.90239444e-02
    -1.38554946e-01  2.11795554e-01 -1.27988189e-01 -2.69506536e-02]]

  [[-7.73627907e-02 -1.31648496e-01  1.60374716e-01  9.06551108e-02
    -1.51185587e-01  6.60332292e-02  2.53110319e-01 -4.02490720e-02
    -1.10511370e-01  1.13795614e-02  5.04952297e-02 -8.99339467e-02
    -4.39244583e-02 -7.57511854e-02  1.45436630e-01 -1.24453090e-01]
   [ 1.26295552e-01 -8.11734647e-02  6.73848167e-02 -9.07011796e-03
    -2.87935860e-03 -1.41252220e-01 -7.60992318e-02 -1.97779641e-01
    -1.49712756e-01 -3.62584777e-02 -7.76455700e-02  1.18704878e-01
    -1.47391990e-01  1.59299225e-01 -8.57739598e-02  1.00600332e-01]
   [-4.59125936e-02 -1.49882197e-01 -7.05428608e-03 -3.84659804e-02
     3.33208069e-02  2.09693179e-01  7.26796761e-02  1.22246575e-02
     4.14803997e-02  2.54160669e-02 -5.70670590e-02  1.26326934e-01
    -1.15657859e-02 -7.10000843e-02 -2.03688994e-01 -1.90352246e-01]
   [ 2.50293493e-01 -2.05064550e-01  1.50717333e-01  2.66952276e-01
     1.08355895e-01  1.34395778e-01  5.77318892e-02  6.35848963e-04
    -8.38912129e-02  6.17579184e-03 -1.01086974e-01  1.55116946e-01
     2.54265964e-02 -1.69280007e-01 -1.76833808e-01 -7.55860806e-02]
   [ 1.27040535e-01 -1.81374997e-01 -1.49009287e-01  9.75112170e-02
    -6.02495335e-02 -8.66821408e-03 -5.40727377e-02 -8.50217883e-03
    -1.39861271e-01  4.40958552e-02 -1.29567133e-02  2.64365196e-01
    -1.42685607e-01 -1.82669872e-04 -1.49800852e-01 -1.57437876e-01]
   [ 5.71112223e-02 -2.04789802e-01 -9.42606777e-02 -2.46299207e-01
     2.15472817e-01  1.09141506e-01  4.33397219e-02 -9.35878977e-02
    -5.89970127e-03  1.16152056e-02  1.47530526e-01  1.52748078e-01
    -1.85898706e-01 -1.30982757e-01 -1.99138243e-02 -1.07878320e-01]
   [-1.27368480e-01  1.54443473e-01  1.01501524e-01 -5.26559353e-02
    -1.07328430e-01 -8.60301182e-02 -7.60874748e-02 -2.35831309e-02
    -1.32548228e-01  1.61043987e-01 -2.27873906e-01 -1.61927426e-04
     8.18262994e-02  1.86428294e-01 -3.37603688e-02 -1.23836294e-01]
   [-2.53279563e-02  1.53521970e-01  1.96887687e-01 -3.60989049e-02
     8.02769437e-02  2.23182127e-01  2.93843611e-03  2.20857441e-01
    -9.43058059e-02  2.60402352e-01 -3.24439332e-02 -1.06527366e-01
     1.51476013e-02 -9.39952955e-02  2.34222740e-01  1.98678076e-02]
   [-1.53340492e-03 -4.84632887e-02  2.51503587e-01 -1.12492274e-02
    -2.34749131e-02  6.02279007e-02  2.15656623e-01  1.09963275e-01
    -1.41711891e-01  1.61153510e-01 -2.04635590e-01  7.44456649e-02
    -8.04490373e-02 -9.54795629e-02 -1.09697366e-02  1.53400078e-01]
   [ 9.71613526e-02 -7.62756914e-02 -8.41024593e-02 -5.74221313e-02
    -1.66761622e-01 -5.23690097e-02 -1.80105120e-01 -5.93411773e-02
     9.42134240e-04 -8.09981525e-02 -2.66262263e-01  2.36546546e-01
     1.05257183e-01  1.74505368e-01 -2.27705315e-01  8.80164802e-02]
   [-1.20397396e-01  2.53113508e-02  4.93909307e-02  1.68327168e-02
     6.20984696e-02 -6.75915852e-02  1.19864091e-01  2.59449720e-01
    -2.58965343e-02  2.89271832e-01 -1.74822435e-01 -7.75365252e-03
    -1.66963682e-01  9.06175375e-02  7.11302906e-02 -7.70218819e-02]
   [ 3.71103764e-01 -1.61855236e-01 -7.51543045e-02  4.91210334e-02
     2.72519737e-01  5.06662540e-02 -2.85946190e-01 -2.45032147e-01
    -1.66476265e-01 -2.87015826e-01  6.92101270e-02  1.27243577e-02
    -3.44176181e-02  7.02885538e-02 -1.46512255e-01 -8.31554085e-02]
   [ 1.70902655e-01 -3.87288958e-01 -3.06578074e-02 -1.73127338e-01
    -9.19855013e-02  2.49747381e-01 -5.07050492e-02 -6.07389286e-02
    -4.51128967e-02 -5.12440056e-02  6.85915202e-02  8.30332339e-02
     5.33215664e-02 -6.80334494e-02 -1.78510427e-01  1.16400616e-02]
   [-1.99477479e-01 -1.63891464e-01 -1.80386364e-01  6.22484833e-02
     2.06454664e-01 -1.88025802e-01 -1.57063305e-01  8.67958665e-02
    -1.48087099e-01 -1.34719089e-01  3.10275555e-01 -7.20265880e-02
    -2.01224610e-01  4.90828604e-02 -1.90325081e-01  1.08193524e-01]
   [-1.93453934e-02  1.84525661e-02 -3.21012139e-02 -1.35361761e-01
    -3.52626979e-01  1.07969612e-01  3.89333330e-02  2.24862114e-01
     3.47222686e-02 -1.20100036e-01 -9.01239365e-02 -4.45798337e-02
     1.06823862e-01  2.88682222e-01  9.41877440e-02 -2.00586438e-01]
   [-1.75737679e-01 -1.02034010e-01 -1.25701398e-01  1.06826527e-02
    -3.22781689e-02 -4.10343073e-02 -1.91893816e-01  2.12329198e-02
     9.53459218e-02  5.62612079e-02  7.01159313e-02 -1.09231763e-01
    -1.45231023e-01  1.76250920e-01 -2.19858631e-01 -3.75431888e-02]]]


 [[[-1.66646242e-01 -2.97789481e-02 -6.20261300e-03 -1.47979721e-01
     1.31584764e-01 -1.24953566e-02  2.09225044e-02 -1.97484307e-02
     1.13415502e-01  6.93121701e-02  6.72670733e-03 -3.85764271e-01
    -1.14036947e-01 -1.67923048e-01  5.19969314e-02 -4.14380208e-02]
   [-8.08112975e-03 -1.06819443e-01 -1.04693979e-01 -6.52128905e-02
    -6.75825104e-02  1.54252604e-01 -1.24851577e-02  7.50224292e-02
    -6.97851852e-02 -1.14683853e-03 -1.29654855e-01  1.15551837e-01
    -7.57027343e-02 -2.35661536e-01 -2.46836059e-02 -2.49437556e-01]
   [ 5.80045879e-02 -1.80628966e-03  8.85021091e-02 -7.06890076e-02
    -1.64582521e-01  2.04938591e-01 -1.58212617e-01 -7.12029114e-02
    -7.87399188e-02  2.51510054e-01  5.51543869e-02 -4.03514169e-02
    -4.43477519e-02 -6.44313693e-02  1.09764375e-01 -1.80920884e-01]
   [-2.99885213e-01 -1.10886060e-01  5.45077212e-03  2.58727651e-03
     2.39387453e-01  1.25043869e-01  6.86389208e-02 -6.26164451e-02
    -7.18686208e-02 -2.90712357e-01  2.25468110e-02  5.57800159e-02
    -4.75168414e-02 -1.32200405e-01  2.96658166e-02 -1.32919550e-01]
   [ 3.52142230e-02  1.72099456e-01  1.65089995e-01  1.99615479e-01
     1.83194607e-01 -1.64792240e-01 -6.30127117e-02 -2.28676319e-01
    -5.84274605e-02 -1.77300081e-01 -5.70501611e-02 -1.93347678e-01
    -5.52809015e-02  3.69304977e-03 -6.80718422e-02 -2.14463428e-01]
   [ 1.60957083e-01  3.77424844e-02 -3.18810791e-02 -1.53184190e-01
    -5.13203330e-02  1.56564027e-01 -2.67754644e-01  1.96911413e-02
    -7.52892643e-02  2.43963227e-01 -1.93767816e-01 -9.62276012e-02
     5.31988181e-02  2.07818802e-02 -4.40122001e-02 -9.19571519e-02]
   [-7.47394860e-02  4.65008505e-02 -5.46148606e-02  2.98990421e-02
    -1.24698607e-02  1.09141417e-01  1.50001973e-01  2.78639849e-02
     1.08294934e-01 -1.19258715e-02  1.09491952e-01  1.47293970e-01
    -5.42692579e-02  4.26401533e-02  1.47901982e-01 -1.26294807e-01]
   [ 1.13049433e-01 -6.17933087e-02  8.96759611e-03  1.52619705e-01
     9.51972380e-02 -4.93532373e-03 -4.22529802e-02  6.29163310e-02
     5.30145317e-02 -2.12571412e-01 -9.37285721e-02  3.02045583e-03
     3.17644142e-02 -1.43740579e-01  7.40929991e-02  1.70810536e-01]
   [ 8.65149871e-02  2.99210045e-02  5.39260637e-03 -3.67895998e-02
    -8.10601860e-02 -1.24983363e-01  1.60829220e-02 -2.31943488e-01
    -1.13293745e-01  1.20835543e-01  3.30221429e-02  7.07431987e-04
    -3.53215113e-02 -2.86907464e-01 -6.73500672e-02  1.22677229e-01]
   [ 1.34850703e-02  6.38025403e-02 -5.75652458e-02 -4.08933684e-02
    -8.81664604e-02  3.49044353e-02  2.55015455e-02 -4.31846529e-02
    -4.07172367e-02 -1.21353820e-01  1.79132521e-01  2.01517984e-01
    -7.59809390e-02 -1.81562841e-01  1.30369782e-03  1.48874568e-02]
   [ 4.66871671e-02 -1.07312106e-01  6.18867949e-02 -7.09662288e-02
    -1.77493766e-01 -1.90452009e-01 -2.37371624e-01  3.39207649e-01
     1.01916820e-01  1.43046938e-02  7.95333683e-02  9.02931467e-02
    -7.75110945e-02  1.15507498e-01  6.25226945e-02  2.74081770e-02]
   [-2.31553435e-01  2.00446352e-01 -2.59762090e-02 -6.29571676e-02
     2.46442035e-01 -6.59285262e-02  2.74572253e-01 -4.60324213e-02
    -1.19154692e-01 -1.20985424e-02 -5.04581109e-02 -2.16768961e-02
    -1.14968270e-01 -4.29746956e-02 -1.54953733e-01 -4.42626923e-02]
   [-2.27096174e-02 -2.59498328e-01 -4.99395374e-03 -1.96981743e-01
     1.98259503e-01 -9.17048603e-02 -1.31516308e-01 -1.75715193e-01
     4.57112193e-02 -6.65097013e-02 -1.42435312e-01 -1.52334541e-01
     9.38098133e-02 -1.61396712e-01  4.06092256e-02 -5.78949824e-02]
   [ 3.96725461e-02  1.56031787e-01  1.54179528e-01 -9.25885141e-02
     2.20981147e-02 -6.79336786e-02  7.98221231e-02  1.25800803e-01
    -3.43063176e-02  9.81792361e-02  2.67358497e-02  4.28258367e-02
    -2.28111949e-02  8.27810839e-02 -1.18905388e-01  3.00979502e-02]
   [-1.02236442e-01 -1.03486970e-01  6.54847398e-02  2.81177521e-01
     3.05887133e-01  8.98191407e-02  2.01112598e-01  7.38376901e-02
     8.59107226e-02 -3.50179896e-02  3.01911924e-02 -1.14200734e-01
     1.09502025e-01  1.10518388e-01  1.30503416e-01  3.62774916e-02]
   [-3.08813043e-02  8.95616561e-02  1.16614029e-01 -5.10270940e-03
    -3.61222662e-02  1.49467021e-01  1.01061173e-01  1.40952066e-01
    -1.64174512e-01 -1.42548094e-02  2.67727636e-02  1.96660142e-02
     5.36920056e-02 -2.19766088e-02 -8.84125009e-02 -2.42604196e-01]]

  [[-2.11763695e-01  8.39020032e-03 -9.61175039e-02  1.05115637e-01
     1.51360720e-01 -1.07009843e-01 -5.54027557e-02 -1.18244871e-01
    -1.32435963e-01  1.71233192e-01  9.46013033e-02 -2.31488254e-02
    -2.92299967e-02  1.96794868e-02 -1.61125779e-01 -7.53397867e-02]
   [ 9.17857885e-02  5.84904216e-02 -8.14296007e-02 -9.13453568e-03
    -2.19060943e-01  2.06189036e-01  9.78483558e-02  1.08615912e-01
    -1.16758294e-01  2.42058963e-01  9.08935443e-02 -2.59363204e-02
    -8.69752839e-02  1.51326150e-01 -5.65797463e-02 -2.85547286e-01]
   [ 5.01746424e-02  1.70455709e-01 -2.01751441e-01 -3.67841810e-01
    -7.02201501e-02  1.33952580e-03 -1.57550693e-01  5.88258170e-02
     5.06407209e-02  1.50307670e-01 -1.24723844e-01  8.20470825e-02
    -1.27921188e-02 -1.01136625e-01 -3.69495270e-03 -1.60733238e-01]
   [-4.28336054e-01  1.08040005e-01 -2.09184036e-01  2.17501208e-01
     6.12118393e-02 -7.70673975e-02 -7.60322064e-02 -2.06931140e-02
    -1.44906908e-01 -2.06405327e-01  2.73551404e-01  9.56228003e-02
    -1.72969192e-01 -2.69192308e-01 -1.58957615e-02 -6.04433678e-02]
   [ 1.07379332e-01  8.59434009e-02  8.32123905e-02  6.10261632e-04
    -2.69089099e-02 -3.15156192e-01  2.16543898e-02  1.18327430e-02
    -5.71821295e-02 -4.75029685e-02 -3.65193794e-03 -2.46032476e-01
    -1.25834927e-01 -1.09112039e-01  3.92102972e-02  1.09204255e-01]
   [ 1.72167972e-01  2.17326522e-01 -1.32898986e-01 -3.16450685e-01
    -2.08194360e-01  1.67350903e-01 -1.59968615e-01 -4.17603925e-02
     4.61981306e-03  1.44683555e-01 -1.91332906e-01 -2.28907928e-01
    -1.16252616e-01 -4.00360227e-02  1.00035757e-01 -5.76016717e-02]
   [ 1.48498744e-01  9.52439830e-02  1.45714462e-01 -2.02997744e-01
    -1.57864004e-01 -1.27204821e-01 -1.29898921e-01  2.61923969e-01
     1.07315324e-01 -1.69302765e-02 -3.46945412e-02  7.31490329e-02
    -1.52658433e-01  2.23216563e-01  9.95191783e-02  1.22629143e-02]
   [-4.63235099e-03 -1.26830831e-01 -1.14656228e-04 -5.03797270e-02
     1.47148862e-01  6.49908558e-02 -1.33579344e-01 -5.15844524e-02
     5.07995039e-02 -2.36272439e-01  7.47539401e-02  1.43257469e-01
     6.56549931e-02 -1.19946167e-01  6.08286150e-02  2.69484408e-02]
   [-5.50291203e-02  1.53225914e-01 -1.25581741e-01 -2.66050458e-01
     3.71909052e-01  1.34218261e-01  1.17627285e-01 -2.45910943e-01
    -1.38532713e-01  7.14962408e-02  1.29167795e-01  3.00763324e-02
     9.33990581e-04 -4.12151963e-03 -1.83279626e-02 -4.28962857e-02]
   [-1.30848587e-01  1.70305848e-01  4.81133237e-02  4.36366536e-02
    -5.64097501e-02 -3.61325368e-02  1.17446974e-01  1.82261065e-01
     4.13595885e-02  7.96247125e-02  1.58421651e-01  2.82130599e-01
     6.39536977e-02  2.99125183e-02 -5.34675717e-02 -2.69412756e-01]
   [ 7.10069090e-02 -1.57693744e-01  1.09182927e-03 -5.29977046e-02
    -4.97446284e-02 -2.05889091e-01 -4.70353141e-02  1.54987365e-01
    -1.35615528e-01 -2.41501778e-01 -8.13918561e-02  2.67167743e-02
    -6.44813031e-02  3.97703350e-02 -1.67241972e-02  2.75168657e-01]
   [-3.60775858e-01  2.05317795e-01 -2.01964572e-01 -3.93637754e-02
     6.48229048e-02  1.26069561e-01  1.91101983e-01  2.40485929e-02
    -1.56962276e-01  1.81936547e-01  5.76905459e-02  1.41611606e-01
    -2.21638724e-01 -1.40541747e-01 -1.28594965e-01 -4.91867249e-04]
   [-2.55273998e-01  1.22752398e-01  1.87995329e-01 -8.46529156e-02
     2.31373519e-01  3.44076976e-02 -1.69322982e-01 -6.13842905e-02
     2.51385793e-02 -7.64750689e-02  1.83022499e-01  1.78689331e-01
     3.54796313e-02  6.84401840e-02 -1.42968461e-01  6.12246543e-02]
   [ 1.49611384e-01  3.31434719e-02  1.80204853e-01  5.85407354e-02
    -1.73532248e-01 -2.62102988e-02 -3.95648330e-02  1.13155589e-01
     2.93499436e-02  6.52970746e-02 -2.77746886e-01 -4.75783721e-02
    -1.63361877e-01  2.76719406e-03 -1.23717234e-01  1.62101790e-01]
   [-3.41601530e-03 -2.70679653e-01 -4.21278551e-02  1.84193160e-02
    -1.06351741e-01  3.73229012e-02  1.36801973e-01  3.77033204e-01
    -7.32271820e-02 -6.73500001e-02  8.66146013e-02  2.69165076e-02
     7.52772614e-02  3.81939560e-02 -2.65793741e-01 -4.89349626e-02]
   [ 4.15136367e-02  5.40772788e-02  1.24077111e-01  6.68999180e-02
    -1.95671812e-01 -2.91773640e-02  1.71028137e-01  1.84150741e-01
     7.93949049e-03  2.51006603e-01 -2.29488447e-01  2.69399993e-02
    -5.52050397e-02  7.38900080e-02  5.09233139e-02  1.41497115e-02]]

  [[-6.94508478e-02  1.12798639e-01 -7.56542459e-02 -1.74210235e-01
    -1.13786429e-01 -8.40544254e-02 -5.06866127e-02 -9.45629627e-02
    -1.35372272e-02  4.76771146e-02  4.46200073e-02  2.09743038e-01
    -1.92524910e-01 -1.65507048e-01 -1.12446070e-01 -1.84735671e-01]
   [-1.07163988e-01 -2.32452080e-02  2.75854431e-02 -1.72734499e-01
     1.07001282e-01  8.25757310e-02 -2.24676766e-02  6.81354180e-02
    -1.21198468e-01  1.59360766e-01  6.42043948e-02 -1.29063845e-01
     8.39959979e-02  1.37007013e-01  1.20084114e-01 -3.23569812e-02]
   [-1.51821114e-02  4.59571555e-02 -1.40046939e-01 -3.80148701e-02
    -1.05288044e-01  1.19974941e-01 -3.00086915e-01  2.37794086e-01
     6.72210054e-03  1.09602638e-01  3.13946679e-02 -1.37124285e-01
     9.80539322e-02  1.02363043e-01  5.68301380e-02 -1.62539873e-02]
   [ 1.14651375e-01 -1.11281753e-01 -2.44760606e-02  3.76283042e-02
    -2.01105252e-01  1.89564407e-01 -1.74667254e-01  9.48009416e-02
    -2.70622764e-02 -4.36949492e-01 -1.03823774e-01  3.32398504e-01
    -4.44960073e-02 -1.77146040e-03  5.61793633e-02  1.45927310e-01]
   [-1.00308890e-02  1.16548583e-01 -5.64353094e-02 -5.96639030e-02
     2.22958654e-01 -1.15961038e-01  6.46862388e-02 -1.40665308e-01
     3.39928898e-03 -3.49342972e-02  2.88052652e-02  5.09702675e-02
     6.11425079e-02 -3.70521918e-02  6.91261366e-02 -9.68125090e-02]
   [-6.61346316e-02  7.18056038e-02 -1.90158300e-02 -1.91919550e-01
     1.41540259e-01  2.96309907e-02 -2.75374144e-01  5.95181510e-02
    -7.69262537e-02 -8.39348231e-03  1.42418906e-01  1.51599655e-02
    -4.67348062e-02 -1.50115592e-02  4.90338393e-02  8.28842595e-02]
   [ 8.38085786e-02  1.08631141e-01  4.77613136e-02  5.39731607e-02
    -1.93297174e-02 -6.56924397e-02  7.37975389e-02  2.14481696e-01
    -1.45655259e-01 -1.15409508e-01  1.55434187e-03 -8.20853785e-02
    -1.23968972e-02 -7.63793364e-02  1.11607060e-01 -3.28072198e-02]
   [ 2.79557332e-02 -1.53520539e-01  2.08193567e-02 -1.99120075e-01
    -6.81766123e-02 -4.78358082e-02 -2.38498971e-01 -4.27862071e-02
     5.01891561e-02 -2.89314002e-01 -9.36095119e-02  1.42048419e-01
     9.32630971e-02 -1.03937455e-01  8.55143294e-02  2.08166420e-01]
   [ 1.28156850e-02  9.98125374e-02  9.77380723e-02 -1.92581475e-01
    -2.35481277e-01  1.00908905e-01  1.60010308e-02 -1.14723489e-01
     2.76624039e-02  2.05285717e-02 -1.33136630e-01  2.13422790e-01
     7.29633942e-02  1.63443506e-01  3.00583523e-02 -1.48701698e-01]
   [ 8.97143111e-02  1.56241879e-01  1.66143879e-01  4.96438853e-02
     9.12673697e-02 -1.17484771e-01  1.86638683e-02  2.97893416e-02
    -1.26377687e-01 -4.64849956e-02 -1.72688216e-01 -9.65620503e-02
    -5.89074520e-03  5.06911576e-02 -1.01648793e-01  7.29096457e-02]
   [ 1.14575416e-01 -2.87333019e-02 -7.77740637e-03  1.38973575e-02
    -1.53140659e-02 -1.47333667e-01 -1.65640533e-01 -7.06348941e-02
     5.25942929e-02 -3.55693519e-01 -1.57182127e-01 -3.19310045e-03
     8.48642737e-02 -1.28252566e-01  1.95008591e-02  2.51644373e-01]
   [ 4.38769720e-02 -2.61076003e-01 -1.38475418e-01 -2.77927257e-02
     3.73053513e-02 -2.67066211e-02  2.20346496e-01  3.09156883e-03
     4.00966108e-02  3.78443807e-01 -1.83205888e-01 -4.37287278e-02
    -8.73741414e-03  1.79257765e-02  5.10134399e-02 -9.42416936e-02]
   [-3.14132944e-02 -2.85681516e-01  6.09837957e-02 -6.10975847e-02
    -2.74987593e-02  5.54525219e-02 -2.58890659e-01 -1.84811652e-01
     3.23812775e-02 -2.72080898e-01 -9.28111896e-02  2.76942074e-01
     3.83754186e-02 -1.17808998e-01 -3.52261811e-02  2.32089937e-01]
   [ 1.42117977e-01 -1.27224177e-01 -6.95411488e-02 -7.24067912e-02
     6.72651380e-02  1.28932716e-02  1.13767758e-01 -1.33219287e-01
     8.54699612e-02  2.73667257e-02  2.46359095e-01 -2.57483274e-01
    -3.69836725e-02  1.16933390e-01 -2.15231683e-02  8.11950341e-02]
   [ 6.44305535e-03 -2.02974081e-01  1.33549750e-01  1.33648217e-01
    -1.77477047e-01  2.83721656e-01  2.60933667e-01  1.51584759e-01
    -1.26542151e-01  7.70056173e-02 -8.93094689e-02 -1.45706207e-01
    -1.32695138e-01 -5.58518525e-03  8.64215121e-02  3.13283205e-01]
   [-1.54223472e-01  1.68920889e-01  9.59695056e-02  4.37803864e-02
     1.10078238e-01 -2.65556574e-02  1.44505501e-01  1.73862532e-01
     1.79762486e-03  7.99846649e-02 -1.27861723e-02 -1.09226741e-01
    -1.70241427e-02 -4.54333276e-02 -2.43719108e-02 -2.27096700e-03]]]]
conv2d_3/bias:0
(16,)
[ 0.06917121  0.00083427 -0.02024953  0.02774717  0.02186349 -0.00109638
 -0.00093219  0.00379669 -0.03178642  0.01439992  0.01945062 -0.01674744
 -0.03750808  0.03117596  0.04458441  0.04424014]
batch_normalization_3/gamma:0
(16,)
[1.1221986  1.1099082  0.99051064 1.0007846  1.1119041  1.0364269
 1.2042369  1.1475149  0.9717097  1.1977093  1.1022437  1.0469478
 0.93722177 1.1888869  1.2126116  1.1165855 ]
batch_normalization_3/beta:0
(16,)
[ 0.07115647  0.00306107 -0.01783307  0.02992674  0.02372905  0.00104668
  0.00083505  0.00568366 -0.03177552  0.01657195  0.02146314 -0.01464318
 -0.03770831  0.03308359  0.04560949  0.04545517]
conv2d_4/kernel:0
(1, 1, 16, 16)
[[[[-2.73359418e-01 -2.12373510e-01 -4.65224981e-01 -1.75420493e-01
    -4.76236224e-01 -1.65546700e-01  3.32147539e-01  2.30400726e-01
    -1.43371999e-01  4.38306630e-02  2.86032170e-01 -2.27541775e-01
     3.89661372e-01  3.43061686e-01  2.11615905e-01  3.55698586e-01]
   [ 1.89282466e-04  3.48141044e-01  3.96641076e-01  9.05774459e-02
    -3.90518218e-01 -1.17678940e-02  3.47040221e-03 -1.33039638e-01
     1.95809409e-01 -3.69008332e-01 -3.45977575e-01 -1.63832515e-01
     4.75071482e-02  3.08924913e-01  1.98850989e-01 -2.07160294e-01]
   [ 3.45880181e-01 -6.37176275e-01  3.99660289e-01 -2.77536720e-01
     1.39867917e-01  1.00509711e-01  2.01641068e-01 -5.28088212e-01
    -1.87660828e-01  3.71229678e-01 -1.68779030e-01  3.08293432e-01
    -5.14446139e-01  4.06810850e-01  1.90760881e-01 -3.51453125e-01]
   [ 2.33114138e-01  3.29553515e-01 -2.90900767e-01 -1.47048935e-01
    -3.56058329e-01  3.48424673e-01  1.24674693e-01  3.06123525e-01
     1.05773807e-01  2.85538167e-01  3.60389292e-01 -1.58655226e-01
    -3.69588256e-01  6.47087693e-02 -2.23705322e-01  2.02363193e-01]
   [-1.38391331e-01 -3.27142626e-02 -4.26893383e-01 -4.13439348e-02
     2.83992797e-01 -6.27090693e-01 -5.21023095e-01 -4.70678449e-01
     4.00125444e-01 -3.01794857e-01 -4.05446947e-01  1.77224934e-01
    -6.93104835e-03 -5.21602511e-01 -1.16688609e-01 -9.41988751e-02]
   [-3.10311675e-01  3.17069620e-01 -1.89183988e-02 -7.74272263e-01
    -5.09857461e-02  3.38745594e-01 -2.64507681e-02 -1.62097380e-01
     2.60426700e-01  7.15846121e-02  2.79184282e-01  2.10182324e-01
    -1.49967372e-01 -2.65593767e-01 -2.49563560e-01 -6.19186103e-01]
   [-3.59201014e-01  1.89598083e-01  6.74824491e-02  3.07804167e-01
     3.97900343e-01  3.29071403e-01  1.60756204e-02  3.86305511e-01
     2.16716796e-01  2.86311269e-01  1.86437815e-01 -2.00601786e-01
    -3.94936919e-01  9.88338217e-02 -9.58768651e-02  1.22774355e-01]
   [ 4.13282633e-01  3.72873396e-02  5.44197679e-01 -3.04747373e-01
    -4.59493071e-01  2.63550401e-01  3.62817079e-01 -1.43209293e-01
     9.16509479e-02 -2.55783200e-01  4.97871220e-01 -4.57861796e-02
     3.98894638e-01 -4.44060981e-01  3.61307204e-01  4.94403094e-01]
   [ 1.23700112e-01 -3.19978327e-01 -2.94205636e-01 -2.63685614e-01
    -3.02332610e-01 -1.00465916e-01  2.89613098e-01 -1.85404480e-01
     1.96830630e-01  2.27199867e-01  3.50362152e-01  2.69732893e-01
    -1.12481318e-01  4.77099009e-02 -1.75121158e-01  3.12896222e-01]
   [-4.44213860e-02 -3.92675996e-01  1.19668804e-01  1.18253775e-01
    -7.88348913e-01  2.20253035e-01 -6.69923574e-02  4.16681409e-01
    -3.85436296e-01  2.99237818e-01  8.56615975e-02  1.57904088e-01
    -5.63132644e-01 -1.98901862e-01  3.39972228e-01  8.77304003e-02]
   [-4.84509379e-01 -1.83713138e-01 -1.83471933e-01  2.64836460e-01
    -2.36832500e-01 -4.03734326e-01  3.84428889e-01 -1.95731282e-01
    -6.23242781e-02  2.43796140e-01  2.92024642e-01  1.31085083e-01
    -1.09332904e-01 -4.56435651e-01 -3.55893373e-01 -1.93060130e-01]
   [ 1.92229718e-01 -6.34666206e-03 -2.62480915e-01  4.64530975e-01
    -2.08070248e-01  2.97458824e-02 -4.37293559e-01 -1.61944404e-01
    -3.29037786e-01 -4.56313610e-01 -2.09596157e-01  9.00557041e-02
     1.31702721e-01  3.53443146e-01 -7.88094010e-03  3.78629982e-01]
   [ 1.27664223e-01  5.56940138e-02  2.69516349e-01  1.75280795e-01
     2.44943202e-01  2.89997812e-02 -2.29574859e-01 -3.64941180e-01
    -5.80055475e-01 -1.09782428e-01 -1.97923943e-01  3.23962361e-01
    -3.67267370e-01 -1.97320923e-01 -2.16317117e-01  1.43059224e-01]
   [-2.99623072e-01  1.29163235e-01  3.84921551e-01 -2.70262212e-01
     1.52270883e-01 -2.68992782e-01 -6.43973574e-02  3.42069477e-01
    -3.34006958e-02 -1.54098988e-01  3.43969077e-01 -4.03211385e-01
    -3.54270965e-01 -2.99323976e-01  2.53367960e-01 -5.00109307e-02]
   [-3.15879166e-01 -2.93519646e-01 -3.06953281e-01 -2.35830992e-01
     1.19040191e-01 -1.80272609e-01 -3.33025753e-01 -1.22276589e-01
     1.27117380e-01  5.80608845e-02 -7.05903843e-02  2.66971678e-01
     1.94490045e-01 -2.51712978e-01 -8.11204910e-02 -1.92888618e-01]
   [-1.62946016e-01  2.54959971e-01  1.71956062e-01  4.54078883e-01
    -3.86052787e-01  2.40357891e-01  6.44282773e-02  6.29622340e-02
    -3.88058722e-01 -6.30282700e-01 -1.84300020e-02 -2.02836126e-01
     1.25180170e-01 -2.20158547e-01  4.24542338e-01 -3.33277881e-01]]]]
conv2d_4/bias:0
(16,)
[ 0.03185443  0.02730102  0.01253786  0.06889481  0.04871928  0.01523784
 -0.00325637  0.04981625  0.06228417  0.02319061 -0.06488438 -0.03818116
  0.01512877  0.02436286 -0.02013767 -0.03494596]
batch_normalization_4/gamma:0
(16,)
[1.1293539  1.3160951  1.132531   1.2730924  1.030392   1.2167574
 1.1042154  1.1713017  1.1460558  1.2163386  0.9681843  1.02528
 1.1677535  1.2848389  0.98326594 0.9575659 ]
batch_normalization_4/beta:0
(16,)
[ 0.03262391  0.02830378  0.01402681  0.06945302  0.05088856  0.01671807
 -0.00157622  0.05114589  0.06285738  0.02463079 -0.06269174 -0.03627638
  0.01676556  0.02562452 -0.01766252 -0.03302925]
conv2d_5/kernel:0
(5, 5, 16, 16)
[[[[-3.04069705e-02 -8.21008086e-02  1.25161216e-01  1.41602382e-01
    -9.86189842e-02 -3.27065736e-02  5.91722541e-02  5.09992847e-03
     2.08739594e-01  2.98107346e-03 -3.22565855e-03 -1.06629096e-01
     2.17806384e-01 -1.02095440e-01 -3.94715704e-02 -1.08912610e-01]
   [-6.38387948e-02 -2.71049961e-02  7.99141824e-02 -4.14665788e-02
    -2.06990000e-02  3.53382938e-02 -7.28864148e-02 -4.02061380e-02
    -2.05671892e-01  1.87345147e-02  1.65534496e-01  1.79897342e-02
    -2.19821334e-02 -3.81413735e-02  2.21778557e-01 -6.12742975e-02]
   [ 4.57417667e-02 -2.40897872e-02 -1.77414417e-02 -7.92757645e-02
    -2.93671135e-02 -9.58500132e-02  2.53305975e-02 -1.44542634e-01
     8.23169500e-02 -8.68883356e-02  9.05239508e-02 -1.43328272e-02
     2.03691572e-01  3.01525388e-02  9.34781954e-02 -3.55581567e-02]
   [ 1.97160374e-02 -1.08680315e-01 -3.05594280e-02  3.58035304e-02
    -1.20574936e-01 -9.17038992e-02 -1.72150865e-01 -3.65685038e-02
     1.17737420e-01  7.36730769e-02  1.35262221e-01  3.18471938e-02
    -1.53174147e-01 -1.47697315e-01  1.24234252e-01  4.54997495e-02]
   [ 4.57321899e-03  5.19766472e-02  5.35930842e-02 -4.53999117e-02
    -7.40587153e-03 -6.97120503e-02  8.46603215e-02 -4.16579135e-02
     4.24631387e-02  7.88934827e-02 -1.46652222e-01 -1.20563721e-02
     9.10628662e-02 -1.51671125e-02  3.45353857e-02 -3.98252718e-02]
   [-6.18402697e-02 -9.41457152e-02  2.00181350e-01 -8.34976211e-02
     5.11527583e-02 -8.30317964e-04  3.61110792e-02 -2.88496371e-02
    -2.46643484e-01 -7.82172680e-02  6.09315038e-02 -5.08475751e-02
     1.40922993e-01 -7.52283409e-02 -5.81791550e-02  5.05512618e-02]
   [-5.89241460e-02  2.29467489e-02 -7.72468671e-02 -1.46225151e-02
     3.13522890e-02  2.07851641e-02  5.61597273e-02 -2.22290028e-02
     3.20866555e-02  7.61063099e-02 -1.72510058e-01 -2.51667202e-02
     1.62792921e-01  1.36100233e-01 -6.55644834e-02  1.22065887e-01]
   [-1.49381449e-02 -1.27794832e-01 -1.77930638e-01  4.84781787e-02
     4.72251922e-02  1.10143431e-01  8.84579942e-02  1.48117170e-01
    -4.61521111e-02  8.93695280e-02  9.80404858e-03 -1.38367955e-02
    -3.67721822e-03 -1.03714682e-01  1.90381229e-01  8.59077554e-03]
   [-9.47914124e-02 -5.93241900e-02  2.55424865e-02 -9.08257365e-02
     2.56735608e-02 -1.63221383e-03 -5.71798347e-02 -6.79318458e-02
     4.20600027e-02  3.04954275e-02  7.22513394e-03 -8.96990392e-03
    -6.85382187e-02  2.31140479e-01 -1.90373376e-01 -1.35832196e-02]
   [-3.11749969e-02 -7.97794759e-02 -1.09754354e-02 -5.64636067e-02
    -4.63942364e-02  3.62633392e-02 -6.33414760e-02 -1.57570262e-02
    -1.93282276e-01  1.27731226e-02  4.27034907e-02 -5.69401570e-02
    -7.21376091e-02  1.24954775e-01 -1.04128331e-01 -9.67258215e-02]
   [ 3.53128649e-02  6.09955341e-02 -5.56065105e-02 -4.75656763e-02
     3.35782543e-02 -4.29743417e-02  3.89066450e-02 -8.65702145e-03
    -5.70877008e-02  4.14152257e-02  3.75621277e-03 -6.94280192e-02
    -3.36560905e-02  9.25874412e-02 -7.44708553e-02  2.74446495e-02]
   [ 1.72315277e-02 -8.21117237e-02  8.33805948e-02  6.59248978e-02
    -9.79954153e-02  1.26249731e-01 -4.20495979e-02  7.66999088e-03
    -1.59973279e-01 -1.02012478e-01  5.23559861e-02 -4.01236154e-02
     1.08901691e-02  3.68003175e-02  1.60184875e-01 -1.62374135e-02]
   [-8.60348493e-02 -3.12242899e-02  1.20150559e-01  1.70069337e-02
    -5.61789982e-02  5.20473644e-02 -6.51565045e-02 -4.15309854e-02
     1.49201185e-01  1.03826076e-01 -4.86418903e-02  1.73642542e-02
     1.38805017e-01 -3.76389958e-02  9.26259160e-03  2.63348185e-02]
   [-1.03828922e-01  2.47377679e-02  3.10777109e-02  9.51134861e-02
    -6.25564903e-02 -8.47293213e-02  2.15048622e-02 -1.29561603e-01
    -6.09376701e-03 -7.35525042e-02 -6.97787181e-02  5.93629330e-02
     1.31833151e-01 -5.80086336e-02  1.40347540e-01 -1.38624072e-01]
   [ 4.69241291e-02 -5.69711998e-02 -1.29034176e-01 -6.12053871e-02
    -4.09525484e-02 -2.33918149e-02 -8.60758573e-02 -2.73013161e-03
     7.86695629e-02 -1.98825859e-02  6.99652508e-02 -1.02028869e-01
     1.85738638e-01 -7.54206330e-02  1.05074868e-01  6.44666106e-02]
   [ 3.22648510e-02 -1.05712190e-01  2.81896312e-02  6.64796010e-02
     3.27458642e-02 -1.98295087e-01 -7.12204650e-02 -5.81653118e-02
     8.90117362e-02  8.71545076e-02 -3.96772325e-02 -9.31025743e-02
     1.05788268e-01 -6.12459378e-03 -7.01190159e-02  9.12195742e-02]]

  [[-5.73032387e-02 -5.40981889e-02 -1.09010942e-01  1.23470358e-03
    -1.60979405e-01 -6.33665845e-02  6.12802953e-02  1.50987700e-01
     4.66339961e-02 -6.10326566e-02  5.44162244e-02  6.83256239e-02
     1.23270452e-01 -1.58267602e-01 -7.89009705e-02 -6.93431571e-02]
   [-1.28496915e-01  1.72989059e-03  4.43081856e-02 -4.71339300e-02
    -8.81249756e-02  1.21853597e-01 -1.66031837e-01 -2.35766172e-01
    -1.08772747e-01 -2.00635552e-01 -4.67591472e-02 -1.03768684e-01
    -1.83733523e-01 -3.69627587e-02  1.07737750e-01 -1.57969549e-01]
   [ 1.35727879e-02  1.64292306e-02 -1.00397589e-02 -6.59227520e-02
     1.00582711e-01  1.86888665e-01  6.56238869e-02 -9.79249403e-02
     3.35179679e-02 -1.04842432e-01  9.75693464e-02 -5.72598167e-03
     4.75321002e-02  2.14970142e-01 -9.80126485e-02  2.13039238e-02]
   [-8.12194368e-04 -8.87789056e-02 -6.45563975e-02 -4.77604829e-02
    -2.93399617e-02 -3.37592550e-02 -2.20773309e-01  1.15268409e-01
    -5.22314310e-02 -6.49368390e-02 -9.56658125e-02  3.49350795e-02
    -1.36448219e-02 -1.64558247e-01 -1.05106302e-01  8.29257667e-02]
   [-8.33744034e-02 -7.64058456e-02  3.34771127e-02 -1.11768447e-01
    -6.28671721e-02  9.08290129e-03  1.20245188e-01 -4.54154350e-02
    -1.14184029e-01  8.99182186e-02 -2.86395778e-03 -1.05926991e-01
     4.58148383e-02  5.26299067e-02 -1.36172637e-01 -1.90709352e-01]
   [ 6.03283895e-03  3.80418487e-02 -1.78297237e-02 -5.18839285e-02
    -1.16662264e-01  8.83578286e-02 -6.61848709e-02  1.01616479e-01
    -1.57581106e-01 -8.45840797e-02  1.36847086e-02 -6.45553619e-02
     4.73112129e-02  1.11284405e-02 -1.05211571e-01  7.23389238e-02]
   [-8.05093125e-02 -8.24332461e-02 -1.37883469e-01  2.75907591e-02
     5.21311164e-02  1.96723670e-01 -4.22291532e-02 -6.20369315e-02
    -1.71320215e-01  1.82202399e-01 -4.72291671e-02 -5.15952893e-02
     9.97229889e-02  7.77044371e-02  4.07654010e-02  5.38229048e-02]
   [-2.41515283e-02 -2.29490455e-02  2.33542304e-02 -4.62810472e-02
    -5.90642877e-02  2.45414332e-01  2.26636201e-01 -2.24512130e-01
    -2.53615621e-02  4.64478545e-02 -2.03930542e-01 -3.07605695e-03
    -8.51745158e-02 -4.98987548e-02  2.27571465e-02  8.72156247e-02]
   [ 8.46414641e-02  6.85596615e-02 -1.08148307e-01  5.71925901e-02
    -9.69026238e-02  7.22896075e-03 -1.58276539e-02 -9.43497866e-02
    -5.51772974e-02 -8.49207789e-02 -3.87471318e-02 -9.41526704e-03
    -2.26783305e-02  1.82286873e-01 -1.38006613e-01 -1.71280265e-01]
   [-1.96303595e-02 -5.26064970e-02 -7.28722336e-03 -3.55442539e-02
    -2.11620361e-01  9.55799446e-02 -9.51321125e-02 -2.01246381e-01
    -2.45710924e-01  2.73429584e-02 -1.06081322e-01 -6.25205860e-02
    -1.31073236e-01  1.32048503e-01 -3.23882699e-02  5.09323329e-02]
   [ 3.25613022e-02 -6.65926337e-02 -2.81867161e-02  1.77853163e-02
     2.49332357e-02  3.37581262e-02  1.95913874e-02 -1.48744375e-01
     6.87805191e-02  6.80503622e-02  4.44418266e-02 -1.13032825e-01
     4.81349491e-02  7.70425424e-02  3.00227720e-02 -4.71952371e-02]
   [-9.50877666e-02 -6.92336857e-02  1.35310190e-02  1.67317260e-02
     2.71319300e-02 -1.91908889e-02  1.66062355e-01  1.45389736e-01
    -1.70851704e-02 -2.50041969e-02  7.60771260e-02  2.68660299e-02
    -5.77890538e-02  5.44042736e-02 -8.77401829e-02  9.06870887e-02]
   [-9.25744474e-02  8.04465730e-03 -1.31190317e-02 -7.63834566e-02
    -5.00946976e-02 -5.79379685e-02  9.02444497e-02  7.74469376e-02
     4.00190018e-02 -7.95690045e-02 -3.98812525e-04 -5.80547303e-02
     8.57598428e-03  9.02689025e-02 -1.31549045e-01 -6.25844300e-03]
   [-6.43284917e-02 -3.18061225e-02  7.03764707e-02  1.99434664e-02
    -1.93445027e-01 -1.10279381e-01  1.57977483e-04  3.14413935e-01
    -2.12298423e-01 -1.81365356e-01 -5.15535567e-03  4.32573631e-02
     8.25113654e-02 -1.99877284e-03  3.39005701e-02 -1.08156689e-02]
   [-1.06603123e-01  2.18906272e-02 -1.52654126e-01  5.72742429e-03
     3.42357382e-02  1.04483008e-01  1.10929143e-02 -2.58171912e-02
     7.06580132e-02  4.09909263e-02 -1.90431681e-02 -2.31650304e-02
     3.86484265e-02  4.60245200e-02 -6.18892610e-02 -2.67538000e-02]
   [ 1.50223104e-02 -3.63900587e-02  3.97341438e-02  6.01505116e-03
     1.09443935e-02 -5.68005815e-02  8.25512782e-02 -4.07550670e-02
     1.98073108e-02 -3.84860300e-02 -9.86203030e-02  5.05814217e-02
     4.59802113e-02  3.09186187e-02 -1.79012045e-02 -1.34826032e-02]]

  [[ 4.23731990e-02  1.21231340e-02 -1.15741873e-02 -7.69431069e-02
    -8.80942568e-02 -3.42478231e-02  5.09072421e-03  2.02184156e-01
    -1.23801127e-01  6.85294122e-02  1.50535733e-01 -6.50510043e-02
     7.67008960e-02 -1.37766832e-02 -4.84607667e-02 -2.25654952e-02]
   [ 2.89904363e-02 -5.71712293e-02  4.85902652e-02  1.74729768e-02
    -3.91204283e-02  5.25733863e-04  5.18405437e-02 -1.66933805e-01
     2.78997738e-02 -1.01093449e-01  2.53980458e-01  1.75481811e-02
    -4.95677181e-02 -1.39196664e-01 -1.82874620e-01 -1.29606202e-01]
   [-7.08858902e-03 -1.46773979e-01  7.83807933e-02  6.41307905e-02
     8.73281062e-02  1.32061601e-01  5.74598182e-03 -1.14079580e-01
     1.82573423e-02 -9.97908264e-02  1.96038947e-01 -4.93304245e-02
    -3.18999216e-02  2.88993008e-02  7.97498599e-02  4.76718880e-02]
   [-3.11499257e-02 -1.86857786e-02 -6.35141507e-02 -1.15619667e-01
    -8.86387564e-03 -6.01611845e-02 -1.64832145e-01  1.64728805e-01
    -7.57135525e-02 -2.51235068e-01  1.18359387e-01 -4.25165221e-02
    -8.29468295e-02 -1.08449191e-01 -1.47698030e-01 -1.11833327e-01]
   [-4.97948229e-02  3.73618156e-02  7.33733550e-02  3.96023542e-02
     9.99586731e-02  4.38137949e-02 -1.10973381e-02  1.87200736e-02
    -1.09664716e-01  9.72653646e-03 -1.69272348e-02  5.45585789e-02
    -1.17205799e-01  2.01437417e-02  5.48871942e-02 -1.69921085e-01]
   [-2.37254631e-02  1.08409375e-02  5.91495484e-02  6.46293610e-02
     3.09213996e-02  8.42245594e-02 -1.32094413e-01 -6.89040720e-02
    -6.32879417e-03  4.16504685e-03  7.10654482e-02 -3.59746814e-02
    -6.75156638e-02  1.03296563e-01 -1.90141246e-01 -5.07619269e-02]
   [-1.81527454e-02 -5.41667007e-02 -1.91558227e-01  1.20093778e-01
     1.57533228e-01  1.22889586e-01 -1.02765143e-01 -7.99225643e-02
    -7.84646198e-02  1.71961591e-01 -1.34821221e-01 -6.87268376e-02
     1.14187248e-01  3.69495004e-02 -4.60423529e-02  1.41368285e-01]
   [-3.49865900e-03 -1.08830214e-01 -5.93070500e-02  1.91298891e-02
     7.12482184e-02  3.68321761e-02 -3.40797454e-02 -4.69904870e-01
    -7.22450996e-03 -8.04435015e-02 -8.70546908e-04  2.79137958e-02
    -2.34589979e-01 -1.58243671e-01 -1.27008885e-01 -2.26386283e-02]
   [-6.69449940e-02 -8.59964117e-02 -2.31270399e-02  6.05580304e-03
    -1.34070292e-01 -1.12311788e-01  9.17240512e-03 -1.40481412e-01
     1.02820881e-01 -4.60386574e-02 -2.80487835e-02 -1.11847863e-01
    -2.29580682e-02 -3.01481821e-02  1.05491608e-01  5.60750021e-03]
   [ 2.76355539e-02 -6.32145628e-02 -1.21912077e-01  8.81291255e-02
    -9.42295790e-02 -5.59374355e-02  8.06630030e-02 -3.11346889e-01
     1.90675229e-01 -1.42666295e-01 -2.26484478e-01 -1.30937295e-02
     2.53937859e-02 -1.70577858e-02 -7.89618120e-03  3.65444552e-03]
   [-9.09455046e-02  3.48757766e-02 -3.46586667e-02  1.11039154e-01
     1.47042081e-01  8.02496746e-02 -1.13170840e-01 -3.23145628e-01
     1.26996413e-01  6.53810203e-02  8.65841433e-02 -1.12705886e-01
    -8.00282881e-02  2.82535423e-02  7.35561699e-02  9.48968157e-02]
   [-9.87517387e-02 -5.91144003e-02 -7.57474378e-02  1.07607953e-01
    -9.91586223e-03 -7.80792832e-02  2.42315531e-01  1.15278870e-01
    -3.69588658e-02 -9.94585678e-02  8.30748752e-02 -9.20751542e-02
     1.43398829e-02  3.40461582e-02  2.72360500e-02  2.20771134e-02]
   [-6.38477281e-02 -3.95366224e-03 -2.31181514e-02 -1.41349673e-01
     2.84253154e-03  2.34341342e-02  3.30680422e-03  5.69458529e-02
    -5.62747335e-03  6.01846315e-02  4.61126007e-02 -6.76274076e-02
     1.07503265e-01  1.72099695e-01 -2.96905518e-01  4.36514057e-03]
   [ 1.45142879e-02 -3.17872502e-03  4.65609208e-02 -4.37312201e-02
    -2.42158230e-02  8.04176033e-02  1.18733179e-02  5.87147325e-02
    -3.13685596e-01 -3.59699838e-02  4.97244112e-02 -7.55079556e-03
     6.90545246e-04  7.15069175e-02 -8.16968158e-02  4.82584583e-03]
   [-5.15053682e-02  5.34040742e-02 -1.36833370e-01 -7.73524959e-03
     1.05563015e-01  9.38021392e-02 -9.27046388e-02 -3.81925404e-02
     1.93919241e-02 -6.59578061e-03  1.88367471e-01  1.96569394e-02
    -9.01176408e-02 -1.38811201e-01 -1.04170874e-01 -9.62004215e-02]
   [ 5.97101310e-03 -1.05388388e-02 -9.58800167e-02 -9.55224037e-02
    -1.08877353e-01 -4.82454561e-02  4.05464359e-02  4.61244257e-03
    -8.74857754e-02 -4.87071276e-02 -5.67288809e-02  6.79739704e-03
    -9.64172035e-02  6.41550794e-02  2.47722883e-02 -8.43656361e-02]]

  [[ 5.02957366e-02 -1.17547691e-01  9.70274061e-02 -5.50011881e-02
    -6.29194872e-03 -8.56341154e-04 -2.58824706e-01  8.55981857e-02
     1.22820213e-01 -5.43233193e-02  6.89389184e-02  1.52851185e-02
     8.06634650e-02  1.51690096e-02 -1.29930913e-01 -1.06140576e-01]
   [-9.11377445e-02  5.48777469e-02  5.29417060e-02  4.13752869e-02
    -2.72815935e-02 -8.03419799e-02  3.42950195e-01  1.64035887e-01
     1.00043304e-01 -1.14465140e-01 -2.94757970e-02 -4.85239327e-02
     1.83062956e-01  5.48853427e-02 -1.58283249e-01 -1.28528133e-01]
   [ 5.49912043e-02  6.72736065e-03  6.22054189e-02  5.61819933e-02
     3.13934565e-01  1.06131241e-01  6.87647909e-02 -2.42633253e-01
    -6.28886223e-02 -9.85587854e-03  9.55640301e-02 -5.17732985e-02
    -1.21705703e-01 -1.95393916e-02 -1.38265388e-02  9.50161964e-02]
   [ 7.31284842e-02 -3.03669311e-02 -2.37015545e-01 -2.53967851e-01
    -1.98431127e-02 -2.78993323e-02  6.70646876e-02  3.58624607e-01
     1.74216554e-01 -5.76302707e-02 -1.14763528e-01 -7.77783687e-04
     1.28817081e-01  1.00920111e-01 -1.09236442e-01 -8.52536559e-02]
   [ 1.92191247e-02 -8.40227157e-02  4.22642902e-02 -1.37921628e-02
     3.47307101e-02  2.09909342e-02  1.96697284e-02 -1.47071734e-01
    -1.78258449e-01 -7.61277154e-02 -5.68303512e-03 -2.23376099e-02
    -1.88903540e-01 -1.56149700e-01  1.07220665e-01 -1.90521225e-01]
   [-2.08923090e-02 -1.51654676e-01  1.18252948e-01 -1.43229991e-01
     1.16982535e-01  1.49175346e-01  6.82572499e-02  4.68348414e-02
    -1.45635173e-01 -3.59072187e-03  2.90139001e-02  3.50462794e-02
     1.08514577e-01  1.29574453e-02 -1.91112742e-01 -5.53879254e-02]
   [-8.43753479e-03 -4.52699186e-03 -9.41084027e-02  8.43892470e-02
     4.28591333e-02  1.08654514e-01 -1.28631040e-01 -3.46607655e-01
    -3.72323059e-02  6.76923990e-02 -1.59199521e-01  1.88135095e-02
     1.49547346e-02  7.62294531e-02 -9.61247683e-02  3.89598422e-02]
   [-1.77743065e-03  2.73360927e-02 -1.95254888e-02  8.96659791e-02
     1.77427515e-01  2.10214585e-01  3.09691191e-01 -1.35030732e-01
     2.03950137e-01  7.00684860e-02 -2.01460734e-01 -6.36986941e-02
     3.62027586e-01 -2.42524236e-01 -1.38370857e-01 -4.55643907e-02]
   [-6.10264875e-02 -6.73082247e-02  5.73926084e-02  2.03687817e-01
    -1.43305779e-01  1.25201177e-02 -2.48787999e-02 -1.19383283e-01
     4.71788682e-02  3.62987034e-02  7.23431483e-02 -2.62508001e-02
    -2.07452476e-02 -2.22451799e-02 -8.58506784e-02 -6.81737736e-02]
   [ 8.10269415e-02 -9.46949199e-02  2.87498273e-02  1.13547310e-01
    -5.65455807e-03  1.33400746e-02 -2.35638991e-02 -3.59808803e-01
    -6.12628944e-02  2.89282668e-02 -1.81556523e-01 -1.43718133e-02
    -8.81209150e-02 -8.03605914e-02 -1.19766176e-01 -3.64843160e-02]
   [ 4.65103723e-02 -1.89161580e-02 -3.83355245e-02  7.75524005e-02
     1.91914067e-01 -4.57306451e-04  1.11785710e-01 -1.00013077e-01
     9.38433409e-02  2.55580414e-02  1.34174721e-02  1.95376091e-02
    -3.48208398e-02  2.57032160e-02 -1.02829188e-01  6.55823275e-02]
   [-5.30340411e-02 -5.22341207e-03 -2.87539355e-04  1.94694996e-02
    -5.98141924e-02  7.59436861e-02 -1.16509072e-01  5.12175821e-02
    -2.01823749e-02  9.78548229e-02  6.52279854e-02 -7.88694993e-03
    -1.13921776e-01  3.62861045e-02 -2.47392990e-03  5.36194108e-02]
   [-5.79248182e-02 -1.02596693e-01 -1.34040753e-03  1.43573564e-02
    -1.71256572e-01  1.26951694e-01 -1.14131793e-01 -1.46430582e-01
     7.69749880e-02  1.15008742e-01  5.91299534e-02  5.42066731e-02
     3.56885535e-03  1.97292179e-01 -4.95573021e-02  1.23003379e-01]
   [ 6.50908425e-02 -3.30365337e-02 -3.99816856e-02  5.88753484e-02
    -1.54287945e-02 -1.73631553e-02 -2.74337918e-01 -4.46871072e-02
    -1.25685021e-01  5.41997142e-03  6.09937795e-02  6.83847293e-02
     1.06988341e-01  6.05827160e-02 -2.81559452e-02  9.70223919e-02]
   [-7.55846649e-02 -8.84567201e-02 -2.02532843e-01 -1.63220707e-02
     3.43790017e-02  9.62126404e-02  3.45598068e-03  1.09857999e-01
     1.98672801e-01  1.02830082e-01  3.07788718e-02 -5.84340468e-02
     1.02857977e-01  1.45044923e-01 -1.04508288e-01  2.79350374e-02]
   [ 2.82581244e-02 -2.74787098e-02 -2.46350281e-02  6.37828857e-02
    -1.31344348e-01 -8.00476968e-03  6.69936314e-02 -1.79641675e-02
     8.06098804e-02 -9.44032799e-03  5.24270758e-02 -7.74139017e-02
     4.43118848e-02  7.97547549e-02 -1.17687369e-02 -1.22603253e-02]]

  [[-9.03923437e-02 -1.29935861e-01 -2.50323024e-02  1.19807199e-01
    -3.83025967e-02 -2.78030857e-02  1.17519349e-01  1.83663480e-02
     2.13693514e-01 -9.04258266e-02  4.02485691e-02  5.59600182e-02
     1.16158620e-01 -7.15224296e-02 -6.24781810e-02 -2.30652243e-02]
   [ 1.69527438e-02 -7.22792149e-02  1.07960150e-01  1.07487533e-02
     1.63114846e-01  1.52137682e-01 -4.72473837e-02  6.95165098e-02
    -1.64754719e-01 -9.51811522e-02  5.28115826e-03 -2.17904951e-02
    -1.73180789e-01 -6.27650693e-03 -7.16598853e-02 -4.86170091e-02]
   [-1.76271386e-02  1.27620725e-02 -4.63981889e-02 -8.59515890e-02
     2.00815290e-01  9.86776128e-02  1.44580789e-02 -1.68101892e-01
     7.34025836e-02  1.27709985e-01  1.23968989e-01 -1.97900552e-02
     1.38685063e-01 -2.50387099e-02 -2.73145661e-02 -3.31928879e-02]
   [-9.13054571e-02  2.41805874e-02 -6.37436518e-03 -6.03328384e-02
    -3.24029550e-02  7.66449049e-02 -3.94923650e-02 -5.50418980e-02
    -8.47191364e-02 -8.47747400e-02 -9.83894095e-02  6.03404129e-04
     1.07205525e-01  1.07088044e-01  2.53795907e-02  6.79836124e-02]
   [-9.64613408e-02 -4.12160112e-03  8.07834193e-02  1.40212834e-01
    -9.09407660e-02 -4.28396128e-02  1.36398330e-01  1.95398945e-02
     7.80601203e-02  9.07746106e-02  4.35431562e-02 -4.80290838e-02
    -9.13669467e-02  4.27317582e-02  1.27276406e-02 -8.72461721e-02]
   [-3.91183533e-02  6.03480637e-02  1.11856118e-01 -3.22481035e-03
     2.17489135e-02  6.62408173e-02 -7.50610456e-02  2.03152001e-02
    -1.28362058e-02  1.59743223e-02  6.87712571e-03 -7.02956691e-02
     1.40453801e-01 -1.47305489e-01  5.54374885e-03  5.26925102e-02]
   [-6.60939887e-03  7.48236924e-02 -1.76383957e-01  8.08408931e-02
     5.85642904e-02 -4.97044846e-02 -6.34497032e-02 -1.96964517e-01
     3.09493896e-02  2.14108452e-02 -1.73445076e-01 -8.25080425e-02
     4.27280515e-02 -9.45772082e-02  5.88801727e-02 -8.39439034e-03]
   [ 2.96501908e-02 -2.86805946e-02  2.82904413e-02 -6.09117746e-02
     1.96893007e-01  1.62792310e-01 -2.18880214e-02 -5.88936657e-02
    -8.03644732e-02  1.25399202e-01 -1.46231368e-01 -1.92674883e-02
    -1.24515910e-02  7.10623935e-02 -1.67342685e-02  2.60041803e-02]
   [ 1.92480944e-02  7.80505240e-02  1.87597331e-02  1.17683925e-01
    -6.48201331e-02 -3.49440016e-02 -6.17493410e-03  1.27619073e-01
     6.54376447e-02 -5.41400127e-02 -1.08624361e-01  4.72678840e-02
    -2.31444165e-01 -7.04774037e-02 -1.77495256e-01 -1.57625332e-01]
   [-8.76063034e-02  6.31597713e-02 -8.35003033e-02  1.08524464e-01
    -6.65932745e-02  2.02519074e-02 -2.75672972e-01 -1.81456983e-01
     4.64926958e-02 -4.52067293e-02 -2.16029793e-01 -2.41012108e-02
    -1.36002824e-01 -2.59413749e-01 -6.21871464e-02  3.59841064e-02]
   [-5.94031662e-02  4.25444581e-02 -1.27603859e-01 -6.60711899e-02
     1.27089217e-01 -2.96892095e-02 -1.15450963e-01 -1.07494956e-02
     3.14020552e-02  4.69232202e-02 -3.85699496e-02  2.96243690e-02
    -5.92229441e-02 -2.19063200e-02 -3.85033377e-02 -4.10544388e-02]
   [-1.08103909e-01  2.15175059e-02  2.37256791e-02 -3.79520059e-02
     9.09763053e-02  8.15970749e-02  1.32732391e-01  5.80212623e-02
     8.19593221e-02 -1.90271959e-02  1.80531945e-02 -5.96471429e-02
     4.40871641e-02 -1.57294169e-01 -6.14993870e-02  1.40242428e-01]
   [-8.97192210e-03 -3.12518962e-02  5.73518686e-02 -3.23309451e-02
    -1.03368968e-01  4.39619720e-02  1.45037785e-01 -9.27768201e-02
     8.69055390e-02 -2.77602784e-02  1.42140756e-03 -7.90324733e-02
    -5.17755374e-02  1.20643616e-01  1.52955219e-01 -2.00951155e-02]
   [ 1.01566303e-03 -6.40537143e-02  2.98819151e-02  8.31712559e-02
     5.12949005e-02  2.08710097e-02 -2.15414554e-01  7.00694509e-03
    -4.86722402e-02 -3.44110206e-02 -1.69041790e-02  7.64362589e-02
    -5.43071367e-02 -2.22362265e-01 -2.98562576e-03 -1.72870024e-03]
   [-6.73021078e-02  1.09833395e-02 -5.01165390e-02 -6.66354522e-02
     9.16057676e-02 -2.73110159e-02 -1.51555598e-01 -4.11819406e-02
    -1.54075131e-03 -6.58669649e-03 -2.72913426e-02 -8.48792773e-03
     6.12680130e-02  9.81851444e-02 -1.29645609e-03  5.43351695e-02]
   [-2.83478387e-02  1.36074442e-02  1.87773854e-02  1.55547343e-03
    -3.80264260e-02 -1.05777517e-01  1.37832358e-01  1.03171304e-01
     1.28189549e-01 -1.40602976e-01  6.78521320e-02 -5.49362861e-02
     6.54146599e-04  1.39513696e-02  1.53519467e-01  2.06062030e-02]]]


 [[[ 1.64117590e-02 -5.31328134e-02  1.03915028e-01 -1.26943346e-02
     1.00018039e-01  8.57105404e-02 -9.13948119e-02  8.49113166e-02
     1.95576936e-01  1.33366019e-01 -1.96336620e-02 -4.49371599e-02
     7.80886859e-02 -7.78835490e-02  6.80594593e-02  3.03712357e-02]
   [-6.32567704e-02 -3.09083648e-02  2.95835920e-02  9.73511115e-02
     9.09399241e-02 -1.36567242e-02 -2.06056044e-01  1.18590236e-01
    -1.23223819e-01 -1.14391245e-01  1.22714043e-01 -6.68014139e-02
    -8.92388150e-02 -4.73516285e-02  9.91168246e-02 -5.26519120e-02]
   [ 6.16595447e-02 -4.02381010e-02  3.40803340e-02 -1.14879459e-01
    -2.34552054e-03  7.90390745e-02  6.05364256e-02  1.13733478e-01
    -5.50773218e-02  8.75097737e-02  1.94128320e-01 -5.97031489e-02
     7.34823495e-02  2.41659254e-01 -1.12777622e-02 -7.10158795e-02]
   [ 1.96460332e-03 -3.31494957e-02 -1.28312960e-01  9.47051346e-02
    -1.27665728e-01 -2.00159818e-01 -1.84508905e-01  1.91628821e-02
    -7.12990835e-02  6.09010607e-02  1.32756814e-01 -3.54360952e-03
    -1.42548084e-01 -2.10851699e-01  1.69413388e-01  9.47369710e-02]
   [ 3.21583189e-02 -1.45552689e-02  1.52870581e-01 -2.91043334e-02
    -1.26110762e-02 -4.72392105e-02  2.89354362e-02 -1.68863520e-01
    -3.24561670e-02  1.23469690e-02 -9.31289643e-02 -3.50204892e-02
     8.79230052e-02 -2.38126423e-03 -2.72365753e-02 -5.77696450e-02]
   [ 3.32346410e-02 -1.71014853e-03  5.86734861e-02 -1.97250023e-01
     3.65670323e-02  1.91951841e-01  3.26120742e-02 -3.20252031e-02
    -5.86741492e-02 -2.47256141e-02  1.25858590e-01  4.68139686e-02
     4.93882261e-02  4.91942316e-02  7.63499290e-02  3.93922925e-02]
   [ 4.17805985e-02 -1.63438674e-02 -3.20243053e-02 -4.92959432e-02
     9.94324908e-02 -1.92324072e-02  1.42013496e-02 -1.95752364e-03
     1.08332764e-02 -2.42040977e-02 -1.20433718e-01  4.33855169e-02
     9.96236950e-02  7.05118179e-02 -1.26148924e-01  2.95935348e-02]
   [ 2.53206342e-02 -2.00202614e-02 -2.01269817e-02  1.59447920e-02
     1.19101450e-01 -9.63634104e-02  4.00746092e-02  1.13976471e-01
    -4.03398611e-02 -2.13894434e-02  8.73624906e-02 -1.78918131e-02
     8.73763859e-02 -1.18694678e-01  1.51700035e-01  6.69801887e-03]
   [-9.53624621e-02 -6.02139831e-02  9.40794498e-03 -9.29738134e-02
    -4.64293249e-02  4.35041934e-02 -1.08542867e-01 -1.87936667e-02
    -1.51796907e-01  6.46613091e-02 -6.45210128e-03 -1.28328688e-02
    -6.78008646e-02  2.02184647e-01  7.38468617e-02 -5.88281304e-02]
   [-1.08808354e-01 -1.03982925e-01  1.21875636e-01 -5.57686463e-02
     6.21893480e-02  1.30535588e-01 -2.81350296e-02  1.84523053e-02
    -2.72091597e-01  1.08955979e-01 -1.16720304e-01 -3.82119156e-02
    -3.49741094e-02  1.46589190e-01  3.54212001e-02 -2.68316269e-02]
   [ 1.65961478e-02 -7.38248676e-02 -6.94375262e-02  8.96724686e-02
     1.04114704e-01  4.68388014e-03 -2.10519191e-02 -5.89358956e-02
     9.19688493e-02 -5.17175300e-04  5.19239269e-02 -9.13795382e-02
     1.78616252e-02  1.40794188e-01  2.97899153e-02  1.54956393e-02]
   [-7.12413862e-02  3.56748737e-02 -3.08991745e-02  1.44652054e-01
    -4.47336957e-02  2.02535063e-01  6.35472313e-02  9.37283710e-02
    -1.03426687e-01  3.21267522e-03  4.59026694e-02  5.07604703e-02
     6.96382895e-02  2.83313338e-02  9.44395140e-02  7.50643574e-03]
   [-4.24552113e-02 -1.62840437e-03  7.97061548e-02 -4.15098853e-04
    -1.62788749e-01 -1.80863589e-02  5.51189408e-02  2.31308267e-02
     2.09445551e-01  2.27137387e-01 -9.79853123e-02 -1.21071450e-01
     3.21409106e-02  4.82184887e-02  1.33179635e-01  9.71830357e-03]
   [ 4.19019274e-02  2.90187225e-02  1.15078606e-01  1.11887932e-01
    -6.37935251e-02  3.44133489e-02 -2.86003910e-02  7.82983899e-02
     1.10476345e-01  3.66604589e-02 -7.66846538e-02  1.66452657e-02
     2.81259622e-02 -7.31823072e-02  2.17795759e-01 -5.85545860e-02]
   [-3.98952067e-02 -1.55266589e-02 -1.29604787e-01 -4.36653532e-02
    -6.26222938e-02  9.73677263e-02 -2.03226395e-02 -1.30137764e-02
     4.84066568e-02 -5.55945262e-02  7.97824636e-02  1.94990057e-02
     2.09153369e-02  1.52985498e-01 -3.75978239e-02 -8.91331807e-02]
   [-5.29718995e-02 -2.06764713e-02  3.88352089e-02 -1.48741538e-02
    -1.06811784e-01  1.61636770e-02  6.17037863e-02 -1.06162265e-01
     5.33479378e-02  2.92435139e-02 -8.39271992e-02 -1.04074487e-02
     2.10013520e-02  1.47237912e-01  8.89768973e-02 -8.96313787e-02]]

  [[ 2.98831221e-02  2.36905105e-02 -1.97516754e-02 -3.59599069e-02
     6.38560578e-02  6.88417256e-02 -1.23145217e-02  1.38397232e-01
     2.55726725e-02 -2.47906474e-03 -1.08870655e-01 -1.08140651e-02
     8.13421234e-02 -8.85768235e-03 -1.20423011e-01 -4.21834327e-02]
   [ 9.70710255e-03  4.83707301e-02 -2.34458566e-01 -1.07904509e-01
    -1.50706051e-02 -6.10374361e-02 -1.80991635e-01 -1.37765473e-02
    -7.00012371e-02 -2.06582099e-02 -8.37509036e-02 -8.47772136e-02
    -1.65271670e-01  5.87423332e-02 -2.35428624e-02 -7.72644579e-02]
   [-4.74654231e-03  1.30195840e-05  1.05011147e-02 -1.99516132e-01
     1.66471317e-01  5.02129756e-02  4.33697104e-02  7.15303794e-02
    -1.21702924e-01 -5.16684465e-02 -7.74577353e-03 -7.31425956e-02
     4.44336571e-02  2.71839470e-01 -7.06828386e-02  5.44268452e-02]
   [-8.22900757e-02 -5.91119342e-02 -1.40460923e-01  9.48791578e-02
     8.07677805e-02 -1.08755805e-01 -1.95789665e-01  1.19575709e-01
     1.25638291e-01  4.63811532e-02 -2.31831409e-02 -7.32712671e-02
    -1.17647454e-01 -1.48005441e-01 -2.20868468e-01 -9.76234451e-02]
   [-8.89867470e-02 -1.73430257e-02  1.10915229e-02 -5.07193431e-02
    -7.17786327e-02 -9.80463251e-02  9.33946967e-02  6.28718212e-02
    -9.99315158e-02 -1.47831529e-01  1.57026574e-02 -7.14045856e-03
     6.38941228e-02  9.14789364e-02  7.44292364e-02 -4.26653698e-02]
   [ 5.70523441e-02 -1.37546507e-03 -7.50575811e-02 -2.05672637e-01
     1.07881628e-01  3.08955133e-01 -6.49109036e-02  2.85774935e-02
    -1.45757586e-01 -4.39367928e-02 -5.04871830e-02  1.56771317e-02
    -1.17171146e-01  1.99132800e-01 -6.29185066e-02  1.32188052e-01]
   [-8.39171335e-02 -9.07661021e-03 -9.06482264e-02  6.45470396e-02
     4.72810529e-02  7.64109343e-02 -6.90335035e-02 -1.25568196e-01
    -2.14933008e-01  4.37452756e-02 -3.98307890e-02 -5.09484373e-02
     7.85577372e-02  5.60492277e-02  7.14739133e-03  1.39036179e-01]
   [-8.55967286e-04  4.86112647e-02 -1.55413285e-01  4.41777594e-02
    -1.37909120e-02 -4.74063419e-02 -1.59460388e-03 -8.10479522e-02
    -1.18078524e-02 -2.89505795e-02 -2.41635010e-01 -5.21966442e-03
    -1.57266647e-01 -8.66414458e-02  4.70880903e-02 -1.25903348e-02]
   [-3.52618732e-02  6.38154000e-02 -2.40573987e-01 -1.16254345e-01
    -3.13214451e-01 -7.23210201e-02 -1.98695078e-01 -1.45605713e-01
    -1.02142304e-01 -3.30492742e-02  3.41463159e-03  2.37322357e-02
     7.37434775e-02  1.83662966e-01  1.24856204e-01 -5.13816960e-02]
   [-7.96898827e-02  3.92824374e-02 -5.50863668e-02  8.40173215e-02
    -6.33915365e-02 -9.19315498e-03 -7.61966333e-02 -3.46835218e-02
    -8.86521265e-02 -7.49462619e-02 -1.89920232e-01 -6.04903325e-03
     7.37063438e-02  1.35489330e-01 -4.04114835e-02  9.26936492e-02]
   [-1.05568282e-01 -6.92080781e-02 -6.23313934e-02  8.44032913e-02
     1.77044189e-03  1.22532193e-02 -1.05252557e-01 -1.78774565e-01
    -3.13774915e-03  1.58131290e-02  2.37572920e-02 -3.13043371e-02
    -4.09712531e-02  6.57790452e-02  8.94463994e-03 -7.99739584e-02]
   [ 1.73910931e-02  4.29221801e-02 -4.02954370e-02  1.68177998e-03
    -3.87798920e-02 -8.68071429e-03  9.57133900e-03  1.84029303e-02
    -8.62191990e-02  1.89401433e-02  5.46441376e-02 -4.34395783e-02
    -3.06662228e-02  7.61855468e-02  2.78449673e-02  1.14831954e-01]
   [ 2.23165262e-03 -3.71424221e-02 -1.54828690e-02 -1.56256463e-02
    -9.08509493e-02  3.99115011e-02  1.12185024e-01 -7.63379633e-02
     1.02740727e-01  4.76449318e-02  2.09622718e-02 -1.42529299e-02
    -1.80558935e-01 -6.95857331e-02  1.11012928e-01 -3.61456200e-02]
   [ 7.04612508e-02 -5.38915694e-02  1.72884375e-01  5.36542088e-02
    -5.18059172e-02  9.67363939e-02 -7.26940334e-02  2.24397913e-01
    -1.52815968e-01 -1.26304343e-01 -5.77359162e-02 -6.73962831e-02
    -9.54328105e-02 -1.07534025e-02  9.48956683e-02  5.54278977e-02]
   [-1.96152683e-02 -3.51227000e-02 -1.83915004e-01 -6.66318610e-02
    -6.92412034e-02  5.78633100e-02  6.81020841e-02  2.77355928e-02
     7.29606524e-02 -1.52963353e-03  1.98210757e-02 -9.46308225e-02
    -3.87520939e-02  1.09085351e-01 -1.97034031e-02  9.88971964e-02]
   [-2.88834684e-02 -7.28532672e-02  4.36418243e-02  5.39676193e-03
     4.05987836e-02  3.65447924e-02  3.76205258e-02 -2.09081769e-01
     2.40476392e-02  1.16120338e-01 -7.51850754e-02  1.58406459e-02
    -6.07544929e-02 -2.98971087e-02  8.16850215e-02  2.67794691e-02]]

  [[ 2.33301446e-02 -5.87910600e-02  7.72649422e-02 -1.01751842e-01
     9.30901617e-02  1.36102840e-01 -5.19617945e-02  2.09723964e-01
    -1.57820150e-01 -3.02711166e-02  4.03613709e-02 -3.72811593e-02
    -6.88558742e-02 -7.64120277e-03 -7.94434473e-02 -4.45842557e-02]
   [-2.99936184e-03 -4.07675728e-02 -1.72055680e-02 -3.39999236e-03
    -1.21449426e-01  3.52683105e-02 -8.87321904e-02 -5.69543876e-02
     3.52078937e-02 -6.76129162e-02  1.18020490e-01 -9.63707045e-02
     9.85816196e-02 -3.48816104e-02 -1.27791762e-01 -6.91146450e-03]
   [-6.47872239e-02  4.20628078e-02 -3.58664058e-02 -1.77383915e-01
     3.08990419e-01  2.05523700e-01 -6.83452561e-02 -1.77682370e-01
    -2.64947444e-01 -1.23747513e-01  1.87634155e-01 -4.69117425e-02
    -1.96205303e-01  2.08910108e-01 -1.99196622e-01  7.42431730e-02]
   [-1.05010793e-01 -4.02363464e-02 -1.48600370e-01 -1.48704976e-01
     4.98052426e-02 -1.07730471e-01 -1.26242563e-01  1.91862285e-01
    -3.74961272e-02  2.14583557e-02  1.40150249e-01 -1.24285715e-02
     5.10547534e-02 -1.81441039e-01 -2.26030752e-01 -9.84175354e-02]
   [ 3.20244841e-02 -8.84019881e-02  9.60374996e-02 -2.77816132e-02
    -3.72514478e-03 -1.38132781e-01  3.34092565e-02 -6.13068119e-02
    -2.26974204e-01 -2.64677359e-03 -6.99430481e-02  2.85878312e-02
    -4.11643311e-02  1.46697581e-01  2.13084146e-02 -4.95603606e-02]
   [ 2.03845352e-02 -8.66087005e-02  1.46592662e-01 -1.49173900e-01
     1.90766096e-01  1.52723655e-01 -1.24157883e-01 -1.56274974e-01
    -7.79217109e-02 -1.33687124e-01  1.59066930e-01 -2.81009376e-02
     2.59073861e-02  6.01709560e-02 -1.17548108e-01  1.16937354e-01]
   [-1.02205640e-02 -6.92046285e-02 -1.67923525e-01  1.51170688e-02
     3.62591594e-02  9.28093446e-04 -4.37075011e-02 -2.72110909e-01
    -1.30197391e-01 -9.38654691e-02 -7.02634677e-02 -2.53799707e-02
     3.05826198e-02 -7.07406774e-02  8.02254230e-02  9.02773365e-02]
   [-8.96189809e-02 -6.14308231e-02 -6.64430261e-02  9.55021158e-02
    -1.69998974e-01 -5.88827655e-02 -9.42071378e-02 -2.55560160e-01
    -6.01860397e-02  6.92302659e-02  6.01704717e-02  4.12840303e-03
     1.14123613e-01 -1.55391440e-01 -1.47835135e-01  9.59430262e-02]
   [-1.15983762e-01 -3.46404538e-02 -2.14155197e-01 -4.01165336e-02
    -3.14047217e-01 -1.85433805e-01 -6.36005923e-02 -1.47125155e-01
     4.51018214e-02 -8.84730369e-02  1.89026669e-02 -6.92502484e-02
    -3.95564875e-03  1.61904246e-02  1.12914480e-01  6.78238878e-03]
   [ 1.45247793e-02 -1.25384787e-02 -2.41548911e-01  6.04445226e-02
     2.30608904e-03  1.10289315e-02  9.81433466e-02 -5.27776890e-02
     1.55712843e-01  1.27759278e-02 -2.80891627e-01 -1.00924425e-01
     9.35803503e-02  9.63789597e-02 -7.24121090e-03  1.14008188e-01]
   [-5.85845485e-02 -1.04444928e-01 -1.95022807e-01  4.95221512e-03
     9.70400348e-02 -7.96602368e-02 -1.43326968e-01 -3.04970086e-01
    -1.78605206e-02 -8.10506418e-02  5.72180003e-02 -6.74903244e-02
     2.17308700e-02  3.60689330e-04  3.52329239e-02  4.81356420e-02]
   [-1.25022888e-01 -1.80299580e-02  7.33487159e-02  1.34979039e-01
     4.68857661e-02  1.02908798e-02  2.37233862e-01  9.88586172e-02
     7.62913898e-02  2.85532996e-02 -5.01246154e-02 -4.99156825e-02
    -3.31806354e-02  6.26873896e-02 -6.00725301e-02  5.54921664e-02]
   [-1.67821683e-02 -4.80231419e-02  3.46569158e-02 -2.06666291e-01
    -2.19450686e-02  1.07540853e-01  1.16136737e-01 -2.03506246e-01
    -1.77402526e-01  5.30082546e-02 -9.77200791e-02 -6.27248874e-03
    -2.90470362e-01  5.95286861e-02  4.82671447e-02 -1.25007644e-01]
   [-4.03842181e-02 -1.15941800e-01  2.21659988e-02 -1.71755642e-01
     1.10060744e-01  1.66706815e-01  1.54873496e-03 -1.24270585e-03
    -2.53169030e-01  8.44244584e-02  1.50231421e-01 -4.40553874e-02
    -1.37442872e-01  9.83044803e-02  1.58628017e-01 -1.18732229e-01]
   [-9.84108746e-02 -5.38172908e-02 -2.08466575e-01 -6.15277737e-02
     9.77518484e-02  6.31010607e-02 -4.41012308e-02  2.22447421e-02
    -1.38230085e-01 -1.74539387e-01  1.82335407e-01 -1.91137735e-02
    -1.52768180e-01 -1.21152420e-02 -1.37262233e-02 -3.72809172e-02]
   [-7.14309886e-02 -6.15851991e-02  1.71743508e-03 -3.45826708e-02
     9.59274694e-02  1.13487616e-01  8.54323432e-02 -2.92603046e-01
    -1.24700867e-01 -7.70630538e-02  9.95070877e-05  2.29706094e-02
    -1.97473273e-01  2.64438652e-02 -9.26026516e-03 -1.95973529e-03]]

  [[ 3.41944247e-02 -9.74921361e-02 -2.28022113e-02 -1.29261658e-01
     1.09779797e-01  4.30215895e-02 -3.04963917e-01 -4.75006551e-02
     3.37736793e-02 -1.56780686e-02 -1.00674808e-01  5.17770685e-02
    -2.15302005e-01  2.30782434e-01 -2.51093805e-02  2.07490884e-02]
   [-3.88285704e-03 -8.35153162e-02 -6.86569978e-03 -6.96892887e-02
    -5.86076900e-02 -5.15366858e-03  3.88566703e-01  1.25740290e-01
    -1.91363543e-02 -5.55342734e-02 -1.65082410e-01 -2.36579105e-02
     9.55037624e-02 -2.47962382e-02 -1.33296773e-01  1.00849628e-01]
   [-2.91479342e-02 -4.93798293e-02  6.27269894e-02 -9.81907323e-02
     3.11126828e-01  1.25554979e-01  7.58914053e-02 -1.61980674e-01
    -6.31948858e-02 -1.90306202e-01 -5.51789962e-02 -5.95961213e-02
    -1.41413137e-01 -8.33856985e-02 -2.99853653e-01  7.02069327e-02]
   [-1.04971170e-01 -6.57160059e-02  8.97479579e-02 -1.33571923e-01
    -1.49278998e-01 -1.18835047e-02  1.00107724e-02  3.64631355e-01
    -6.87957630e-02 -4.13502529e-02 -1.58075809e-01 -6.29492700e-02
     1.51502088e-01  2.45317906e-01 -1.62133947e-01  6.72229528e-02]
   [ 4.83084358e-02 -8.45694691e-02  8.73028785e-02  2.40173414e-02
    -9.43925679e-02 -1.73455730e-01 -5.53408870e-03 -1.95279270e-01
    -1.25150800e-01 -2.76291426e-02 -5.16068675e-02 -3.63424458e-02
     8.11963007e-02 -4.84442944e-03 -4.81046848e-02  3.41832004e-02]
   [-5.24702780e-02 -2.10537285e-01  3.89208272e-02 -1.58103868e-01
     2.78690249e-01  1.06790110e-01  1.17086008e-01 -8.34855437e-03
    -1.00023463e-01 -3.58140804e-02  3.27593833e-02  1.57591067e-02
    -6.16182573e-02  1.86745655e-02 -1.86781064e-01  1.03032053e-01]
   [-6.00936599e-02 -7.33066797e-02 -1.91153154e-01  2.24787798e-02
    -2.59873308e-02  1.19747765e-01 -2.49745399e-01 -2.41772786e-01
     2.65170969e-02 -8.26476887e-02  3.90753299e-02  5.64182028e-02
    -6.35429658e-03  8.45694169e-02  7.87432343e-02 -8.37700348e-03]
   [ 3.80414240e-02  1.86635926e-02 -6.27819151e-02  6.34402484e-02
    -4.64455523e-02  4.61480841e-02  4.48990822e-01  1.34747578e-02
     2.26520762e-01 -5.23496978e-03 -9.11065266e-02 -1.35250315e-02
     3.40455115e-01 -3.03093433e-01 -1.22986019e-01  1.25231087e-01]
   [-4.31335578e-03  4.28496115e-02 -2.08119482e-01  1.33613169e-01
    -1.38095424e-01 -1.85323983e-01 -4.29759821e-04 -4.27002966e-01
     5.93415871e-02 -4.97298501e-02 -8.32185075e-02 -6.37711510e-02
    -6.14871457e-02 -5.16738109e-02  1.21036544e-01 -2.26761512e-02]
   [ 9.55599267e-03 -8.53985101e-02 -2.63644397e-01  4.20517325e-02
     2.19881255e-02 -1.44617483e-01  5.60113750e-02 -5.99044681e-01
     2.17498481e-01  1.39400974e-01 -2.04227701e-01 -1.29209355e-01
     5.81974052e-02 -4.54628281e-02 -2.54806578e-02 -3.96799557e-02]
   [ 6.02684543e-02 -7.69443214e-02 -2.44478628e-01  1.30372927e-01
     1.24744968e-02 -8.50561708e-02  8.19165483e-02 -1.08685650e-01
     5.58201282e-04 -6.34802356e-02  5.03777973e-02 -7.36460760e-02
    -4.05881703e-02 -1.30620494e-01 -1.36931852e-01 -6.18751487e-03]
   [-9.74395894e-04 -6.09021522e-02 -3.31556462e-02 -1.35434553e-01
    -3.70689444e-02  2.28521209e-02 -2.18769550e-01  5.20586362e-03
     1.08717069e-01  7.34681338e-02 -2.88036391e-02  1.14727225e-02
    -1.34796336e-01  7.28214383e-02 -1.41504193e-02 -1.07021770e-03]
   [ 2.49193627e-02  1.30089447e-01  1.42497703e-01  1.71518363e-02
    -6.13030866e-02  2.30100583e-02 -1.60293877e-01 -2.27168858e-01
    -2.52927914e-02 -8.26343447e-02 -1.07384168e-01 -5.62298372e-02
    -4.80438828e-01  1.86055332e-01  8.60393867e-02 -6.64143413e-02]
   [-1.79492012e-02  2.07315646e-02  1.07781723e-01 -9.87623930e-02
    -1.23677719e-02  6.52617738e-02 -2.25526184e-01 -9.24129263e-02
     4.64672036e-02  4.78543304e-02 -4.85169701e-02 -3.03354878e-02
    -1.47356063e-01  1.32897794e-01  4.81693149e-02 -1.02700695e-01]
   [ 2.97110341e-02  3.52998562e-02 -1.22381225e-01 -1.34451697e-02
     1.04572207e-01 -6.21004328e-02 -1.57457873e-01  2.27212787e-01
    -3.28762867e-02 -1.04040667e-01 -7.54749626e-02 -7.56106165e-04
     4.42309454e-02  7.03069046e-02 -3.06933541e-02  5.64433336e-02]
   [-5.62364571e-02  3.61894667e-02  1.32943355e-02  5.98617829e-02
     9.72557068e-02  8.04603025e-02  9.52697173e-02 -4.49236035e-02
    -7.76753053e-02 -9.97160822e-02  2.94440985e-03 -6.63097994e-03
    -7.73258060e-02 -4.58905995e-02 -2.05894746e-02 -6.38393834e-02]]

  [[-1.88989323e-02 -1.14625089e-01 -5.01204319e-02 -1.53406218e-01
     2.24553570e-02  1.56756148e-01 -2.11313572e-02 -1.39816031e-01
     1.53213456e-01  7.59852380e-02 -1.83424190e-01 -1.08974837e-01
     1.35031994e-03 -8.20611268e-02 -1.32142887e-01 -3.93141545e-02]
   [-7.97614232e-02  4.60736528e-02 -6.94192946e-03 -4.25390340e-03
     2.63618469e-01  6.22514859e-02 -1.26410961e-01  7.91327804e-02
    -1.10819889e-03  1.68787409e-02 -5.75796776e-02 -3.69099639e-02
     1.00093829e-02  1.55561686e-01 -1.45921066e-01  2.33673044e-02]
   [-3.67941074e-02  2.35202257e-02  3.97643447e-02 -1.34335622e-01
     1.82772949e-01  1.28127813e-01  9.97016579e-02 -4.65287156e-02
     1.33885279e-01  1.01332076e-01 -1.11027762e-01  2.46247537e-02
    -3.88628580e-02  1.23644814e-01 -9.91155729e-02  1.09978020e-01]
   [ 1.24236615e-02 -9.84683931e-02  2.38806643e-02 -1.19906336e-01
    -1.80819765e-01 -3.93319651e-02 -1.22945674e-01 -1.59595180e-02
    -2.15946138e-02  1.14482053e-01 -1.68934748e-01 -9.28152129e-02
     2.56361645e-02  3.33208770e-01 -1.90631554e-01  3.74946333e-02]
   [-1.12674758e-02  4.40399684e-02  1.56964675e-01 -1.19829820e-02
