dense/kernel:0
(784, 128)
[[ 4.14731503e-02  3.76361981e-02  5.71062192e-02  2.86463425e-02
  -7.78577775e-02  9.02526081e-03 -2.95394659e-03 -2.26625912e-02
  -3.45231406e-02 -5.06176502e-02  3.48205641e-02 -4.22905423e-02
  -2.40297318e-02 -1.44132227e-02 -2.08778419e-02  2.47768313e-03
   4.12819684e-02 -3.52929197e-02  8.02466199e-02 -3.65689397e-03
   3.00232917e-02  1.72472298e-02  6.40692785e-02 -7.70943165e-02
  -2.23232619e-02 -1.70195997e-02  2.18585655e-02 -3.40864994e-02
   6.07215688e-02 -3.19128372e-02  5.72922602e-02  4.95930538e-02
   2.11156085e-02  3.11296731e-02  7.40505829e-02 -6.16233274e-02
  -5.38011640e-02  7.62462988e-02 -5.69512546e-02 -1.04024187e-02
   4.38287109e-02 -2.07546763e-02  3.25664133e-02  5.09225354e-02
   6.70396611e-02  9.96777415e-03  1.56313032e-02 -8.12100619e-03
   4.09240201e-02 -3.66477817e-02 -2.25915834e-02  3.26935649e-02
   6.21977970e-02 -1.98329911e-02 -7.28409961e-02 -5.76169044e-03
  -4.11084890e-02  1.95990205e-02  5.73852584e-02  6.66810498e-02
  -4.40195203e-02  6.94416687e-02  7.41711780e-02 -5.18508554e-02
   7.51722604e-03  1.05606765e-03 -4.20282371e-02 -6.48526549e-02
  -1.83502659e-02  7.74389431e-02 -6.94837868e-02 -2.12874077e-02
  -3.21597606e-03 -2.01272070e-02  4.53223661e-02 -5.67182899e-03
  -3.26968506e-02  5.77263534e-03 -4.86671142e-02 -4.57732528e-02
  -7.57242367e-02 -6.66100010e-02  3.49526629e-02 -3.90549339e-02
   6.09111786e-03 -6.29654229e-02 -7.18971863e-02 -9.63933021e-03
   6.10842556e-03  3.99550796e-03 -3.60082835e-02 -7.18087703e-02
   4.62167934e-02 -6.98675215e-02  7.58208707e-02 -3.97380404e-02
  -2.22094171e-02  1.34782717e-02 -3.66713516e-02  8.07121918e-02
  -1.91326179e-02  6.12576380e-02 -5.52355424e-02  1.38313100e-02
   5.24732843e-02  3.32267359e-02 -3.59587558e-02  5.40049151e-02
  -7.24267289e-02 -2.47733295e-03 -3.37866582e-02 -2.79426575e-03
  -6.08712435e-02  3.15727517e-02  5.19370213e-02  2.23896354e-02
  -1.34723336e-02 -2.63413042e-03  7.66041651e-02  2.73583606e-02
  -1.75672770e-02  4.52792123e-02 -8.03680569e-02  1.42995343e-02
   5.67970946e-02  1.39910653e-02  1.60986111e-02 -7.19477162e-02]
 [ 5.09636924e-02 -3.76399904e-02 -1.83548331e-02 -4.14497405e-03
  -1.11819655e-02 -1.04957446e-02 -4.81255837e-02  2.50067413e-02
   3.99805456e-02  5.07673100e-02 -2.73861662e-02 -8.34812969e-03
   4.65180352e-02 -6.29424900e-02  2.62541026e-02  2.84445286e-02
  -2.33897306e-02  4.33433950e-02 -7.76482224e-02  6.93831369e-02
  -1.21728182e-02 -6.84187859e-02 -5.13176620e-02  8.02902952e-02
  -2.82520168e-02  7.77036473e-02  1.11572295e-02 -7.73907453e-03
  -6.51397482e-02  3.34557593e-02 -5.97379208e-02 -2.88158655e-02
  -1.94501542e-02  8.05614367e-02 -6.84556887e-02  3.43743339e-02
  -1.66521296e-02 -4.64310460e-02  5.52402437e-03  2.75192484e-02
   7.50276521e-02  5.54338917e-02 -7.07182661e-02 -7.35835731e-03
   3.13005298e-02  5.99611625e-02 -3.51269580e-02 -6.52589127e-02
   1.28833652e-02 -7.83950910e-02  1.78518817e-02 -3.81734371e-02
   8.84936005e-03  5.03212884e-02 -7.01827556e-03  4.95707169e-02
   2.86010951e-02  4.30932567e-02 -5.64624406e-02 -3.38546708e-02
  -1.31059140e-02  5.38046286e-02  5.09556606e-02 -5.42920232e-02
  -7.83634484e-02  7.96831176e-02  2.19034851e-02  7.31011853e-02
   4.30635735e-02  1.08886436e-02  6.59556314e-02 -4.43921313e-02
   6.84982911e-02 -5.95535338e-02 -1.82733759e-02 -3.35898325e-02
   3.36438268e-02  7.77473673e-02  5.39285168e-02 -6.59583583e-02
   3.83543298e-02  5.76079115e-02 -7.33655840e-02 -2.64513493e-03
  -1.61361471e-02 -2.50196978e-02  5.40257618e-02  6.69437647e-03
  -2.39632651e-02 -4.72661108e-03 -7.61519596e-02 -3.43304127e-02
  -3.32442783e-02  1.83826759e-02 -4.94650491e-02  8.00479874e-02
  -7.70093426e-02  5.64458445e-02  6.01038858e-02 -2.17013620e-02
  -2.59550139e-02 -7.52904192e-02  1.26152262e-02 -9.55218822e-03
  -4.82031293e-02  6.76993206e-02  5.62717766e-03  7.45382831e-02
  -2.23110616e-02 -7.92349130e-02 -6.95459396e-02 -7.59298652e-02
   8.06621686e-02  5.47956899e-02 -2.23210007e-02  3.50832120e-02
   6.13647029e-02  5.69270179e-02  4.09421772e-02  6.98443279e-02
  -6.28206804e-02 -3.75792272e-02 -5.24625853e-02 -6.48827031e-02
  -2.04283409e-02  5.58260903e-02 -4.35164720e-02  4.01076525e-02]
 [ 4.06671911e-02 -6.81571811e-02 -7.63286725e-02  2.16531754e-02
   6.97660372e-02 -4.13365066e-02  4.24559638e-02 -2.77518928e-02
  -1.95046104e-02 -4.17251103e-02  3.83107215e-02 -8.05258602e-02
   1.82594955e-02 -5.37482649e-03 -4.79783230e-02  6.49441853e-02
  -3.06112505e-02 -1.23804584e-02  3.74850333e-02 -2.08632201e-02
  -4.67884764e-02 -8.35625082e-03 -7.12083802e-02  7.68647268e-02
  -2.03571953e-02  8.10211375e-02 -6.49984255e-02 -5.66454604e-02
  -2.18939148e-02  4.58648130e-02  7.66263381e-02  7.45482370e-02
   3.20298299e-02  6.36367127e-02  2.97789499e-02  7.18394890e-02
   6.93816170e-02  5.85824028e-02  5.86694255e-02  3.14585567e-02
   7.93996379e-02 -2.89310254e-02  1.49405226e-02 -4.65054214e-02
   5.91424853e-03  5.67099825e-02 -4.87878621e-02 -2.12556720e-02
  -1.20839030e-02 -3.67881954e-02 -7.22226351e-02  2.89828107e-02
  -1.60790831e-02 -4.94424812e-02 -1.71930417e-02  5.51279411e-02
   1.73471868e-02  7.13973567e-02  4.40320000e-02  4.81467694e-03
  -1.12003013e-02 -6.29367456e-02  1.17499530e-02 -3.68869938e-02
   2.65669376e-02  6.33624420e-02 -6.12378977e-02  6.77434430e-02
  -1.33790672e-02  6.32526651e-02 -5.58415651e-02 -5.70145287e-02
   2.46795192e-02 -2.46261805e-03 -6.11725152e-02 -2.36942321e-02
   5.48515394e-02  5.63458428e-02  3.12180668e-02 -1.50526017e-02
   5.90987280e-02 -2.91417912e-02  6.96300939e-02 -7.68666491e-02
   3.15125361e-02  3.42368931e-02 -5.76633662e-02 -3.76324654e-02
   8.43238831e-03  2.36326382e-02 -3.58361118e-02 -2.24875808e-02
   4.17601690e-02 -4.47302982e-02 -4.87864316e-02  2.48231664e-02
  -7.48336539e-02  8.05645809e-02 -1.81282237e-02 -5.17867506e-02
   1.08065307e-02  4.44265082e-02  1.11074522e-02 -5.08356690e-02
   3.39914933e-02  3.36088836e-02 -4.25065681e-02 -4.27337959e-02
   6.29963651e-02  8.68548453e-03  3.17130312e-02  5.35653904e-02
   4.97680902e-03 -3.72223556e-04 -3.52022238e-02 -2.70925909e-02
   6.76240250e-02  7.23287836e-02 -4.09402251e-02  7.15785846e-02
  -7.19628632e-02 -3.97949740e-02  3.85613069e-02 -2.48728432e-02
  -7.88372010e-02 -1.09508708e-02 -5.38501441e-02 -7.44467899e-02]
 [ 3.09945345e-02  2.05084682e-04 -5.91303110e-02 -4.12183665e-02
  -6.18861541e-02 -5.94561622e-02 -5.01450598e-02 -5.09162918e-02
   7.42191598e-02 -5.49558923e-02 -4.46674302e-02 -4.56093624e-02
  -5.92577532e-02  4.69037145e-03  7.00006858e-02 -9.73271579e-03
   3.18070203e-02  4.24110740e-02 -2.56285444e-02  4.55005690e-02
   1.99216604e-02  4.50472757e-02 -5.47551364e-02  3.22024077e-02
  -8.06797966e-02 -3.58874761e-02  5.67542091e-02  5.66483214e-02
  -5.88031113e-02 -3.10367346e-02 -1.54463127e-02 -1.17737055e-03
   1.52570680e-02  5.94797730e-03  9.55673307e-03  2.27973983e-02
   4.09380943e-02  3.83562446e-02 -7.61200562e-02 -7.91283175e-02
   7.33530596e-02  5.66011742e-02  7.96232894e-02 -1.84055939e-02
   5.38605079e-02  5.58170006e-02  5.72691783e-02 -7.45730475e-02
   3.25989947e-02 -7.74388462e-02 -7.64812753e-02 -5.21353595e-02
   3.29599306e-02 -7.15720505e-02  4.10152972e-02  4.30916697e-02
  -6.82943836e-02 -4.62979078e-04 -4.13350016e-03  9.09663737e-03
   4.27995846e-02  3.51482853e-02  6.15602359e-02 -9.65982676e-03
   2.50943452e-02  7.94456825e-02  7.03053400e-02 -2.59474330e-02
  -7.64607340e-02  3.37788835e-02 -4.78381589e-02  7.90046379e-02
   1.58153474e-02 -7.28937835e-02  5.91458380e-03 -2.70851441e-02
  -7.53068775e-02 -3.50904875e-02 -3.04597579e-02 -2.77700499e-02
  -8.67817551e-03 -2.41885781e-02 -6.85216710e-02 -3.19242440e-02
  -1.73620582e-02 -6.93950802e-02  5.44688106e-03  3.51053551e-02
   7.89467916e-02  2.96610445e-02  5.24623469e-02 -1.11469999e-02
   7.73946866e-02  4.90032136e-04 -6.50435016e-02  5.38819507e-02
  -1.48152635e-02 -5.41141517e-02 -1.68292895e-02  5.64525351e-02
   5.30432686e-02 -3.21387090e-02 -5.08874580e-02  4.16714028e-02
  -3.88104394e-02  2.97072232e-02  4.40234914e-02  2.52507329e-02
  -7.84003735e-03 -5.94080091e-02  1.61264390e-02 -7.10668787e-02
   4.60313931e-02 -3.59022506e-02  4.25125435e-02  6.20681792e-03
   6.22589663e-02 -7.62971342e-02 -2.47167833e-02  2.41922289e-02
  -5.14430106e-02  2.36463472e-02  1.96756572e-02 -6.70134276e-03
   6.79901168e-02  6.54140785e-02 -4.43069637e-03  6.22275472e-03]
 [ 6.18969873e-02 -2.68342346e-03 -6.85658753e-02 -6.59992173e-02
   4.38984558e-02 -1.62315816e-02 -6.97689503e-02 -4.95337397e-02
  -5.28849140e-02 -2.40882114e-02  6.96161389e-03  1.61064044e-02
   3.01959068e-02 -4.68237661e-02 -3.38029861e-03  4.04889882e-02
  -3.51549424e-02 -5.48540801e-03  1.92489922e-02  2.66753882e-02
   6.60121515e-02 -6.78825378e-02  2.05797777e-02  6.37132749e-02
  -4.46213670e-02 -7.02326074e-02  3.32126394e-02  6.59217685e-03
   4.95249853e-02 -7.13498965e-02  1.99470669e-02  8.05319324e-02
   4.47819903e-02 -5.87314032e-02 -2.74860077e-02  2.25900561e-02
  -4.11362946e-02 -5.20471968e-02 -6.26072809e-02  3.54078859e-02
   6.07029349e-03  3.96302491e-02  2.49820277e-02 -2.97532491e-02
   6.39588609e-02 -5.46524897e-02  6.65819272e-02  5.65236434e-02
   4.48567793e-02 -4.85288464e-02  7.10427687e-02 -1.34608671e-02
   6.24777749e-02  7.46386275e-02  6.77364394e-02  3.28708440e-03
  -2.51497701e-02  5.74379191e-02 -7.49388114e-02 -7.60078952e-02
   8.05855021e-02  7.87947103e-02  2.86939591e-02 -7.79158100e-02
  -1.55025721e-03  5.80737814e-02  6.42168522e-03  2.59530991e-02
   1.54940188e-02  2.11336315e-02  5.11743203e-02 -2.63753533e-02
  -7.78886750e-02 -4.30550240e-02  1.15729272e-02  5.78487590e-02
  -1.11791044e-02  1.09279156e-03 -2.24701576e-02 -4.40351851e-02
  -6.24447837e-02  3.47934142e-02  9.27480310e-03 -2.10993998e-02
   7.15456828e-02 -7.86618814e-02 -7.98383355e-03  4.65999022e-02
   3.69803235e-02  6.19154796e-02  9.49798524e-03  5.46922758e-02
   5.87910041e-02 -1.59464553e-02 -8.53516161e-04  2.84681022e-02
   4.12934795e-02 -7.82498568e-02 -5.23431115e-02  7.56707862e-02
  -1.07359290e-02  6.35754541e-02  6.60169199e-02 -4.96957749e-02
  -8.25236738e-03  5.59198782e-02 -5.27073070e-02 -7.39270523e-02
  -5.48941419e-02  7.84615204e-02 -6.83221966e-02 -5.26650362e-02
  -7.59328380e-02  3.09866890e-02 -5.11582941e-03  5.03898486e-02
   6.10640720e-02 -7.73206130e-02 -1.57380700e-02 -8.54693353e-04
  -2.50421315e-02  7.40284398e-02  5.64131513e-02 -5.68086952e-02
   5.90775162e-03 -3.17879505e-02 -3.38608027e-03 -6.73695728e-02]
 [ 3.68667468e-02 -6.81450963e-02  4.90082279e-02 -7.33300820e-02
  -7.39623606e-02 -7.99559057e-04  3.56804207e-02 -7.42132217e-03
  -7.28292540e-02  6.72336742e-02  1.99499503e-02  3.08919698e-02
   2.72104740e-02  7.60366768e-03  4.16483954e-02  8.83907080e-03
   3.93486992e-02  7.48818591e-02 -7.72462040e-02  7.88660273e-02
  -6.30747527e-03 -2.41324194e-02  7.51893446e-02  4.64535430e-02
   1.41310766e-02  7.35544637e-02  7.81181380e-02  3.70960683e-03
   7.95995221e-02 -6.16574287e-03  8.04707333e-02  4.08140570e-03
  -4.75473702e-04 -6.40624687e-02  4.53612283e-02  7.27913901e-02
  -7.17275888e-02 -5.18225431e-02  2.92181969e-04  3.47283781e-02
   2.79612318e-02 -5.76992407e-02  5.21314368e-02  6.55036420e-03
   2.01520175e-02  3.90958562e-02  1.95262581e-03  7.89046362e-02
  -6.69842139e-02  1.70461908e-02 -5.96864074e-02  2.56410241e-03
   2.91320086e-02  4.15635183e-02 -1.69778466e-02 -3.62311155e-02
  -3.62078846e-03 -2.27935128e-02  4.32552695e-02  5.63222691e-02
  -4.40658554e-02  5.04520759e-02  3.73868346e-02 -2.13354044e-02
  -3.68006304e-02  7.54030272e-02 -5.14085665e-02  4.04370055e-02
  -6.68747202e-02 -1.28072724e-02 -4.61820066e-02 -1.47481784e-02
   6.01802021e-03 -4.48031090e-02 -7.70043358e-02 -4.55221049e-02
  -3.95400338e-02  3.73586193e-02  2.13721469e-02  3.09183449e-02
   6.69918954e-04  6.06118664e-02 -3.51210609e-02  1.99264959e-02
   6.16791472e-02  7.53616467e-02 -2.37633474e-02 -1.44345909e-02
  -1.08977482e-02 -3.42581645e-02 -6.37605637e-02 -7.46492967e-02
   7.41505995e-02 -4.35572378e-02 -3.12372521e-02  3.36001217e-02
  -8.05883259e-02  6.35722801e-02 -2.51129083e-02 -2.78195180e-02
  -5.05536422e-02  5.27132526e-02 -5.58839925e-02 -5.31296209e-02
  -2.25081965e-02  1.61985531e-02 -6.56443015e-02  1.73494294e-02
  -3.61304432e-02 -2.03436390e-02 -3.28854360e-02 -6.56151250e-02
  -4.12134379e-02  1.77502558e-02 -6.77954555e-02  4.44713160e-02
   5.66498116e-02  1.95076466e-02  7.59441927e-02 -1.76947191e-02
   6.74973950e-02  4.13697511e-02 -2.17740536e-02 -3.58221494e-02
  -6.45497963e-02 -7.00454414e-03  6.27447590e-02 -6.57374933e-02]
 [-6.61121756e-02 -1.32266209e-02 -7.78728426e-02 -1.83831230e-02
  -1.17693096e-03 -4.14238125e-03 -1.69524550e-02 -1.73612908e-02
  -7.46202543e-02  7.74449185e-02 -7.40508735e-02  2.91176140e-04
  -1.24750584e-02  3.37789059e-02  4.53797206e-02 -6.79674149e-02
  -2.39550471e-02 -5.46987280e-02 -7.74189830e-04  3.62298042e-02
   6.65571466e-02  4.54833135e-02  3.26479822e-02 -5.91466129e-02
  -7.78757036e-02 -4.92206737e-02  3.42198536e-02 -6.46453425e-02
   7.36124739e-02  5.34590259e-02  4.54267040e-02  3.83784249e-02
  -3.96187603e-02 -9.11422074e-03  8.01149085e-02  3.02163064e-02
  -2.65224390e-02 -4.76201959e-02 -6.27861768e-02 -5.21108508e-04
   6.99671432e-02 -1.98695213e-02  3.26810479e-02  3.77427563e-02
  -5.62464520e-02 -4.34333757e-02 -4.30487841e-03 -4.76962551e-02
  -3.34775560e-02 -4.90153767e-02 -4.08913754e-02  5.68288043e-02
  -6.76015317e-02  6.65201321e-02  6.94774315e-02 -6.06436133e-02
  -5.50759807e-02  7.95707926e-02 -2.46573947e-02 -1.80960447e-02
   9.38212872e-03 -5.70509247e-02 -4.21410166e-02  5.37337139e-02
   4.33881283e-02  1.09946951e-02 -4.18327637e-02  2.58519650e-02
   3.39849740e-02 -1.91316493e-02 -4.12556715e-02 -6.14431538e-02
   5.96425682e-03  2.18418390e-02  5.78105524e-02 -4.07814011e-02
   3.28735411e-02 -2.91761756e-02  3.86657864e-02 -7.65895694e-02
   1.11894682e-02  2.01381892e-02 -7.17733875e-02  6.01640865e-02
  -3.53744887e-02 -2.90264189e-02  4.69163582e-02  7.55565539e-02
   1.12036616e-03 -1.36362091e-02  5.34712896e-02 -7.04032853e-02
   2.18010694e-02 -5.98236173e-03  3.55771556e-02  6.64875135e-02
  -7.54347220e-02 -3.95199656e-03  3.99219096e-02 -6.92328140e-02
   5.41673973e-02  7.56923333e-02  2.01215371e-02  1.38679147e-03
  -5.52887768e-02  1.06256604e-02 -6.79701045e-02  5.81257865e-02
  -3.45239714e-02 -4.37227562e-02 -5.00385687e-02 -4.89029437e-02
  -8.00242797e-02  2.89682522e-02  7.37591907e-02 -3.96199226e-02
   7.09493235e-02 -5.76875806e-02 -2.48947740e-03  5.09393960e-03
   3.41927409e-02  5.73299900e-02 -3.60471904e-02 -2.48580426e-03
  -3.62948179e-02  2.30689123e-02 -7.29254633e-02  6.49519339e-02]
 [ 1.64768323e-02  6.45091906e-02  4.25659120e-03 -7.43150339e-02
  -6.70213476e-02  7.94728771e-02 -6.89509809e-02 -4.81303036e-03
   3.31327543e-02 -7.05858767e-02  5.63044101e-03 -6.93087727e-02
   1.76079869e-02 -6.69736192e-02 -1.26953050e-02  7.64768645e-02
   1.14774555e-02 -2.04178020e-02  8.81453604e-03 -2.55953409e-02
  -5.83645180e-02 -2.54464969e-02  3.42421159e-02  6.46128133e-02
  -3.25025767e-02  3.83040830e-02 -2.56004184e-03 -3.82431895e-02
  -5.37130162e-02 -4.60570604e-02 -1.23986378e-02 -5.37446365e-02
   4.94271740e-02  1.36976689e-03  2.28599384e-02 -1.08807683e-02
   7.75233135e-02  5.48684672e-02 -3.54686640e-02  6.41470775e-02
  -2.57894211e-02 -2.18670517e-02 -7.56553933e-02  3.64043564e-03
  -7.83372074e-02  4.74326387e-02  6.38838187e-02 -1.61148012e-02
   7.24989995e-02 -4.58384603e-02 -3.17395069e-02  5.12524322e-02
  -9.85996425e-03  2.44022459e-02 -4.44279276e-02 -6.23662323e-02
  -2.36559995e-02 -4.51601334e-02 -7.00804517e-02 -1.12370998e-02
   5.22548184e-02  5.05607575e-03 -5.40820137e-02 -4.15842086e-02
   6.88309297e-02  5.89707270e-02 -2.18478292e-02 -1.00622401e-02
   6.08998016e-02  1.96901783e-02 -4.17545810e-02  5.41783199e-02
   7.38363490e-02 -6.82841241e-03  6.58383891e-02  3.08816880e-03
   7.78061077e-02 -7.94086903e-02  6.27297089e-02  2.34024972e-02
   4.24187332e-02  8.53526592e-03 -4.01233174e-02 -5.78737482e-02
  -1.97925381e-02 -1.07820109e-02  1.52065009e-02  4.31872755e-02
   4.91557792e-02 -3.88849303e-02 -6.89478442e-02 -5.61209247e-02
   4.75040749e-02  2.46542245e-02 -1.31795332e-02 -3.46693397e-03
   6.23491332e-02 -2.43963487e-02  5.63553646e-02 -5.73371314e-02
   7.01457039e-02 -5.05827442e-02 -3.98143679e-02  3.04211602e-02
   2.01015994e-02  6.20085821e-02 -1.50899664e-02  3.33653763e-02
  -3.58000286e-02 -5.36013581e-02  6.13292530e-02 -3.13324742e-02
   6.16172031e-02 -5.95723093e-02 -1.08818710e-02 -2.62999125e-02
   4.33685184e-02 -5.57618514e-02  3.22578102e-03 -3.25729288e-02
   3.11650783e-02  1.43399909e-02  3.31942290e-02 -3.59254740e-02
  -4.39108573e-02  1.68622658e-02  1.48353577e-02 -2.83273421e-02]
 [-1.33116171e-02 -1.91193521e-02  5.66194728e-02  3.33101228e-02
   3.24316248e-02  3.31643522e-02  4.06816900e-02  8.08312669e-02
   2.49793753e-02  6.08212501e-03 -7.52433315e-02  1.40469521e-02
   5.65655157e-02  1.65205747e-02 -2.12794989e-02 -4.84998524e-03
  -3.99072878e-02  6.45484403e-02 -5.89332953e-02  2.21330300e-02
  -4.72490750e-02 -2.20686942e-03  3.73055339e-02  5.70459291e-02
   6.37990609e-02 -6.18648641e-02  7.25153908e-02  2.65124589e-02
   6.95589110e-02 -1.28111988e-02 -1.05168819e-02 -1.26814768e-02
  -7.80537501e-02  7.24320486e-02 -7.33247995e-02 -3.66489030e-02
   3.70703638e-03  6.00896999e-02 -9.44921374e-03 -5.86772710e-03
  -6.08203858e-02  2.38822997e-02 -4.80392575e-02  6.41439632e-02
   5.25619313e-02  2.64386833e-02 -3.50234024e-02 -5.69323413e-02
  -3.53795551e-02 -3.69231589e-02 -7.81055912e-02 -2.54265368e-02
   6.44641444e-02 -4.54515964e-03  5.66052571e-02 -5.12733161e-02
   5.87884113e-02 -5.96310794e-02  1.47915184e-02 -6.70688376e-02
   8.08766708e-02  4.17291149e-02  6.33395687e-02  3.79447788e-02
  -2.38502771e-03 -1.09701306e-02  5.53724915e-03  7.59115145e-02
  -1.81434453e-02  3.74368206e-02 -1.38316005e-02  2.82862261e-02
  -7.23202676e-02  3.01165581e-02 -6.22863322e-03 -1.57243609e-02
  -1.97494887e-02  7.05372766e-02  5.05604669e-02 -3.35371755e-02
  -5.38957268e-02 -5.88865727e-02  2.13273615e-02  2.53000483e-02
   2.01244578e-02  4.84387800e-02  4.66007814e-02  7.37382099e-02
  -3.18735987e-02  5.10564223e-02  7.24231973e-02 -8.94463807e-03
  -7.10947663e-02  7.55385533e-02 -6.30102307e-02  3.31799760e-02
   3.32982689e-02 -7.51521364e-02  7.33897761e-02 -3.19449753e-02
  -5.75034767e-02 -2.39411257e-02 -4.54576723e-02 -3.82582843e-03
   5.57954386e-02 -7.20653906e-02 -2.49634646e-02  9.10621136e-03
   1.71507150e-02 -3.52203995e-02 -5.11915907e-02 -7.38294125e-02
   5.90026155e-02  1.08411685e-02 -5.91325387e-02 -2.17734165e-02
   1.44224465e-02  2.46628299e-02  3.50435898e-02  3.03517506e-02
   1.78622231e-02  1.08867139e-03 -7.72762299e-03 -9.92383808e-03
  -6.16649836e-02 -7.95557350e-02 -3.83656397e-02 -7.03733489e-02]
 [-5.45478910e-02  8.04252997e-02  1.56976506e-02  3.35720778e-02
  -5.95216826e-02  9.30711627e-03 -4.62223850e-02  7.53119066e-02
  -1.51147023e-02 -6.88873157e-02  2.93591395e-02  5.97579703e-02
   3.42358872e-02 -6.27028495e-02  5.18233702e-02 -7.72411153e-02
  -1.51207745e-02 -4.30333838e-02  7.22736493e-02 -3.20220962e-02
  -7.79386312e-02 -7.49087185e-02 -5.96532226e-03 -3.27207521e-02
   1.44363344e-02 -4.81300317e-02  4.86688092e-02  9.74387676e-03
  -1.51399523e-03  3.12103555e-02 -6.02737069e-04 -6.77888989e-02
  -6.94938600e-02  6.56419024e-02  3.00165191e-02  7.65192285e-02
  -2.70578787e-02 -4.11716104e-03 -2.07023472e-02 -7.88457319e-02
   3.91653180e-02  2.00468972e-02  3.96160185e-02 -7.35736415e-02
   3.67087126e-03  4.88681570e-02  5.83800301e-02 -3.44639234e-02
   3.38891521e-02 -6.95852786e-02  5.40482625e-02 -3.72926556e-02
  -3.04135382e-02  2.09824964e-02  3.97303700e-03 -2.95767486e-02
  -2.48379000e-02  7.11008683e-02 -5.40018082e-03 -3.49719822e-02
  -1.46041662e-02  7.99299106e-02  5.96301183e-02  4.70835790e-02
   5.09821996e-02  7.90019110e-02  5.48189804e-02  2.15439871e-02
   1.34668797e-02  6.39820173e-02  7.96790943e-02  3.85828465e-02
   3.94999832e-02  1.36366934e-02 -8.02774429e-02  1.46891922e-03
   1.98060572e-02 -2.39717215e-03 -7.38600045e-02  4.88982871e-02
  -5.20028919e-02  5.67242280e-02 -6.88052252e-02 -4.17054407e-02
   3.37384492e-02  7.69528747e-03 -4.12126258e-02  7.12110475e-02
  -3.02443467e-02  3.91763821e-02 -4.43279073e-02  6.92634284e-03
  -2.03612782e-02  6.36125132e-02 -7.22295046e-03  6.57382533e-02
  -1.40071139e-02  3.58867794e-02  6.71609864e-02  2.88937613e-02
  -1.14655048e-02  1.20982528e-03 -6.26834184e-02  6.32671043e-02
  -6.64244145e-02 -2.43374035e-02 -1.24017671e-02  5.38879260e-02
   3.12905908e-02  5.95796034e-02 -4.61398102e-02  5.20915166e-02
   6.65786937e-02  4.05264646e-02  3.77130657e-02  2.74126232e-02
  -6.25352636e-02  6.10320345e-02 -3.44395190e-02 -7.64721110e-02
  -4.44633923e-02 -6.15483522e-02 -4.26157527e-02  1.35529190e-02
   4.24508527e-02 -3.04390825e-02  2.13922560e-03  5.01572117e-02]
 [ 1.75154880e-02  2.98750624e-02  7.49238059e-02  3.04860398e-02
  -4.73731682e-02 -4.75804172e-02  4.79021892e-02  2.06221491e-02
  -5.65178841e-02  1.95703432e-02  6.10479340e-02 -6.48088008e-03
  -4.24074233e-02 -2.64342874e-03  3.20048705e-02  2.04369873e-02
   6.31923303e-02 -3.24423201e-02  2.85746381e-02 -5.62900007e-02
   5.08340821e-02 -6.55448884e-02 -5.17888591e-02  3.95304412e-02
   7.62070343e-02  2.64404640e-02  8.06287006e-02  4.36574668e-02
  -2.35468931e-02  3.28403786e-02  1.26309842e-02  5.67152873e-02
   1.04703531e-02  3.40559483e-02  5.28007969e-02 -4.28889059e-02
  -1.28423125e-02 -6.68789968e-02  4.44279835e-02 -3.92141640e-02
   6.63587525e-02  2.35800594e-02 -1.71521232e-02  2.77106464e-03
  -1.60634369e-02  5.10925874e-02 -1.87772959e-02  2.13396028e-02
  -7.89078847e-02  1.50893480e-02 -1.19701400e-02 -7.98161030e-02
  -5.14864847e-02 -6.65394962e-02  4.84439060e-02 -4.70144413e-02
   1.36513859e-02  2.27802098e-02  1.80340856e-02  5.04049882e-02
   4.57120016e-02  1.60777271e-02  6.10094294e-02 -5.45133352e-02
  -5.08190803e-02  6.27193600e-03 -6.53195754e-02  1.42045245e-02
   6.83350340e-02  3.29409018e-02  2.56803557e-02 -5.10210469e-02
  -4.20878828e-03  3.25902179e-02  6.65893331e-02 -4.20957804e-04
  -6.74737468e-02 -2.48641595e-02  2.04784647e-02 -9.94288176e-03
  -6.01717010e-02 -1.10561326e-02 -4.39568460e-02 -7.52508715e-02
   6.42949715e-02  3.61555219e-02 -4.39574644e-02  3.89576405e-02
  -1.19706616e-02 -2.25916989e-02 -6.07323200e-02 -2.81261653e-02
   2.05150768e-02 -6.90041184e-02  5.14904633e-02 -6.71645105e-02
   4.52629551e-02 -3.07372212e-02  8.08960721e-02 -5.13651371e-02
  -4.08924595e-02 -9.65166837e-03  6.89568594e-02 -2.43417546e-02
  -1.02185160e-02 -5.60672209e-02 -2.94089317e-03 -5.88326901e-03
  -4.87017855e-02  1.33785084e-02 -4.23126258e-02 -5.37885502e-02
   2.37675086e-02  3.51034030e-02  7.68979117e-02 -7.32904971e-02
   5.80970943e-03  3.36754620e-02 -1.50652677e-02  1.18100345e-02
  -5.13195544e-02  8.01061839e-03  6.95660338e-02 -3.00663561e-02
   2.71759406e-02  6.05666712e-02 -3.90819497e-02  2.35783011e-02]
 [ 2.37679482e-02  7.56033286e-02  2.43295953e-02  4.74475995e-02
  -3.93631309e-03  7.08024874e-02  7.38009885e-02 -6.40626624e-02
  -5.28646260e-02  1.94053054e-02 -5.88563457e-02 -2.58806013e-02
  -5.31453043e-02  4.98555675e-02 -3.67935710e-02  4.65910509e-02
   4.22227979e-02 -1.90889500e-02  7.15142116e-02  3.85410786e-02
  -7.49209076e-02  2.24222392e-02  5.59878573e-02 -3.32373939e-02
   1.55769438e-02  4.49592397e-02 -6.23060875e-02  4.61846963e-02
   6.41243681e-02  2.73492187e-03 -5.89332953e-02  5.92958853e-02
   4.84948605e-03  1.00034475e-02 -7.92235583e-02  4.72569689e-02
   1.89397931e-02 -4.84097600e-02  5.62081486e-03  7.42227957e-02
  -3.69742699e-02 -7.53349736e-02 -3.00396904e-02  6.81163594e-02
  -2.22298205e-02  6.56897351e-02 -1.81262493e-02  3.49952281e-02
   1.37831196e-02 -4.03361171e-02  6.84450492e-02  4.94886264e-02
  -6.82998002e-02  7.60775283e-02  5.54911792e-04  7.36541823e-02
   6.83513507e-02  3.65168378e-02 -2.08024792e-02  1.45928562e-03
   7.91518912e-02  5.21366224e-02 -4.85830680e-02  5.00795767e-02
  -3.02319229e-03 -5.88479154e-02 -1.26410201e-02  1.37604773e-02
   6.18993267e-02  5.46737090e-02 -6.84703067e-02 -1.87075138e-03
  -9.60148871e-03 -5.97381927e-02  3.60281616e-02 -3.44484337e-02
  -6.53496087e-02 -1.72148570e-02 -1.07000768e-03  2.80639529e-03
   7.30101988e-02 -7.02093840e-02  5.56680635e-02  4.70950082e-02
   7.71670118e-02 -4.11675870e-03 -5.08902259e-02  7.76533037e-03
   6.70751110e-02 -4.64942418e-02  1.70292854e-02  8.87721032e-03
   4.22428325e-02  7.49716684e-02 -7.51293302e-02  5.07579073e-02
   7.36866891e-03 -3.76402996e-02  4.63601872e-02 -3.71861011e-02
  -7.12996349e-02  6.38100132e-02  5.30755147e-02 -3.08761299e-02
   5.63048199e-02  7.72671029e-02 -4.68416363e-02 -3.15557718e-02
   1.17228776e-02  2.96112075e-02 -7.08044395e-02  6.70507923e-02
  -3.51487324e-02  3.66259441e-02  4.36172038e-02  6.89225271e-02
  -6.27574623e-02 -5.54194301e-02  7.02703372e-02  3.81273776e-03
   6.36369810e-02 -6.79157972e-02  3.57289612e-02 -1.02101415e-02
   3.11527252e-02 -6.44925311e-02 -5.31238541e-02  1.63815096e-02]
 [-9.49788019e-02  1.23465776e-01 -3.06886006e-02  6.56435266e-02
  -4.91281599e-02 -1.28885642e-01 -9.37951133e-02 -4.14007083e-02
   1.76442750e-02  3.93036604e-02  6.71118721e-02  4.24309494e-03
   4.23795450e-03 -2.63664480e-02  6.41524866e-02  3.99916396e-02
  -2.10922375e-01 -3.17288935e-03 -1.42273158e-01 -1.83965474e-01
   7.90730491e-02  8.08315203e-02 -9.80215520e-03 -4.16372120e-02
   7.75605440e-06 -4.49326746e-02  4.57020104e-03 -5.08864187e-02
  -3.70048322e-02  4.61564958e-03  8.29101801e-02 -4.31856662e-02
  -4.86827120e-02 -4.48114239e-02  2.65069306e-04 -1.24622196e-01
   1.60372388e-02  1.81371793e-02  2.42317766e-02  5.12912199e-02
  -2.70051807e-02  7.08061978e-02  6.18091896e-02  5.75642809e-02
  -6.86839223e-04  4.58899625e-02 -3.08854021e-02  1.49233378e-02
   5.76188415e-03 -1.66648235e-02 -4.28903513e-02  2.42772922e-02
  -1.94425918e-02  5.13280146e-02 -2.40495577e-02  1.39873877e-01
  -5.62209412e-02 -1.50616199e-01 -1.51657276e-02 -4.12898324e-02
   4.58288789e-02 -8.10968652e-02  3.40680778e-03  3.40143070e-02
  -4.61426042e-02 -7.87054896e-02 -7.76395202e-02  7.23972693e-02
  -2.40673274e-02 -2.40305322e-03  4.79344986e-02  7.20782354e-02
  -1.27186105e-01  5.07264473e-02 -4.71843034e-03 -1.00709260e-01
   7.12875053e-02 -5.21722734e-02  2.05596507e-01 -1.58770382e-02
  -1.37297604e-02  5.44835255e-02  7.67778829e-02  7.78833851e-02
   1.26541788e-02 -2.74306610e-02  6.71685264e-02  2.22321879e-02
   6.52704909e-02 -1.74326450e-02 -1.59957334e-02 -2.41491459e-02
  -6.87450469e-02 -3.91040742e-02 -3.23983617e-02 -5.09325936e-02
  -1.36579592e-02 -3.10168713e-02  3.59061733e-02  2.00409871e-02
  -1.00420639e-01 -6.04172572e-02 -4.63823713e-02  1.20889239e-01
  -1.98880937e-02 -6.05979189e-02  1.78706154e-01  9.47537348e-02
   1.33741200e-02 -5.83232865e-02  5.61458841e-02  7.26224184e-02
   5.11536635e-02 -9.41817239e-02  2.07688093e-01  6.15926012e-02
   1.52795181e-01  5.44962892e-03 -5.90144768e-02  7.41688311e-02
   5.66478893e-02 -1.02709100e-01 -1.68556925e-02  8.81027952e-02
  -3.06877531e-02 -4.45733592e-03  4.88834921e-03 -8.96811187e-02]
 [-9.73810256e-02 -1.41602019e-02 -6.44426197e-02  9.74333286e-03
  -7.10213964e-04 -3.82419117e-02 -6.25967607e-03  7.09998682e-02
  -1.62591226e-02  5.59929870e-02 -5.26323169e-02  3.35092731e-02
   5.27807772e-02  1.11174481e-02  2.25970522e-02 -6.01953268e-03
  -5.32833263e-02  7.91265443e-02 -1.62376076e-01 -1.42263114e-01
   1.08109720e-01  1.08781099e-01  9.86063480e-03 -4.15010974e-02
   2.65813991e-02  5.10995090e-03  7.88989887e-02 -1.10253952e-01
  -5.02675027e-02  3.00323963e-02  1.10337786e-01 -2.81761540e-03
   9.72694978e-02  7.93979988e-02 -4.09293361e-02 -1.33656651e-01
   2.41746362e-02 -1.36860833e-02  4.60798666e-02 -6.96484894e-02
   5.54577187e-02  7.55984895e-03 -7.98157603e-02 -3.09370272e-02
  -2.38122754e-02  1.48736723e-02 -9.47697684e-02  4.54038605e-02
   2.05531716e-02  6.82622045e-02 -1.05357125e-01  1.61730535e-02
  -4.18759137e-03  2.62987651e-02  5.11722341e-02  3.72490510e-02
  -5.64340129e-02 -1.00024275e-01  9.73435026e-03 -1.79140523e-01
  -3.99664491e-02 -3.02711632e-02  6.50211200e-02  7.66048506e-02
  -4.26074006e-02 -1.57561898e-02 -4.25101258e-02 -3.24808992e-02
   1.76336318e-02 -6.07591681e-02  2.89765522e-02  5.02594486e-02
  -4.14499752e-02  6.71959817e-02  2.15884447e-02 -1.06972270e-01
   4.39363495e-02  4.71233651e-02  1.98108092e-01  7.91905150e-02
  -1.07870117e-01  1.37203485e-02 -3.78996655e-02  3.39897163e-02
   7.65298530e-02 -2.44214870e-02  3.97013724e-02  5.27994242e-03
  -7.77156800e-02  4.36635241e-02  3.15442085e-02  7.42197111e-02
  -5.94032146e-02 -4.87454720e-02 -5.64321578e-02 -6.98649436e-02
  -7.62105137e-02  7.61058554e-02  7.81734660e-02 -2.40229722e-02
   8.90037045e-03 -5.30318059e-02  3.38085033e-02  7.66160935e-02
  -2.67001055e-02 -1.51341334e-02  1.68421537e-01  9.81275365e-02
   4.59745452e-02  6.68796673e-02  6.09051958e-02  1.49836704e-01
   1.21062465e-01 -7.21467957e-02  7.84254372e-02  3.44899273e-03
   1.59817919e-01  6.37344420e-02  2.64701694e-02  1.35997489e-01
   5.01853302e-02 -1.11349048e-02  4.21487726e-02  7.77423605e-02
  -5.43259084e-02  7.80648515e-02  5.45727909e-02 -2.85228584e-02]
 [-1.85453016e-02  8.32825154e-03  2.94421539e-02 -4.87339869e-02
  -5.01993299e-03  3.99968959e-03 -5.84133826e-02 -5.39511442e-03
  -3.80526036e-02  7.31760785e-02 -8.65810364e-03  4.40322720e-02
   1.30580902e-01  5.73733523e-02  2.45565251e-02 -2.70030163e-02
   1.20899923e-01 -3.34055796e-02  1.55330345e-01  1.57716125e-02
  -3.37746530e-03 -3.88292372e-02 -1.87222995e-02  1.82791427e-02
   6.70027062e-02  2.93286815e-02  6.66192397e-02 -4.94460426e-02
   1.15538284e-01  6.21478930e-02 -6.00516200e-02 -4.60308418e-02
   2.55886861e-03 -1.49265975e-02 -4.64985929e-02  2.99828369e-02
   9.04826913e-03  2.83876806e-03  4.03708220e-03  6.21878281e-02
   4.55215797e-02  1.06180146e-01 -1.62407309e-02  4.42116484e-02
   2.48501003e-02  3.09072435e-03 -2.12339349e-02 -9.12664756e-02
  -3.00135836e-02  4.90307761e-03  1.18730411e-01 -3.06234695e-02
   4.89451960e-02 -7.62280375e-02  1.27730221e-02  1.55699337e-02
  -2.03520916e-02  9.20184050e-03  4.48452905e-02  1.94164051e-03
   3.81208733e-02 -3.10859308e-02  5.07021770e-02 -9.47849452e-03
  -4.14745063e-02  3.98650765e-02 -7.27240592e-02  5.80159947e-02
  -7.97948241e-03  7.56126940e-02 -4.67160866e-02  5.08971140e-02
  -5.42389974e-02  1.72100253e-02 -2.05037035e-02 -3.17254663e-03
   6.95527866e-02 -1.50952879e-02 -2.98357531e-02 -5.75109795e-02
   8.16000924e-02  1.49244294e-02  5.01089916e-02  4.35946733e-02
  -9.70883146e-02  2.44905651e-02 -2.96454765e-02  6.57023713e-02
   1.58658400e-02 -4.53595109e-02  2.69204378e-03  4.87721711e-03
  -6.99404776e-02 -1.71169490e-02 -5.75378984e-02  6.35668710e-02
   2.30454584e-03 -2.68280506e-03  5.68810031e-02 -4.10039052e-02
  -5.00522554e-02 -7.01384097e-02  1.55042736e-02 -3.42962667e-02
  -6.75988793e-02  2.31759995e-03 -5.34722731e-02 -8.59741569e-02
  -1.65397376e-02  7.74984062e-03 -6.76382333e-03 -1.16290942e-01
   5.14802225e-02 -4.81294002e-03 -7.49661401e-02 -1.63985323e-02
  -1.03609353e-01 -1.08908685e-02  1.81302205e-02 -4.17826027e-02
  -4.14710417e-02  6.50319131e-03  1.37791084e-02 -5.16582578e-02
   1.67605653e-02  5.14501706e-03  5.20770140e-02  1.44583611e-02]
 [-2.91142594e-02 -1.07039539e-02  2.52789855e-02 -5.31332158e-02
  -7.26788640e-02  6.29726872e-02 -1.67491753e-02 -5.10519147e-02
  -7.33935982e-02  5.47605790e-02 -3.51768136e-02 -7.43802711e-02
   1.96716897e-02  4.39767875e-02 -4.60147895e-02  4.64495197e-02
   9.96792782e-03 -1.30812749e-02  7.37848431e-02 -1.96810085e-02
   4.68214117e-02 -1.94651783e-02  3.68202031e-02 -1.35248750e-02
  -4.61890250e-02 -5.70654646e-02  3.54283080e-02  3.35144177e-02
   1.09428115e-01 -6.97843805e-02 -7.25318715e-02  1.10979276e-02
  -3.33369933e-02 -1.19050220e-02 -3.30320001e-02 -7.10455850e-02
  -3.53265479e-02 -4.26878668e-02 -7.06863999e-02 -4.24667709e-02
  -2.03027204e-02 -2.14664843e-02 -1.36543810e-03  5.70675954e-02
  -1.10273063e-03  2.32976973e-02 -5.69530129e-02  4.91342805e-02
   9.26119089e-03 -2.48539839e-02  4.45339717e-02  7.50145391e-02
   5.75237796e-02  6.84179142e-02  3.89247062e-03  8.20861198e-03
  -8.00191760e-02  3.02800965e-02 -3.18305120e-02 -6.55523688e-02
  -5.09004146e-02 -1.49875134e-02  5.74765429e-02 -3.66619229e-03
  -3.61724123e-02  7.54102245e-02 -7.57241994e-02 -5.32062575e-02
   6.01227954e-02 -8.66881013e-03 -2.39197295e-02  8.03726912e-03
  -6.35987967e-02  1.38696870e-02 -7.16337636e-02 -6.34269342e-02
  -4.63806689e-02  6.20689243e-02 -4.91921492e-02  4.57716845e-02
   1.02136321e-01 -1.13147423e-02 -2.82263756e-02  1.77048631e-02
   2.36640759e-02 -8.77169520e-03 -4.69752848e-02 -2.90939696e-02
   2.75834128e-02  2.11322010e-02  2.00821087e-02 -3.85202467e-04
   4.00552824e-02  7.76579306e-02 -4.15682569e-02 -6.80735782e-02
   4.42338996e-02 -1.10276267e-02  7.74499103e-02  2.59836111e-02
  -4.64786552e-02 -6.61530346e-02 -5.69495931e-02 -7.30371028e-02
   2.54547149e-02 -2.16411613e-02  5.89703731e-02 -5.39229326e-02
  -6.45935535e-02 -6.59654960e-02  5.09038046e-02  2.16285791e-03
  -2.06995774e-02  5.02067525e-03  5.83558008e-02  5.92229366e-02
  -5.14648743e-02  8.75945948e-03  5.55530414e-02 -3.47495526e-02
  -7.21289963e-02  1.02193886e-02 -7.95356929e-02 -6.16634525e-02
  -4.02749665e-02 -7.44738057e-02 -2.41704024e-02  7.73170069e-02]
 [-4.23173644e-02 -1.84911266e-02  6.39135465e-02  7.26299509e-02
  -2.58608945e-02  3.75819951e-02 -5.33085167e-02  4.13731933e-02
   7.16753229e-02 -5.05734831e-02  7.15458468e-02 -7.63612986e-02
  -4.87168133e-02 -8.01036879e-02  6.78165033e-02  2.01446488e-02
  -6.63307756e-02 -4.88166958e-02 -2.40275860e-02 -5.94998486e-02
   1.94379538e-02 -5.24445400e-02 -5.44553958e-02  1.66611671e-02
   4.37421873e-02  2.14716792e-03  6.97538331e-02 -5.65492883e-02
   5.89180365e-02 -8.84172320e-03  1.39268413e-02 -4.76630107e-02
   6.31096587e-02  4.03800160e-02 -5.13398424e-02 -3.21548916e-02
   3.45080569e-02  1.37901008e-02  2.14715078e-02  3.42854857e-03
  -2.56671272e-02 -3.78087536e-02  5.15632704e-02  3.15923840e-02
   6.63463101e-02 -3.16313654e-02 -4.16196175e-02 -5.90425953e-02
   7.68154636e-02 -7.75331780e-02 -2.06217840e-02 -7.20974207e-02
  -8.08387324e-02 -7.76651427e-02  7.11734593e-03 -4.28811722e-02
   3.78460437e-03 -2.69627161e-02 -7.64365643e-02  3.23991552e-02
  -3.10539268e-02 -4.52286676e-02  4.55044731e-02 -3.14993635e-02
  -2.97434069e-02  2.16950476e-03 -4.08376344e-02  3.15133035e-02
   6.46095350e-02 -5.26738912e-02  5.98220527e-03 -3.44467163e-03
  -3.34220156e-02 -5.01841828e-02  2.12816447e-02  3.52513641e-02
   2.74675786e-02 -2.46602297e-03  1.93283632e-02 -5.03980853e-02
   2.81480178e-02  6.54267445e-02  6.13911375e-02 -6.64636269e-02
   2.15172991e-02 -4.38457653e-02  3.97395715e-02  3.87753025e-02
   6.86101094e-02 -1.22916326e-02  5.81343099e-02  4.53601256e-02
   1.57886744e-02  2.99707875e-02 -4.04003374e-02 -4.27243784e-02
  -4.30359170e-02 -2.79607661e-02 -1.91336609e-02 -2.80984715e-02
  -1.74691379e-02  2.33328938e-02  3.51475701e-02 -5.13108522e-02
  -5.75967282e-02  2.54853293e-02  2.77163684e-02 -5.18860891e-02
  -6.79613054e-02  3.68926972e-02  5.09578362e-02 -1.55397728e-02
   2.39814222e-02 -6.57443404e-02  1.97221041e-02 -6.84354007e-02
  -3.47921737e-02  4.50230390e-03 -2.86191702e-03  9.03272629e-03
  -2.90223397e-02  6.57545105e-02 -4.91925143e-02 -1.22024268e-02
   7.38417134e-02  5.35271987e-02 -4.82644886e-02 -2.83314213e-02]
 [-5.72523512e-02  4.35754135e-02  3.67470086e-03  2.21067145e-02
   6.26553819e-02 -4.62112464e-02 -1.31634474e-02  4.41171750e-02
   3.72469425e-03 -1.12780929e-03  5.52487746e-02  6.24316707e-02
   2.43182629e-02  3.11240852e-02  5.01019433e-02 -6.27536699e-02
  -3.65745276e-02 -6.88990951e-02 -8.00061822e-02  7.66303390e-03
   4.24513370e-02  7.56800249e-02  5.20722345e-02  8.02828297e-02
   5.96357808e-02  6.24068603e-02  6.70470223e-02 -2.89884023e-02
   4.36174795e-02  6.08677641e-02  4.43089381e-02 -2.80372091e-02
   3.96349058e-02  1.36002228e-02  3.24802995e-02 -4.39999513e-02
   6.03389814e-02  1.78531408e-02  4.79176417e-02 -5.76967746e-03
   4.00793254e-02  5.60000539e-03  2.11071521e-02  8.03477690e-02
   2.44861171e-02  5.38662821e-03 -4.55053002e-02 -2.72122771e-02
  -6.76839352e-02 -3.03118564e-02 -5.82535528e-02 -3.86198610e-02
  -1.52525976e-02 -2.29300223e-02 -3.03071588e-02  3.10014635e-02
  -3.09305862e-02 -5.08791246e-02 -1.02228448e-02  1.50554478e-02
   5.10431007e-02 -2.96599418e-02 -4.25174944e-02 -7.36046657e-02
   2.80244276e-02 -8.22649151e-03  3.64756659e-02  3.64108831e-02
  -5.45090809e-02  5.50091490e-02 -7.65116513e-02  7.83650503e-02
   7.20850751e-02 -4.41332310e-02  7.10438415e-02  3.51426974e-02
  -3.41280550e-03 -5.67751005e-02  2.37767845e-02  4.27861661e-02
   1.19072646e-02 -9.71928239e-05  7.83653334e-02 -2.09077559e-02
  -5.98920882e-02 -2.08617337e-02 -1.64447874e-02  5.30347452e-02
  -7.71245658e-02  6.71667606e-03 -1.21407360e-02 -7.55875185e-02
  -2.27138177e-02  3.03727761e-02 -3.28823812e-02  3.28758657e-02
   2.84188464e-02  7.26334229e-02 -4.70806770e-02  3.17047015e-02
   2.49710828e-02 -5.08539267e-02  6.84757754e-02  3.84511948e-02
  -6.48440868e-02 -1.88923217e-02  1.87982991e-02  5.62066957e-02
  -6.75820187e-02  6.70913532e-02  6.69953972e-03  5.27576134e-02
  -2.25240737e-03 -2.64430158e-02  3.89899984e-02 -7.56913424e-02
  -4.99824658e-02 -5.90721443e-02 -6.74449131e-02  7.24166557e-02
  -2.20983401e-02 -8.06944296e-02  3.02116424e-02 -4.47083712e-02
  -7.50945434e-02 -5.07236458e-02  6.26711175e-02 -3.37624848e-02]
 [ 3.97289097e-02  6.97441399e-03 -7.67498240e-02 -3.25099826e-02
  -4.30910289e-02 -7.28736147e-02  6.46476671e-02 -7.25985691e-02
   2.90935859e-02 -2.23868079e-02  2.41190344e-02  6.56429306e-02
   1.43270344e-02 -6.64860606e-02 -4.95411269e-02 -3.75665240e-02
   6.68158606e-02  7.58026019e-02  5.01683131e-02 -3.87626179e-02
   1.48163512e-02 -5.06678522e-02 -3.96526419e-02 -4.19999436e-02
   7.79972747e-02 -7.71206766e-02  2.99403667e-02 -7.98706040e-02
   1.35560334e-02  7.84792677e-02 -7.93046653e-02 -3.99248078e-02
  -7.26020113e-02 -6.84536770e-02  4.56034765e-02  2.08580568e-02
  -5.78504875e-02 -3.83012816e-02  5.26282564e-02 -2.04740204e-02
   6.28171936e-02  7.08069280e-02  2.21630484e-02  6.48564100e-03
   6.70947358e-02 -5.95977195e-02 -7.52376318e-02  1.30905211e-02
  -7.70945847e-02  7.75754377e-02 -7.32417628e-02  4.50781360e-02
   1.03841275e-02  6.52561411e-02  3.43944654e-02  2.75556296e-02
   1.81499422e-02  6.53938875e-02  2.44395882e-02 -4.20998074e-02
   9.08289105e-03 -4.68995348e-02  4.06931415e-02  2.87921205e-02
   2.93803662e-02  7.02904984e-02  1.81987137e-02 -3.04355435e-02
  -7.09646940e-02 -6.28471524e-02  1.16952658e-02  1.34306625e-02
  -7.86619782e-02  3.88530642e-02  8.10616240e-02 -6.87532648e-02
   1.77548602e-02 -1.11342221e-03  2.96708122e-02  2.88023502e-02
   1.53072476e-02 -1.78074986e-02 -1.95464976e-02 -3.11491638e-03
   5.70401549e-04  4.16119769e-02  4.46635485e-03 -1.49521232e-02
   5.04911691e-03  7.64212087e-02  5.45046255e-02 -4.81465459e-03
  -9.11796838e-03 -4.22515161e-02  6.47844374e-03 -1.14918649e-02
   5.28012291e-02 -1.36851370e-02  6.38398305e-02  3.62071395e-02
   5.36682531e-02 -4.26249765e-02 -7.49757513e-02 -4.50004749e-02
  -3.81816551e-02  2.68336385e-03 -6.23871349e-02  4.66871187e-02
  -6.77977949e-02  5.08927032e-02  1.95132568e-02  4.49251160e-02
   2.20332071e-02  4.32852656e-02 -4.91522253e-04 -3.26685607e-04
   3.83407921e-02 -2.20274851e-02 -3.72646898e-02  6.19947091e-02
  -8.07323903e-02  7.36330077e-02 -3.59897539e-02 -5.97229153e-02
   3.56860831e-02 -1.92821026e-05 -4.92744707e-02 -1.21881962e-02]
 [ 6.64959177e-02 -7.09026009e-02  7.31250644e-03 -2.95818746e-02
   1.47754103e-02  9.21019167e-03 -9.73698497e-03  3.92786413e-02
  -7.73011371e-02  3.85245457e-02  5.60407266e-02  2.19218582e-02
  -2.87892744e-02  7.06195310e-02  3.59926373e-03 -1.52617842e-02
   6.12431541e-02 -4.00906950e-02  6.10121861e-02  3.88084278e-02
  -7.94847608e-02 -1.52198598e-02 -5.58325127e-02 -9.55753028e-03
   4.18812260e-02  2.90984958e-02  7.60879293e-02 -1.19285434e-02
   7.36502782e-02  3.54283452e-02  8.03665072e-03  1.88268796e-02
   7.51761571e-02  7.73216560e-02  4.34301794e-03 -3.83869298e-02
  -6.07790947e-02  2.96519920e-02  3.75828445e-02 -4.45557535e-02
   5.86383864e-02  1.92092136e-02  1.69314519e-02  1.45168975e-02
   7.37487003e-02  1.45646185e-03  4.00965512e-02 -2.98109651e-03
   6.75506145e-03  7.42027834e-02 -2.66827345e-02 -8.10273215e-02
   6.26030341e-02 -5.59297092e-02 -3.15073878e-02 -6.52776286e-02
   7.71592483e-02 -4.19259965e-02 -6.66097328e-02 -5.21090999e-02
   6.39073327e-02 -6.59796298e-02 -4.27941233e-03  2.34135166e-02
  -7.40431175e-02 -5.52605651e-02  1.01202950e-02  2.37468109e-02
  -4.86955792e-03  5.04557565e-02  7.58579746e-02 -6.66884184e-02
   1.48034096e-02  7.75899813e-02 -5.25605679e-03  5.16466424e-02
   4.54314128e-02  5.47732636e-02 -4.44458127e-02  7.01697543e-02
   8.97198915e-04  3.65782604e-02 -5.15219495e-02 -1.47333667e-02
  -2.05454938e-02 -4.26131822e-02 -4.68327217e-02 -1.77703723e-02
   7.31682107e-02 -2.21357010e-02  3.79804969e-02  8.00253823e-02
  -1.29548833e-02  4.37883511e-02 -4.41024825e-02 -2.62909010e-02
  -7.95447528e-02  7.88677707e-02 -3.40506285e-02  5.43073565e-03
   3.33953127e-02  2.88482010e-02  7.51140788e-02  1.19521171e-02
   8.07739720e-02 -2.42754817e-04 -5.40909469e-02  5.10331616e-02
   8.46745074e-03  4.11864817e-02 -7.47550055e-02 -1.86867341e-02
   1.10502318e-02  5.81804737e-02  3.25338691e-02  6.49060979e-02
   5.86823002e-02  3.16229165e-02  1.92404687e-02  7.22590312e-02
  -1.22704208e-02 -6.57033473e-02 -3.37229595e-02  4.09849361e-02
  -5.29663488e-02  4.91297469e-02  2.09132284e-02  4.89352420e-02]
 [-3.36503983e-03 -5.13416976e-02  8.84371251e-03  4.60600778e-02
   1.14461482e-02 -2.79565901e-03  6.87349960e-02 -3.76584381e-02
  -3.91668081e-03  7.23585412e-02  4.60749343e-02  7.97609985e-03
   5.90394363e-02 -3.49346586e-02 -4.86678667e-02 -7.73393139e-02
  -5.77883497e-02  9.33803618e-03  4.46754918e-02  6.41106442e-02
   4.69033048e-02  3.04584429e-02 -5.73549047e-02  6.50288090e-02
  -2.44463757e-02 -5.92234656e-02 -3.35260369e-02  5.61930165e-02
   1.73273087e-02 -7.65319765e-02  7.76697472e-02  2.26231441e-02
  -4.05194238e-02 -6.28071055e-02  7.98153505e-02  6.56385198e-02
  -7.69799724e-02 -3.08997221e-02 -4.02481258e-02 -3.19098756e-02
   1.84706300e-02  6.98208138e-02 -3.11133899e-02  5.01117185e-02
  -4.05208915e-02  3.44088525e-02 -6.88258186e-02 -2.02021226e-02
   6.97366148e-03  5.78666106e-02  8.64396989e-03  1.26595050e-02
   4.34114039e-03 -2.20760405e-02  6.64189458e-03  5.94017431e-02
   4.70691249e-02  5.51539734e-02  6.76809177e-02  3.55612189e-02
  -6.36920854e-02  1.84716731e-02  5.84023073e-02 -7.73430839e-02
  -5.62817231e-02  2.84070745e-02  3.70939746e-02 -1.80339068e-03
  -7.26278648e-02  6.74812868e-02 -2.49652602e-02 -6.05114363e-02
  -2.85294838e-02 -3.67383994e-02  2.33340189e-02  4.44646701e-02
   4.59668860e-02 -2.22197436e-02 -1.07471794e-02 -1.38530508e-02
  -4.01805975e-02  7.80673847e-02 -7.69968927e-02 -6.83023110e-02
   1.78811699e-03 -2.09310800e-02  6.30134419e-02 -7.99925104e-02
  -7.11870492e-02 -3.08220796e-02  5.17213419e-02 -3.17998230e-04
   1.54370666e-02  4.41469774e-02  8.08306262e-02 -5.46247996e-02
   3.48701626e-02 -2.07966194e-02  7.01259598e-02 -5.66393882e-03
  -2.32653469e-02  6.66160509e-02 -4.96903621e-02 -1.42378807e-02
  -2.97399610e-03 -2.58287787e-03 -3.75405326e-02 -2.58333981e-02
   4.11592871e-02 -1.71099454e-02  7.46655241e-02 -6.22356161e-02
   4.69477251e-02 -6.61244541e-02 -1.70615837e-02  4.08145487e-02
  -5.10873981e-02  4.82341647e-03 -4.03124839e-02  5.24854586e-02
  -4.98295985e-02 -3.45538482e-02 -4.91394699e-02 -1.79042891e-02
   7.50406310e-02 -5.29896468e-02 -6.22141510e-02  5.34856245e-02]
 [ 7.78741166e-02  6.73834160e-02 -6.68830350e-02 -1.19795948e-02
   4.07171994e-03 -6.66359067e-03 -2.97926627e-02  4.56469730e-02
   7.40179196e-02  5.31244799e-02 -1.00622997e-02  3.40482071e-02
   6.36509880e-02  3.65327373e-02  7.23369047e-02 -2.14166045e-02
   6.78469613e-02 -6.23872876e-02 -4.57103252e-02  5.31767681e-02
   8.36915523e-03 -2.09816098e-02 -2.49435641e-02  7.44538680e-02
  -4.88592573e-02  1.45288035e-02  4.09104824e-02  6.69884458e-02
  -1.48647726e-02 -7.74871558e-02 -7.44047314e-02 -6.52303696e-02
   5.11626378e-02 -6.33459240e-02  2.86457688e-02  4.57707122e-02
  -5.07032797e-02  7.85801336e-02 -2.55143717e-02  2.22895294e-03
  -4.46700417e-02  7.53024891e-02  5.81361875e-02  5.66856936e-02
  -2.16498859e-02 -2.57866569e-02 -5.61148152e-02 -6.21782243e-02
  -6.89106584e-02 -6.00557104e-02  5.81107214e-02 -6.06533587e-02
   1.60338879e-02 -6.73028156e-02  7.74092153e-02  6.48710653e-02
  -1.42529458e-02  4.31507081e-03  7.42931142e-02  2.34189704e-02
   1.73689276e-02 -4.14336212e-02  1.40257180e-04 -3.48214693e-02
   7.76910558e-02 -2.08720602e-02  3.25794667e-02  5.10197654e-02
  -4.02087718e-02  1.24889091e-02  7.62341544e-02  8.14604759e-03
  -2.83831321e-02  6.41737208e-02 -6.87603056e-02  1.53057650e-02
   5.43733016e-02 -4.40535545e-02  1.51020288e-03 -6.37059659e-02
  -4.62954268e-02  1.21665373e-02 -2.82815285e-02  2.90552154e-02
  -8.04902613e-02  6.73526153e-02 -7.08159059e-02  3.98401469e-02
  -1.47536546e-02 -2.18821354e-02 -3.14034522e-03 -1.47595331e-02
   3.96440923e-03  3.36211398e-02 -9.34138894e-04  6.39295951e-02
  -6.81794360e-02 -7.75401443e-02 -1.57868192e-02  3.63333747e-02
  -7.03542456e-02 -7.31935352e-03  6.77385256e-02 -3.10785435e-02
  -1.02169812e-03 -3.29760350e-02  5.28842583e-02  6.38037398e-02
  -8.13156366e-04  5.89298382e-02 -1.67493299e-02  8.04201439e-02
   4.89115492e-02  5.23848757e-02  7.38367066e-02 -2.04804391e-02
  -8.03404078e-02  5.55349514e-02  1.20474920e-02 -2.10781470e-02
  -7.41893202e-02 -4.04288247e-02 -8.21359456e-03  1.24369636e-02
   4.63991687e-02  1.59213021e-02  5.98712936e-02  5.77631369e-02]
 [-1.34850442e-02  5.21850809e-02  6.01198748e-02 -2.08692364e-02
   5.01758829e-02 -7.33242929e-03  2.75504440e-02  1.18352473e-04
   3.71240824e-02 -2.83727087e-02  1.19374767e-02  4.39567640e-02
   5.36993966e-02  7.64050856e-02 -2.09481344e-02  1.96998119e-02
   5.78113273e-02 -2.51677521e-02  1.97515190e-02 -6.59529641e-02
   4.06818241e-02 -3.12819816e-02  2.13985443e-02  3.16458344e-02
  -5.13860211e-02  4.38088104e-02  6.09196350e-02 -3.38817649e-02
   6.50591627e-02 -3.10638063e-02  2.94148847e-02 -6.66572452e-02
   7.53315017e-02 -2.40870304e-02  3.91184762e-02 -5.78609854e-03
   1.56721473e-02  7.42586628e-02  2.57759839e-02 -5.55406585e-02
   5.04052714e-02 -2.91216634e-02  4.33332995e-02  5.07501736e-02
  -4.47992198e-02  8.08001384e-02 -6.38051182e-02  4.35063764e-02
  -6.43391609e-02  1.00607723e-02 -6.26899302e-02  2.19738558e-02
  -5.91481477e-03  3.18235680e-02 -4.60827611e-02  8.04860666e-02
   7.33491257e-02  3.72688696e-02 -7.48852640e-02  2.63051763e-02
   6.90195709e-03  4.53411788e-03 -6.56183138e-02 -6.94306865e-02
   1.18452534e-02  6.28338009e-03  4.39901128e-02  2.74315923e-02
   3.95733342e-02 -3.44678909e-02  7.19507411e-02 -6.60657436e-02
  -7.00038671e-03 -4.19661216e-02  3.65938246e-02  7.55968913e-02
   1.61331147e-02  2.35820487e-02 -5.68441600e-02 -7.33251870e-02
  -2.22219117e-02  2.05973759e-02 -7.22586587e-02 -6.94748908e-02
   3.32559794e-02 -4.84830141e-02 -6.84264824e-02 -9.28619504e-03
   8.80159438e-03 -7.82559663e-02  3.93555090e-02  5.93536720e-02
  -6.40682727e-02 -5.91403693e-02  1.49458200e-02 -3.49055342e-02
  -7.96287954e-02  4.33655977e-02  4.01144251e-02  1.65824741e-02
  -1.20793208e-02  3.90992388e-02 -6.10607564e-02 -6.64436892e-02
   7.70944580e-02  5.22244945e-02  3.98267061e-02 -7.63738081e-02
   1.74374431e-02 -1.11387447e-02 -3.48628759e-02  3.02013978e-02
   7.54007623e-02 -7.61787817e-02 -3.98034416e-02 -4.77960184e-02
   7.11350814e-02  1.29732564e-02 -1.12748295e-02  2.46480107e-03
  -2.07711719e-02 -4.69210185e-02 -4.76848446e-02  5.56637272e-02
  -6.78929240e-02  1.45784095e-02 -2.18175463e-02  6.36295006e-02]
 [ 1.21436417e-02 -5.46755418e-02 -7.46854395e-02 -7.49320462e-02
   5.76671958e-03  2.98084319e-03  4.37489972e-02  4.77249697e-02
   7.96699449e-02 -1.05723068e-02 -2.14042105e-02 -2.35129185e-02
   6.40637204e-02  4.97976691e-03 -6.76421076e-03 -5.77504113e-02
   4.76756692e-03  2.01128572e-02  3.60295922e-03  7.09871277e-02
   6.70824721e-02 -7.64274970e-02  5.26122078e-02 -4.52478305e-02
   7.54111335e-02  5.03626987e-02 -5.73515892e-04  1.67199299e-02
  -2.17493400e-02 -1.19584948e-02  3.75944898e-02  5.05008623e-02
  -2.95237452e-02 -7.16511831e-02 -7.36422092e-03 -5.32463863e-02
  -6.16100244e-02  2.71034241e-03 -4.03852165e-02 -4.18269634e-02
   4.60895374e-02  7.41615221e-02 -3.58771868e-02  3.00336927e-02
   1.44947544e-02  2.91897729e-02  5.93624189e-02 -6.11199923e-02
   1.67832822e-02  1.90104395e-02 -4.80655953e-02 -1.69497877e-02
   3.49927470e-02  2.46740654e-02  1.53916627e-02  6.64415285e-02
   8.43018293e-03  2.41330415e-02 -3.64837535e-02  6.99606165e-02
  -2.28049010e-02 -7.58896768e-03 -7.12252781e-02 -9.78976488e-03
   4.15733010e-02 -7.62440339e-02 -5.72877601e-02  5.58468625e-02
  -3.37356329e-03 -3.01968530e-02 -4.25927341e-04 -1.24979764e-02
  -1.53231695e-02 -4.22034413e-02  4.01884466e-02  1.10476837e-02
  -3.86783406e-02 -2.33252198e-02  5.85871190e-03  7.22946897e-02
   2.73004174e-02  4.33622897e-02 -2.08414458e-02 -6.29447326e-02
   5.11591807e-02  3.10391709e-02  4.71870974e-02 -8.09976012e-02
  -3.78860533e-03  6.56920895e-02  7.71652833e-02  2.94791088e-02
   1.06204748e-02 -7.08105490e-02  4.63176444e-02 -3.80033180e-02
   4.72466573e-02  6.81038126e-02 -5.40027060e-02 -1.38868690e-02
  -6.49566501e-02  1.56106874e-02  7.35094026e-02  5.43861762e-02
  -2.04767250e-02 -5.58709204e-02  5.59407100e-02 -5.58925420e-03
   6.04274049e-02 -5.75849116e-02  4.35501412e-02 -1.95366144e-02
   1.91136450e-02  3.03634480e-02  6.62139729e-02  2.87647173e-02
  -1.59845576e-02  3.95000651e-02 -5.44850789e-02 -5.35200611e-02
   2.78380513e-03  1.83832571e-02 -5.21002226e-02 -6.01818338e-02
  -1.24474838e-02 -7.39501417e-02 -4.68698144e-03 -8.57682526e-03]
 [-7.55761415e-02 -2.16973573e-03  5.04725203e-02 -5.78520298e-02
  -1.22408569e-02 -2.35438757e-02 -3.11616212e-02 -7.86430463e-02
  -1.16929188e-02  5.74986562e-02  6.37705997e-02  1.31226033e-02
   9.38410312e-03 -6.01224452e-02 -7.32825100e-02 -6.13013878e-02
  -3.01158838e-02  1.39075071e-02  7.29394034e-02  4.21294123e-02
  -3.02599519e-02  8.86311382e-03  2.92101130e-02 -7.75021240e-02
   4.78727892e-02 -4.62998338e-02 -1.73185915e-02 -3.29665020e-02
  -6.17022663e-02 -5.91815040e-02  7.09222034e-02 -4.91683632e-02
  -7.09998757e-02 -5.12888283e-03 -4.96621095e-02  3.71384323e-02
   7.69186243e-02  7.52531216e-02  5.96977696e-02  1.35961026e-02
  -5.30688614e-02  4.37864959e-02  7.46391341e-02  2.85889283e-02
  -2.71945819e-02  5.16732857e-02  3.58169302e-02 -3.90932634e-02
  -4.58787046e-02 -6.13260418e-02 -3.12394947e-02  7.94399902e-02
  -2.25438736e-02 -5.85817993e-02  7.39878193e-02  6.95394501e-02
   6.52337745e-02 -2.54918635e-02  3.78049091e-02 -5.03885522e-02
  -6.36958927e-02 -7.53269941e-02 -1.62491053e-02 -7.75745437e-02
   5.09994552e-02 -8.05962682e-02 -1.82816535e-02  7.38977119e-02
   7.28527680e-02  7.54828230e-02  1.58936456e-02 -1.59334838e-02
  -3.55482623e-02 -3.61206383e-02 -4.09260876e-02  7.85542950e-02
   5.21886572e-02 -6.19725585e-02 -1.72089413e-02  2.23374218e-02
  -5.69288433e-03 -2.29539238e-02  7.19340071e-02  7.89426342e-02
  -3.44335437e-02 -5.03112562e-02  7.72179440e-02  2.25822404e-02
   7.63932094e-02 -6.47050440e-02  2.65407562e-02  5.75020835e-02
  -3.49521190e-02  2.55235806e-02 -1.09489411e-02  6.54848441e-02
   4.30751741e-02 -2.85536945e-02 -6.27780780e-02  5.79553321e-02
   6.71256706e-02  7.30761513e-02  7.29132220e-02 -6.60497695e-02
  -1.26361251e-02 -3.64455990e-02  5.56140468e-02  7.72025958e-02
   1.73738003e-02 -3.75809483e-02  6.23656064e-03  4.03890833e-02
  -4.96899150e-02  7.91866258e-02  7.35177770e-02  4.86313626e-02
   2.10993588e-02  3.45336571e-02 -2.19499320e-03  4.35767919e-02
  -4.23103422e-02  3.02762389e-02  8.10573176e-02 -1.53089687e-02
   3.44818160e-02  3.13027725e-02 -2.91168280e-02  6.30900264e-03]
 [ 6.65732250e-02  3.35619673e-02 -2.81284079e-02 -4.94135320e-02
  -3.00904140e-02  6.26730919e-03 -5.02854772e-02 -2.24457905e-02
  -7.63741955e-02 -5.36305979e-02  5.97208738e-04  7.57996216e-02
  -3.93325165e-02  3.55713144e-02 -7.52578527e-02 -2.81543024e-02
  -4.24442403e-02 -6.40845746e-02 -5.16791306e-02 -2.29523778e-02
   7.10394233e-03 -4.41314131e-02 -3.17475311e-02 -5.30576222e-02
  -6.52386844e-02 -7.42739215e-02  5.72475120e-02  6.99274987e-03
  -3.04909311e-02 -1.18245929e-03 -6.85884207e-02  1.10125542e-03
  -4.81636785e-02  5.79944029e-02 -3.58050950e-02  6.97043166e-02
  -6.13360032e-02  4.59740236e-02  3.81686017e-02 -2.48162448e-03
   7.11674243e-03  4.09403220e-02 -3.51551138e-02  7.07946494e-02
   6.58236220e-02 -2.74335071e-02 -6.42016530e-05  3.94107178e-02
  -2.30934508e-02  4.27747369e-02  7.05448762e-02 -3.03343683e-02
   2.69768685e-02  3.26178744e-02 -2.11010836e-02  5.38838133e-02
  -1.56408399e-02  7.32877329e-02  2.57267058e-03  3.89844626e-02
  -5.87521531e-02 -3.58556956e-03 -4.26680259e-02 -5.66523448e-02
  -3.32521275e-02 -3.18850279e-02  1.61619484e-02 -4.07140069e-02
   3.92397866e-02 -3.26308608e-03  5.64927608e-03 -7.58842379e-03
   2.75070518e-02 -3.69998328e-02  5.35774305e-02  1.20706782e-02
  -4.59855050e-03 -5.83625436e-02  7.24281743e-02  6.49910793e-02
  -1.24996006e-02 -6.63185567e-02 -1.09834597e-02 -7.36773759e-02
   7.87270740e-02 -5.74140400e-02  9.03239846e-03  2.09507644e-02
   2.65509263e-02 -4.24614549e-03 -5.81380278e-02 -1.38457417e-02
  -6.24299124e-02 -1.22200474e-02  5.73634431e-02 -5.78945875e-03
   7.19799325e-02  5.12231216e-02 -3.80395204e-02  2.38173977e-02
   4.38095257e-02  6.49538115e-02  2.99636126e-02  2.94183865e-02
   6.73892722e-02  1.84198692e-02 -2.03044415e-02  4.85211611e-03
  -3.55507769e-02  5.64243123e-02 -6.46337792e-02 -8.06573257e-02
  -2.16413736e-02  3.99908870e-02  3.89421359e-02 -7.25482106e-02
  -6.42410219e-02  2.35672742e-02 -5.35523370e-02 -4.33807969e-02
   4.19432819e-02  2.03917325e-02 -1.44808665e-02 -4.02036868e-02
  -2.18357630e-02 -4.80114482e-02  5.51554933e-02  3.84742990e-02]
 [ 4.01245579e-02 -7.26318285e-02 -3.23406756e-02  3.30042318e-02
   6.85052350e-02 -5.47813252e-02 -7.28526562e-02  1.30775422e-02
   3.56494188e-02 -3.81802022e-03  5.93499839e-03  6.23282865e-02
   4.49254289e-02  4.84637171e-03  1.91852450e-04  4.39599231e-02
   6.71026781e-02  1.33823752e-02 -4.67469543e-02 -4.77667041e-02
   8.04146305e-02 -5.84597588e-02  2.74500772e-02 -3.42963003e-02
   2.16583163e-03 -1.74433962e-02  1.90282688e-02 -5.45729548e-02
   4.75990400e-02 -2.91174650e-03 -3.36972401e-02  4.46689948e-02
   5.53645119e-02 -3.79367955e-02  4.97384742e-02  3.80107239e-02
  -7.64360204e-02  4.51133326e-02  2.92256474e-02 -2.68802159e-02
  -7.56380111e-02  7.88871273e-02  7.09604546e-02  7.62596503e-02
   1.88185647e-02 -7.96047598e-03  3.51762027e-03  2.15561688e-02
   6.55918196e-02 -1.92824006e-03  7.32238963e-02  7.47591630e-02
  -1.51048377e-02 -9.47654247e-03  4.68120798e-02  7.49201253e-02
  -4.26980965e-02  4.13881615e-02  5.56018427e-02  1.32776201e-02
  -5.95835261e-02  6.69075623e-02  5.58245406e-02 -1.21563673e-02
   5.16986474e-02  1.54809877e-02 -2.37176307e-02 -1.16839111e-02
  -8.04096162e-02 -1.33205131e-02 -3.17234956e-02  7.86924288e-02
   3.05469707e-02 -4.62596118e-02 -5.21574467e-02  4.51506600e-02
   1.34478733e-02 -4.73288260e-02 -6.89474195e-02 -8.25229287e-03
   1.33109987e-02  4.68211249e-02  2.85568312e-02 -3.00616175e-02
   3.97779569e-02 -2.99828723e-02  7.40602538e-02 -5.79094887e-02
  -7.04933256e-02  1.82621405e-02  1.73242539e-02  5.91531917e-02
   1.77289695e-02 -4.55660224e-02  5.82385734e-02  6.13880828e-02
   2.48861089e-02  6.35425225e-02 -5.06415516e-02  7.29185566e-02
  -1.53648630e-02  5.13552353e-02 -6.29812032e-02 -3.07069384e-02
  -5.25429733e-02 -1.85447559e-02  2.00581104e-02 -4.42864858e-02
  -5.15093580e-02  3.24575976e-02  9.74237919e-05  3.76196280e-02
   4.05981690e-02 -6.55727163e-02  7.98895583e-02 -5.61579019e-02
  -9.60156322e-05 -5.39524853e-03  2.28849798e-02 -5.32862395e-02
  -4.91023995e-02 -9.35159624e-03 -4.28701192e-03  1.46504268e-02
  -7.46816695e-02  1.72587335e-02 -6.05613738e-03  2.46139243e-02]
 [-1.81301013e-02  1.53118372e-02 -5.17435297e-02  3.89614105e-02
   2.00451165e-03 -8.94978642e-04 -4.67984714e-02 -4.31885533e-02
  -2.37503909e-02 -2.52361149e-02 -7.15179816e-02  2.77406722e-02
  -3.85870449e-02  2.69524008e-03 -2.88405605e-02 -3.19010764e-02
  -8.08210596e-02 -2.28340439e-02  1.48416013e-02 -6.51487410e-02
  -6.07605502e-02  5.81004396e-02  6.12761304e-02  2.77090743e-02
   5.05031869e-02  8.94434750e-03  2.75219381e-02 -1.82930455e-02
  -3.94327641e-02 -3.82614061e-02 -7.66362920e-02  5.59364632e-02
   6.74109980e-02  6.13389388e-02 -7.79681206e-02  7.91232213e-02
   4.38961610e-02  5.87806925e-02 -1.90440305e-02 -4.89293784e-03
   5.06465808e-02  7.56341591e-02 -4.72999923e-02  6.51174784e-03
  -7.60386810e-02 -3.59831415e-02 -4.29566503e-02  4.92572412e-02
  -4.37226407e-02 -1.55774057e-02  5.34396619e-03 -7.85092264e-03
  -1.83732584e-02  7.55165592e-02 -1.05258375e-02 -5.60717657e-02
  -7.64032602e-02 -7.30595142e-02 -6.81705400e-02 -4.42774743e-02
  -2.22575888e-02  6.86728731e-02 -4.25554775e-02 -7.22049549e-02
   2.51059309e-02  5.20658270e-02  2.31951475e-03  7.83428773e-02
   6.39966950e-02 -1.64342299e-02 -3.53232436e-02 -3.65025289e-02
   4.16151509e-02 -2.89679021e-02 -4.20059599e-02  6.91562966e-02
  -3.46320719e-02 -7.87747577e-02 -4.95400652e-02 -4.17227484e-02
  -1.63981244e-02  1.58995613e-02 -2.01313458e-02 -4.71471623e-02
  -5.99655919e-02  2.94712037e-02 -3.12688909e-02  3.35466489e-02
   3.19686458e-02 -2.63122506e-02  1.78587660e-02 -5.34605943e-02
   5.77731952e-02  6.64398447e-02 -2.56908163e-02  4.34574932e-02
  -8.73176754e-03  1.92358270e-02  8.25211406e-03 -3.32233161e-02
  -6.74421638e-02 -7.26054534e-02 -1.53816268e-02 -3.94289941e-02
   6.42081127e-02  2.86385119e-02 -1.81668028e-02  4.30346206e-02
   6.98461905e-02 -3.13919969e-02  3.59341949e-02 -6.65947050e-03
  -6.55292794e-02 -5.94011471e-02  7.63036087e-02  4.27265391e-02
  -8.01203400e-03 -6.08477890e-02  2.60231271e-02  1.30837932e-02
   1.70200840e-02  6.08644411e-02  2.78339237e-02 -5.77608906e-02
   4.09005806e-02 -2.84196809e-02  5.75150624e-02 -7.97192231e-02]
 [ 2.04358622e-02 -4.56480943e-02  4.31182235e-02  7.08511397e-02
   6.15146533e-02  4.31068242e-04  1.42016783e-02  7.61590824e-02
   5.39529249e-02  4.77147922e-02 -8.01070482e-02  4.54197749e-02
   3.37942168e-02 -3.97361815e-04  1.70915574e-03  8.04344043e-02
  -6.23860508e-02 -1.65769681e-02 -1.95428617e-02  3.61073911e-02
  -2.99584866e-03 -4.86903377e-02  6.73147216e-02  5.05685881e-02
   1.75714940e-02 -5.66876344e-02 -6.40450045e-02 -1.34015605e-02
   2.79831588e-02  5.86757883e-02  3.94660234e-03 -2.47039422e-02
  -2.49500610e-02 -5.70029840e-02 -2.46325843e-02 -2.08818652e-02
  -4.74431142e-02 -6.28324375e-02 -3.05198878e-03 -1.40094161e-02
  -5.40177301e-02 -2.64715813e-02  5.27269915e-02 -7.09778443e-02
  -4.53104675e-02 -3.46156731e-02 -9.76391137e-04 -3.78192738e-02
  -6.28847629e-02  2.37933248e-02 -5.21550663e-02 -1.81853771e-04
  -5.44695891e-02  8.11075345e-02  4.98073176e-02 -4.08918038e-02
  -3.77356373e-02  3.95067334e-02  5.51762953e-02  1.28481165e-02
   1.05979666e-02 -7.59549439e-02 -4.70692851e-02  4.25610244e-02
   1.97776407e-03  1.33156031e-03  1.54691711e-02 -2.25249603e-02
   4.90881428e-02 -1.17222965e-03  1.67192966e-02  1.13281608e-02
   2.36175358e-02 -4.45530824e-02 -3.04626375e-02  1.44147277e-02
  -7.39479735e-02  1.82616413e-02 -4.70923372e-02  6.54530302e-02
   6.81973919e-02  1.17884725e-02 -5.76252900e-02  1.50366277e-02
   7.13132322e-03 -5.61793149e-03 -4.87198122e-02 -1.66161433e-02
   2.34479606e-02 -1.19483247e-02 -4.89915311e-02 -2.33234391e-02
  -7.64865726e-02  5.60086444e-02 -1.35059655e-02  6.80442676e-02
   4.50308099e-02 -3.59705538e-02  6.52674064e-02  2.60910019e-02
  -6.50732219e-02  5.67873046e-02 -7.95796365e-02  3.32103968e-02
  -1.79981738e-02 -3.93167362e-02 -1.96217783e-02 -3.80299650e-02
  -4.82229516e-02 -7.54068568e-02  2.41346657e-02  3.27374041e-02
   5.85474819e-03 -4.44218330e-02 -7.93968290e-02  1.83151290e-02
  -3.79215740e-02  7.16847926e-03  1.05727538e-02 -5.46168908e-02
   2.57961303e-02 -6.07209057e-02  2.15938240e-02 -5.34417778e-02
   7.90859237e-02  3.98461446e-02  1.24618337e-02  6.30807206e-02]
 [-7.68162161e-02  6.46726713e-02  8.11023340e-02  5.32526746e-02
   6.19011000e-02  6.61560521e-02 -5.15424870e-02  2.21042931e-02
   4.70366254e-02  4.32766378e-02 -5.70322797e-02 -5.18489406e-02
   4.12321165e-02 -2.28373334e-02  2.57369205e-02  4.39953730e-02
   7.29381070e-02 -2.18041055e-02 -9.91751254e-03  7.92870149e-02
   5.92050627e-02  7.64139369e-02  3.94934416e-03  7.25533441e-02
  -5.80216870e-02  6.09060153e-02  6.52723387e-02 -6.10588640e-02
   4.08707261e-02 -6.14760518e-02  2.46265531e-03  4.73391339e-02
  -6.85565770e-02  5.44309542e-02  3.61932367e-02  6.99893385e-03
   6.79146722e-02  7.40315244e-02 -4.88901138e-03  3.22187692e-03
  -4.15181294e-02  1.38742477e-03 -3.32221724e-02  7.75063410e-02
   7.17479810e-02  3.50048766e-02  3.88221964e-02 -7.05384389e-02
  -5.19060493e-02 -1.98855996e-04  1.97429731e-02 -4.24866900e-02
  -2.19479948e-03 -1.90949664e-02 -6.05909154e-02 -1.00306571e-02
   1.84136182e-02 -3.66795324e-02  8.82385671e-03  7.28157833e-02
  -7.37999827e-02  3.11117098e-02  3.01675946e-02  8.07467625e-02
   3.72827128e-02 -7.91282654e-02  8.10682848e-02 -3.25553305e-02
  -5.32228276e-02 -5.69600537e-02 -3.15313488e-02  6.68301508e-02
  -1.21446624e-02 -4.37469035e-03 -5.79368509e-02 -1.27091706e-02
   1.57172233e-03 -8.14995170e-03 -3.40871364e-02  1.98797509e-02
   6.37823865e-02 -5.47253415e-02 -5.56617975e-04  3.81262600e-03
  -7.68250525e-02 -1.37987658e-02 -1.55689716e-02 -4.38669398e-02
   6.77410588e-02 -6.69798478e-02  4.48015854e-02 -1.57219991e-02
  -3.03269029e-02 -4.88287061e-02 -1.54879466e-02  6.80067614e-02
  -6.70667738e-03 -5.82002401e-02 -3.31872106e-02  3.44829261e-03
   4.37500998e-02 -1.61811262e-02 -7.18081743e-02  5.24304435e-02
  -2.99400762e-02  3.74574587e-02  5.42486832e-02  5.64912707e-03
   4.60617170e-02 -3.55463661e-02 -7.07069933e-02 -2.89975293e-02
   7.30546787e-02 -5.93283400e-02 -6.79358318e-02 -5.02491593e-02
   4.83989045e-02  3.51733491e-02  1.54254064e-02  5.84074929e-02
  -5.23722731e-02 -5.55650294e-02 -5.58431521e-02 -3.60555649e-02
  -7.93012977e-02 -1.46625489e-02  2.01436803e-02 -3.04090492e-02]
 [-3.72396111e-02  6.71872273e-02 -7.99849480e-02  3.01611125e-02
   5.62017635e-02 -7.80300051e-03 -2.91810893e-02 -5.57920970e-02
  -6.90334588e-02 -2.15023756e-05  3.94516364e-02  6.46881089e-02
  -1.68572962e-02 -7.32078403e-03  7.47881159e-02 -1.25842839e-02
  -4.85477373e-02 -4.91014123e-02 -4.46241722e-02  1.95677653e-02
  -2.33075432e-02  7.51402751e-02 -7.31068850e-03 -2.06509046e-02
  -6.04674220e-02 -1.68127343e-02  1.45359635e-02 -4.73700352e-02
  -6.04910143e-02  7.17619434e-02  6.96692988e-02  7.21263811e-02
   5.38940802e-02 -7.71310404e-02  5.49251065e-02  1.99888423e-02
   8.04986134e-02 -4.96575832e-02  4.51027676e-02 -5.45994490e-02
   5.42812720e-02  2.56047398e-02  3.90867442e-02 -1.93950757e-02
  -5.63111156e-02  5.66543415e-02  2.73139775e-03 -5.97948134e-02
   1.76792443e-02  3.67025062e-02  2.42823362e-03 -6.36672378e-02
   2.44741887e-03 -5.46719134e-03 -8.00829753e-02 -7.13468567e-02
   1.56775191e-02  6.29799813e-03 -1.44281089e-02  3.84145081e-02
  -2.71646678e-03 -5.65000325e-02 -6.53456226e-02 -3.95506136e-02
  -1.16078109e-02  2.74942070e-02  1.44405439e-02 -6.39930665e-02
   4.40691188e-02 -4.21506464e-02  5.83816692e-02  1.00518763e-02
   8.09001103e-02 -4.10671234e-02  2.11137533e-03  4.61164042e-02
   6.18478879e-02  2.47071311e-02 -1.00283176e-02 -3.47763151e-02
   2.18033493e-02  3.21908593e-02 -2.67006047e-02  6.21551499e-02
   5.80231175e-02 -8.09050053e-02 -5.77839017e-02  1.64558068e-02
  -7.64151737e-02 -7.91404843e-02 -1.96700469e-02  6.33762553e-02
  -1.42818391e-02 -1.61136016e-02  6.57662526e-02 -4.54471111e-02
   5.06046787e-02  5.12890741e-02  4.53071296e-03  4.76149544e-02
  -7.08601326e-02  1.16229206e-02  1.85898468e-02  2.60933042e-02
   4.22900170e-02  6.94757700e-03 -3.14578824e-02 -3.98691148e-02
  -1.16827488e-02  6.54133037e-02  5.41243181e-02 -3.67898792e-02
  -6.49575442e-02  5.38465381e-03  5.70591167e-02 -6.98089451e-02
  -1.50346756e-02  1.51259527e-02  3.18820775e-03 -2.15935707e-02
  -1.28504634e-03  5.48682138e-02 -3.07475477e-02  5.22120371e-02
  -7.60549456e-02 -2.31748074e-02  3.20863202e-02 -3.39302458e-02]
 [-1.24335960e-02 -6.99325949e-02  3.51993591e-02  6.20003417e-02
   2.36295462e-02 -7.36586004e-02  7.51903132e-02 -9.87009704e-03
   3.05425078e-02  5.24690971e-02  2.16363668e-02 -2.98871100e-02
  -6.60806894e-02 -6.21616095e-03 -2.50629410e-02 -4.04767431e-02
   5.34950122e-02 -6.30315840e-02 -4.47544344e-02  6.76302239e-02
  -4.12489809e-02 -5.35671487e-02  2.61429027e-02  2.93092653e-02
  -6.46923557e-02  7.87434503e-02  2.17891186e-02 -7.72976950e-02
  -4.69034016e-02  7.23277777e-03 -2.22114101e-02  3.64553481e-02
   7.95494094e-02 -3.70538272e-02 -8.07753205e-03  5.88130727e-02
   1.08809024e-03  2.68363953e-02 -2.58512460e-02 -6.55164197e-02
   7.82706812e-02  1.99963227e-02 -2.88822539e-02 -3.21221165e-02
  -6.64460510e-02 -7.00897127e-02 -7.05681816e-02  4.12569195e-03
   2.62454972e-02  3.46694365e-02 -1.18885860e-02  7.70788714e-02
   7.77443722e-02 -7.43556023e-03 -6.24726117e-02  3.89250591e-02
   7.20669255e-02 -3.52248549e-04  7.84689561e-02 -4.68751863e-02
  -6.94290772e-02 -1.45586878e-02  6.32034019e-02 -2.79484279e-02
   7.55055174e-02 -4.29343730e-02  4.15760502e-02  6.27733022e-03
   1.46715045e-02  1.15930811e-02  2.17534602e-03  6.84364066e-02
  -3.03237289e-02 -7.95837194e-02 -4.34799641e-02 -5.53793795e-02
   3.05214524e-03 -1.23830661e-02 -3.76882963e-02  6.41044155e-02
   5.19823283e-03 -6.03355467e-04  1.34381279e-02 -4.42481376e-02
  -2.01048106e-02  5.01378626e-03 -6.57111928e-02 -2.40255930e-02
   1.96288601e-02  3.57247666e-02 -2.33809538e-02 -6.44467175e-02
   4.09138873e-02 -8.52010399e-03  1.48562416e-02  4.31370959e-02
  -2.12923177e-02  1.43707320e-02  6.10571876e-02 -7.98457488e-02
   3.36112827e-02 -6.33248314e-02  7.69650564e-02 -5.07216752e-02
   1.90603733e-03 -1.22848451e-02 -5.26683629e-02 -7.93059021e-02
   1.87363550e-02  6.79078773e-02 -2.86913067e-02  1.39941424e-02
  -1.89579725e-02  4.64607850e-02 -7.50808492e-02 -2.86483392e-02
  -6.05369061e-02  7.32258633e-02 -7.74463937e-02  7.08259642e-03
   7.93458298e-02 -2.09559686e-02  6.33710846e-02  7.02816620e-02
   1.06310174e-02  1.24025419e-02  1.21196434e-02  2.21471861e-02]
 [-6.15079179e-02 -4.56224643e-02 -5.30060679e-02  7.30740800e-02
   5.83137199e-02  3.50608714e-02  2.95213405e-02 -1.50396824e-02
  -2.84441561e-03  8.34834203e-02  2.96422467e-02 -5.44100665e-02
   1.58630479e-02  2.83403136e-02  1.93177238e-02  6.63804486e-02
   3.67566757e-02  6.43373653e-02 -3.11802165e-03  4.58060950e-02
  -1.17158219e-02 -2.92275418e-02  1.73897147e-02 -4.78599705e-02
   2.00720504e-02  6.97628632e-02 -6.85725361e-02 -6.94585741e-02
  -4.64048423e-02 -3.49213183e-03 -1.41347684e-02 -5.12139089e-02
   7.02198073e-02 -1.68668479e-02  9.62890685e-04 -2.07735524e-02
  -3.63429897e-02  2.88204700e-02 -1.74683407e-02  4.84836176e-02
   4.94655743e-02  2.77132317e-02  1.35525912e-02  4.86265346e-02
  -6.02202117e-03 -6.11303523e-02 -5.12346588e-02  3.63715142e-02
  -1.29182190e-02 -1.01561025e-02 -7.22563267e-03 -2.95053348e-02
   6.04155883e-02  3.43234912e-02  1.12318620e-02  1.01919487e-01
   2.67926529e-02 -8.13030750e-02 -4.36578840e-02  5.59019521e-02
   7.55281225e-02  3.16516757e-02  7.41131380e-02  5.14347479e-02
  -2.64184959e-02  1.72604397e-02  1.65522099e-02 -1.42923594e-02
   1.78065747e-02 -8.38426128e-02  1.75391752e-02 -7.76892900e-03
   7.33653978e-02  4.55551967e-02  5.35604581e-02  5.25750145e-02
   3.31798904e-02 -6.60106838e-02  7.42427632e-02  2.53111534e-02
  -1.09239966e-02 -3.03116255e-02 -2.12579966e-03 -4.03403230e-02
   6.17599674e-02 -7.30800331e-02  3.88186425e-02  4.21085432e-02
  -5.60681894e-02 -1.31618232e-03  6.69966266e-02  4.99237105e-02
   6.28702119e-02 -1.02806091e-02 -2.01967843e-02  2.89297327e-02
   2.20980160e-02 -3.49832736e-02 -3.46797593e-02 -7.44886920e-02
   6.53373450e-02 -2.01750696e-02  3.30698490e-02 -5.92387654e-02
  -1.83738768e-03 -3.00802402e-02 -1.52407736e-02 -7.68342316e-02
   6.86094388e-02 -4.05080132e-02  4.65540811e-02 -5.32786623e-02
   7.39520267e-02 -1.33634582e-02 -1.60174875e-03 -7.18136877e-02
   1.72712989e-02 -6.66587002e-05 -4.41545807e-02 -1.21421739e-02
   1.16030797e-02  6.50070831e-02  6.12604618e-03  5.52324913e-02
  -4.89916280e-02 -1.98215358e-02 -1.70024987e-02  1.35874599e-02]
 [ 3.87207903e-02  1.84913240e-02 -7.42770433e-02  5.91035262e-02
  -6.09493256e-03 -1.13155067e-01  1.21251335e-02  6.12163171e-02
  -1.81228891e-02 -2.62401905e-02 -3.85819189e-02 -5.46979383e-02
   9.04588178e-02 -6.41732244e-03  7.88937584e-02  2.06397101e-02
  -4.92655709e-02 -3.46036814e-02  4.19877395e-02 -3.83254290e-02
   5.65487966e-02  4.74986024e-02 -9.03017744e-02 -7.05198795e-02
   2.26180926e-02 -1.55629814e-02 -3.23581658e-02  4.37840931e-02
   1.92197375e-02 -6.05794489e-02 -7.01064384e-03 -5.18629812e-02
   3.65968272e-02  3.87056619e-02 -5.97703159e-02 -6.55705854e-03
   3.23637314e-02 -7.68714845e-02 -5.06343693e-02 -2.16571242e-03
  -3.09354216e-02  7.84017667e-02  7.67096058e-02  5.20189479e-02
  -6.05614260e-02 -8.00590888e-02 -6.58408776e-02  1.68276932e-02
  -3.21180336e-02  2.37803590e-02 -6.31093308e-02  8.45559686e-03
   3.55547443e-02  6.38066605e-02 -1.08579425e-02  8.79416540e-02
   3.21481228e-02  6.60498291e-02  1.15626147e-02  4.29811105e-02
   7.39054456e-02 -5.14627956e-02  2.21414044e-02  5.91595843e-02
  -5.34228273e-02  9.18401033e-03 -7.68711567e-02  3.88052166e-02
  -2.01646239e-03 -6.05169870e-02  9.90824401e-02 -3.32713872e-03
   1.36072412e-02  3.76657546e-02  7.51180425e-02 -5.20844385e-02
  -6.12538271e-02  3.85091221e-03 -1.26716038e-02 -6.26117131e-03
  -5.43327443e-03 -7.03239441e-02  4.27983999e-02 -4.31932770e-02
  -7.18530789e-02 -6.10917769e-02 -3.88637930e-02 -6.42582625e-02
   4.69764695e-02  2.23504156e-02  3.97033468e-02 -4.19994034e-02
   5.36611453e-02  8.06415752e-02  1.58067569e-02  1.39007941e-02
   4.54737842e-02 -3.71410623e-02  3.87247503e-02  6.86786398e-02
  -3.29723731e-02  2.84364317e-02 -4.93441895e-02  9.07358341e-03
  -2.04529576e-02 -4.54809144e-02  8.01543966e-02  1.77631229e-02
  -2.90909708e-02 -8.04956183e-02  2.67647281e-02  7.77161941e-02
   6.35607839e-02  1.85057018e-02  7.62817562e-02 -1.11859053e-01
   8.44774768e-02  6.02466390e-02  6.36452436e-03  7.12609962e-02
   3.47412378e-03 -1.05847456e-02  1.69073604e-02  1.01515353e-02
   3.56307030e-02  7.56873423e-03  8.69933367e-02  2.29328265e-03]
 [-1.37621596e-01 -1.13029309e-01 -2.20343918e-01 -5.95937558e-02
   4.57518697e-02 -1.29543290e-01 -3.43519561e-02 -6.99136630e-02
  -1.58152133e-02  8.15684870e-02  1.46795064e-02  4.81514558e-02
   1.40046060e-01  6.82092234e-02  3.06656882e-02  1.39852688e-02
  -1.74685925e-01 -2.34042369e-02  1.80164486e-01 -1.65963754e-01
   4.55727652e-02  1.08751878e-01 -6.69134408e-02 -5.43067791e-02
  -2.51816958e-02  1.46234035e-03  1.24596082e-01 -1.20556109e-01
  -7.33282492e-02 -6.33873343e-02  7.64507428e-02 -8.45973939e-02
   8.54573548e-02 -6.81160092e-02 -4.29639257e-02 -1.37289017e-02
   1.69061366e-02 -3.94625291e-02 -7.31056780e-02  6.46089241e-02
   6.58109859e-02  1.60275083e-02  2.17192471e-02 -1.67239532e-02
   3.17798853e-02 -4.27231565e-02 -1.36544883e-01  1.74948111e-01
  -5.40698841e-02  6.85367808e-02 -1.76555082e-01 -4.15829718e-02
   5.35222068e-02 -6.51903600e-02 -8.51514637e-02  1.59959868e-02
  -2.70870216e-02  2.81505287e-04  1.44082576e-01 -1.15766255e-02
   6.93082996e-03 -3.72777395e-02  1.75358430e-02  3.00032943e-02
   1.61082447e-02 -3.89568508e-02 -6.10724762e-02 -5.92907071e-02
   7.95290843e-02 -1.02052845e-01 -4.07870375e-02  3.52495611e-02
  -1.15944445e-01  2.18949065e-01  2.90563181e-02 -2.70793011e-04
  -4.84231636e-02  1.39957279e-01  8.89382437e-02  2.26759493e-01
  -6.33533299e-02  5.18286303e-02  6.66391477e-02  1.48645550e-01
  -4.24538888e-02 -5.80459014e-02 -4.93575335e-02 -1.21415012e-01
   6.91680089e-02 -7.40422308e-02 -2.57712249e-02  4.00426164e-02
  -9.44167376e-03 -6.87665343e-02 -2.16513276e-02 -2.48320587e-02
   7.24428743e-02 -6.75175488e-02 -5.14996350e-02 -3.34488191e-02
  -4.00470272e-02  1.08675115e-01  1.75810650e-01  7.17309490e-02
  -2.86642853e-02 -3.93523574e-02  1.09597489e-01  1.57742530e-01
   7.85319433e-02 -5.94578646e-02 -3.96442488e-02  3.77402939e-02
   1.00705318e-01 -1.30824670e-01  2.14453384e-01 -5.55037372e-02
   1.54166684e-01  6.14513196e-02  2.98479199e-03  1.25379488e-02
  -1.76889747e-02 -4.16886900e-03 -3.04987263e-02  1.13934360e-01
  -8.05112422e-02 -2.21275985e-02 -4.53382730e-03 -1.96911991e-02]
 [-1.87860012e-01 -2.15081409e-01 -2.01790676e-01 -6.90427125e-02
   4.62787785e-02 -1.62942424e-01  5.48779219e-02 -3.49569768e-02
  -1.14230998e-01  2.46941999e-01 -7.95092434e-02  8.16508457e-02
   9.57428217e-02 -9.32667553e-02 -5.64120039e-02  2.57975385e-02
  -7.45454580e-02 -3.67085040e-02  4.55004461e-02 -1.96552575e-01
   7.88690150e-02 -3.12884375e-02 -8.09528381e-02 -1.50040716e-01
   1.34402141e-02  6.90889731e-02  1.15003482e-01 -1.91634316e-02
  -5.91757931e-02 -6.51023537e-03 -1.18108884e-01 -1.08961515e-01
  -8.55571032e-03 -7.29693174e-02  1.14682354e-01 -1.31052062e-01
   1.68871395e-02  3.75950336e-03 -5.56209683e-03  7.36477971e-03
   1.89775825e-02 -3.72977071e-02  7.54710957e-02  6.39863536e-02
   6.20780960e-02  4.57995757e-02 -2.11490214e-01  1.84673369e-01
   4.83177528e-02  8.52177814e-02 -1.30225316e-01 -7.57924467e-02
  -2.01543570e-02 -4.47102226e-02 -1.06297955e-01  1.57247186e-02
   3.92056406e-02  7.92721957e-02  2.04176642e-02 -1.18076645e-01
  -2.70191785e-02 -1.34709716e-01 -1.81716587e-02 -2.30664909e-02
  -3.27438414e-02 -6.55800849e-02 -3.29252668e-02 -7.04707727e-02
  -1.09457634e-02 -1.73535928e-01  1.29132405e-01  5.63507937e-02
  -6.19379021e-02  2.35129148e-01  5.46218120e-02  1.34271123e-02
  -6.58198223e-02  8.30152780e-02  1.68331251e-01  1.85515031e-01
  -1.22916125e-01  8.38980600e-02  1.20362937e-02  1.53431877e-01
  -1.05164915e-01  5.46644852e-02 -3.32342945e-02 -3.95139605e-02
   4.09111045e-02 -3.90673503e-02  1.89052243e-02 -4.39783670e-02
   3.06051970e-03  4.37977463e-02 -5.18437661e-02  3.03799883e-02
  -1.05826985e-02 -4.86892723e-02 -3.51841599e-02  4.91664335e-02
   1.23151205e-02  2.57631186e-02  1.09607130e-01  1.31522700e-01
   4.87533733e-02 -6.51047081e-02  1.13813862e-01  2.18793258e-01
  -5.03587723e-02 -5.21633215e-02  2.00817809e-02  1.00730114e-01
   2.59084497e-02 -2.16052413e-01  2.73041219e-01 -8.22759047e-02
   2.20072523e-01 -1.05618071e-02 -8.03845525e-02  7.54780546e-02
   3.84674147e-02  2.27482580e-02 -8.08213465e-03  1.19541124e-01
  -9.06747580e-03 -2.67150421e-02  2.06645280e-02  9.37590078e-02]
 [-8.78637061e-02 -1.09165989e-01 -1.74663186e-01  3.35207470e-02
  -2.42867954e-02 -1.36855513e-01  5.04650623e-02 -5.36057055e-02
  -7.45294616e-02  2.37378031e-01  4.42360863e-02 -7.75659010e-02
   7.59949014e-02  9.39814374e-02  2.73205116e-02 -7.11004541e-04
  -3.69066522e-02 -8.08316395e-02  1.54872745e-01 -3.06441724e-01
   9.38237458e-02  3.17392386e-02 -1.86039388e-01 -4.68759611e-02
  -6.93757087e-02 -6.87168837e-02  1.20724864e-01 -1.78437471e-01
   6.93783909e-02  6.29391298e-02 -1.39971212e-01 -7.45293722e-02
   1.27863050e-01 -1.19205909e-02  1.53062930e-02 -2.95993295e-02
  -9.93266180e-02  1.46337152e-02 -1.98719203e-02  8.06383714e-02
   3.41326743e-03 -4.56208400e-02 -1.24020576e-02  4.03447971e-02
  -6.53452352e-02 -3.37318331e-02 -1.78634629e-01  5.21811284e-02
  -5.32869548e-02  1.42339036e-01  1.34946823e-01 -5.19693047e-02
   1.14793852e-02  4.57379334e-02 -2.44101226e-01  1.82691038e-01
   6.70881346e-02  1.04809776e-01  6.60648793e-02  1.85800425e-03
  -3.68618928e-02 -3.66056412e-02  7.80884326e-02  3.74201313e-02
  -9.57216099e-02  6.02863505e-02 -4.02551182e-02 -2.11725943e-02
   1.09086819e-02 -1.20791934e-01 -1.20672919e-02  1.20120257e-01
  -1.24243692e-01  1.65865198e-02 -2.74363067e-02 -1.12532564e-02
  -6.32560626e-02 -6.15074448e-02  1.88514844e-01  8.58292133e-02
  -1.05828166e-01 -7.84113705e-02 -4.38845009e-02  1.70938730e-01
   1.28503060e-02  9.32770967e-03 -3.27875316e-02 -1.48296684e-01
   1.25733716e-02  7.19623193e-02  1.78913809e-02  2.33926922e-02
   1.25058070e-02  1.41453445e-02 -5.08336909e-02  3.47882509e-02
   1.87204629e-01  4.92358729e-02  6.39919415e-02  1.06724247e-01
   4.09396105e-02  3.95302335e-03  7.57089555e-02  1.02853507e-01
   8.85177287e-04 -4.35667336e-02  1.13725208e-01  2.47276783e-01
  -2.98729949e-02  2.25777552e-02 -8.55442882e-03  9.22067985e-02
   1.88817605e-01  4.98719439e-02  2.35854521e-01 -1.32336244e-01
   1.49508864e-01 -3.84651534e-02 -7.94105604e-02 -8.06870684e-02
   2.36221030e-02  1.93794686e-02  3.59403389e-03  2.03152880e-01
   1.92835927e-03 -3.43290940e-02  1.27052352e-01 -5.97785190e-02]
 [-1.85211852e-01 -6.68523908e-02 -1.64259240e-01 -9.44927894e-03
   6.12711459e-02 -1.10751525e-01  6.36375025e-02  6.33170828e-02
  -1.74345881e-01  3.05322856e-01 -2.41033360e-02  8.06224123e-02
   6.10024743e-02  1.26323462e-01 -7.84052238e-02  4.96500023e-02
  -2.53908616e-02  6.20089993e-02  1.03583172e-01 -2.50784546e-01
   1.65478155e-01  6.90715155e-03 -1.21638916e-01  6.97068870e-02
   2.52097547e-02  5.01686037e-02  7.96637312e-02 -1.39377579e-01
  -2.75412593e-02  5.45169488e-02 -2.03178912e-01 -1.20308354e-01
   8.66063982e-02 -7.21060336e-02  9.68136564e-02 -5.26342280e-02
  -1.89402506e-01  7.18480870e-02 -6.39817119e-02  1.36235803e-02
  -6.06434382e-02 -9.33879763e-02  7.76101276e-02  1.43115595e-02
  -1.76102147e-02 -8.43087211e-02 -1.69929311e-01  4.25506346e-02
   3.41439694e-02  6.22951239e-02 -4.94751595e-02 -6.73090965e-02
   1.61770675e-02 -1.44884242e-02 -2.14996696e-01 -8.76993984e-02
   3.48836258e-02  3.11606452e-02  6.45749122e-02 -1.07447850e-02
  -7.51433149e-02 -1.88987106e-01  6.17585406e-02  3.77119631e-02
  -6.28981218e-02 -5.63166291e-02  1.54653946e-02 -3.66983674e-02
   6.19887095e-03 -2.27331683e-01  1.76279962e-01  1.43455684e-01
  -6.37138486e-02  1.65602565e-01 -1.30792456e-02 -8.09230879e-02
  -3.22930850e-02 -3.23086232e-02  2.17511728e-01 -1.24040048e-03
  -5.96050695e-02  5.65468892e-02 -6.55002519e-02  1.10686794e-01
   8.80201384e-02  3.36810723e-02  1.50016521e-03 -5.83134964e-02
  -5.56654297e-02 -5.25224209e-03  7.72257522e-02 -4.16289978e-02
  -5.75602800e-03  1.34829730e-02 -5.63950241e-02  6.94510713e-02
   4.56293719e-03  6.35164455e-02 -1.78209860e-02  9.05441958e-03
   1.60918936e-01  1.25804603e-01  1.46150395e-01  1.85112447e-01
  -9.81525406e-02 -6.73175901e-02  2.30678469e-01  3.25421959e-01
  -5.12146130e-02  1.43014304e-02 -9.57974792e-03  1.72819331e-01
   8.58166367e-02  4.59596105e-02  2.57251680e-01 -7.65943974e-02
   1.67460755e-01  1.49144650e-01  1.65320039e-02  1.48498667e-02
   2.07667090e-02 -7.31810108e-02 -3.96214314e-02  6.58551231e-02
  -4.07168306e-02  1.60464011e-02  2.00531185e-01 -3.18642668e-02]
 [-3.62340271e-01 -1.00042701e-01 -1.36692747e-01 -1.22967213e-01
  -2.35022511e-02  9.64822173e-02 -1.55814542e-02  5.08668050e-02
  -1.47845000e-01  3.08812737e-01  7.58099183e-02 -2.54819632e-01
   1.86835974e-01 -2.24154413e-01 -5.19581065e-02  6.30334094e-02
  -1.22553408e-01 -5.00481948e-02 -1.85861111e-01 -3.04124773e-01
   1.13472089e-01  7.06482753e-02 -1.05380550e-01 -1.28916979e-01
  -5.17637357e-02  4.29209061e-02  6.86864778e-02 -1.33035377e-01
   3.74935828e-02  7.79904202e-02 -2.99582422e-01 -1.21797532e-01
   2.34914646e-01  1.67030785e-02  1.14193685e-01  9.62482765e-02
  -4.06292051e-01  4.51112762e-02 -8.77893418e-02  7.10883737e-03
  -3.93331945e-02 -2.05811933e-01  3.28420103e-02 -5.58588915e-02
  -7.48670921e-02 -3.96757908e-02 -1.26825005e-01  9.99180898e-02
   1.76699236e-02  1.91657484e-01  2.88420413e-02  5.14895990e-02
   7.94658065e-02  3.00424304e-02 -3.59099731e-02  8.55870247e-02
   2.46863440e-02  1.06655262e-01 -8.92493781e-03 -3.43034696e-03
   7.00211301e-02 -1.61207080e-01  6.38655350e-02  3.32059227e-02
  -1.48406908e-01  4.45870683e-02 -2.64382903e-02  5.19470200e-02
  -5.41397482e-02 -2.16778234e-01  3.38025957e-01  3.90547216e-02
  -1.22689772e-02  1.30475536e-01  1.40543193e-01 -1.14285924e-01
  -7.08961114e-02  4.63752635e-02  4.10735488e-01  2.47834951e-01
  -2.22270951e-01  7.76502565e-02 -3.72401327e-02  2.17875242e-01
   2.08805978e-01  8.40754062e-03 -3.36397924e-02  1.29708469e-01
  -3.90301310e-02  5.73525205e-02  2.34473087e-02 -2.56240405e-02
   2.68334001e-02 -2.18278356e-02 -4.61029597e-02 -3.43744457e-02
   5.32236658e-02  1.88867420e-01 -1.21010080e-01 -4.65151407e-02
   1.40357256e-01  1.38854384e-01 -2.93396078e-02  3.04520160e-01
  -5.30840084e-02  1.49984360e-02  2.84369379e-01  2.86130637e-01
   3.66479829e-02 -7.88051337e-02 -5.83573207e-02  1.48653656e-01
  -2.62749325e-02  3.61384940e-03  4.89893317e-01  1.03831448e-01
   5.66183738e-02  2.53801852e-01  3.46422419e-02  5.69555834e-02
  -5.47650270e-02 -1.98448777e-01  1.51205435e-01  1.75983742e-01
  -6.06950521e-02 -7.88340718e-02 -1.76820517e-01  1.00847200e-01]
 [-1.27693534e-01 -2.18683314e-02 -1.50841206e-01  2.79404595e-02
   6.10783696e-03  3.11090183e-02 -3.16662751e-02 -7.73353875e-02
   7.31109316e-03  3.76042306e-01 -3.96632403e-03 -1.83484435e-01
   3.16771090e-01  1.39740333e-01 -3.86253335e-02 -7.76674366e-03
  -1.44416019e-01 -2.76783854e-02 -9.81791988e-02 -6.10724017e-02
   6.14959374e-02  1.44917041e-01 -1.93894118e-01 -2.35606655e-02
  -4.42340970e-04  7.70841539e-02  1.90908704e-02 -2.39287347e-01
  -3.27821933e-02 -6.39673024e-02 -7.12529272e-02 -1.96699068e-01
   1.56114504e-01 -5.96269593e-02 -2.67879292e-02  2.25742921e-01
  -2.34245688e-01  7.64765516e-02 -1.46734575e-03  1.20206475e-02
  -6.21230304e-02 -2.10147649e-01 -3.14094611e-02  4.98510152e-03
  -1.22736394e-03 -2.99542546e-01  3.20418030e-02 -1.03872076e-01
  -1.25446990e-02  4.37150598e-01  3.56372520e-02  5.74156046e-02
   8.14195350e-02 -3.19831111e-02 -9.04316604e-02  1.55111119e-01
  -2.63654441e-03  1.04081437e-01  4.14002649e-02 -7.98570812e-02
   5.99528588e-02 -2.10106462e-01 -6.86055198e-02 -4.18762937e-02
  -1.22500949e-01 -5.56791052e-02  3.76803130e-02 -1.47234276e-02
  -5.59896380e-02 -4.23846155e-01  4.08268794e-02 -1.10414671e-02
  -1.56237744e-02 -1.06437400e-03  4.41800691e-02 -3.09771657e-01
  -1.18532889e-01  1.54271051e-01  3.50178510e-01  1.36624590e-01
  -3.17992389e-01 -2.85704825e-02  5.41774184e-03  2.56680280e-01
  -1.00510083e-01  5.76453581e-02 -1.05781570e-01  2.32283189e-03
   7.63925761e-02 -2.91096903e-02 -1.30219162e-02 -5.30482084e-03
   6.29184172e-02  6.88390061e-02 -1.58944242e-02 -5.93762174e-02
  -1.65830888e-02  1.19055174e-01  2.05499325e-02 -8.61686394e-02
   2.02869624e-01 -6.71651140e-02  1.75543338e-01  2.70564884e-01
  -6.76493645e-02  3.99635434e-02  9.31739733e-02  3.15438598e-01
   1.58332773e-02 -2.70857625e-02  7.19484165e-02 -9.26808119e-02
   8.02131742e-02  6.18124120e-02  2.91305155e-01  3.16825584e-02
   6.96608350e-02  8.45699012e-02  4.45928201e-02 -6.92766383e-02
  -1.62742808e-02 -8.70840475e-02  1.82777882e-01  3.43205810e-01
   1.62812844e-02  8.20589066e-02 -6.49128929e-02  1.28291419e-03]
 [-3.63854058e-02  5.56208119e-02 -2.80442446e-01  1.53204113e-01
  -8.75078440e-02 -1.77593268e-02  4.37352061e-02  1.60600487e-02
  -1.25525206e-01  6.97154403e-01 -2.40900666e-02 -2.24647403e-01
   2.04358429e-01  8.57907832e-02  5.95806614e-02 -2.56950390e-02
  -4.32054996e-01 -6.24578148e-02  7.69932568e-02 -3.26424986e-01
   5.98996729e-02  3.53579044e-01 -8.79748985e-02  5.14241285e-04
  -5.51275909e-04 -6.16511554e-02  5.17679043e-02 -3.62710357e-01
   3.06044780e-02  9.11766812e-02 -2.87677705e-01 -3.85779411e-01
   1.87820151e-01  1.17769269e-02  4.43723500e-02  2.29275167e-01
  -1.42377093e-01  4.87866923e-02  4.75680791e-02 -2.83441655e-02
  -7.05355778e-02 -3.08458090e-01 -1.32094547e-02 -9.86071676e-03
  -1.91731118e-02 -2.94812530e-01  3.27853002e-02 -6.04847670e-02
   6.74905851e-02  4.14935797e-01  1.76917210e-01  7.54678026e-02
   2.67457902e-01  1.35971770e-01 -1.27367288e-01  2.72976488e-01
  -6.99580386e-02  3.51947546e-02  4.78512309e-02 -9.06695276e-02
   2.93248862e-01 -3.30614477e-01  3.27050686e-02  2.34755576e-02
   8.13968629e-02  6.29539713e-02 -3.78190614e-02 -4.17206436e-03
   7.39419088e-02 -4.24855262e-01  4.26161401e-02 -3.33162919e-02
  -9.00774077e-02  2.02216029e-01 -9.80891958e-02 -4.59638894e-01
  -1.77404076e-01  2.93487757e-01  3.49576175e-01  2.85752025e-02
  -2.35222891e-01 -4.57120165e-02  4.78108302e-02  2.61740297e-01
  -2.92206239e-02 -3.08021195e-02 -5.56377284e-02 -2.36916080e-01
  -1.15891164e-02 -1.75177753e-02  2.90164705e-02 -2.63818316e-02
  -2.93838494e-02 -7.37393722e-02 -6.07587434e-02 -4.76498231e-02
  -6.42681494e-02  9.83894840e-02 -1.00298591e-01 -2.34084561e-01
   5.72476387e-02 -1.61781944e-02  2.63860226e-01  3.29553574e-01
   2.21556313e-02  3.73577103e-02  4.11890477e-01  3.10245425e-01
  -5.82003072e-02  7.98229128e-02 -4.12167646e-02 -1.22710437e-01
   6.64463699e-01 -3.20850611e-02  4.00735825e-01  6.40173033e-02
   2.94154525e-01 -5.56972176e-02 -4.90980297e-02  2.02458748e-03
  -7.17032850e-02  2.01802105e-02  2.86395252e-01  2.97570795e-01
   9.75077599e-03  1.03950217e-01  2.62183100e-02  3.93016376e-02]
 [-8.76470134e-02  1.15357362e-01 -3.84359568e-01  1.91305488e-01
  -4.77999337e-02 -7.22464323e-02 -6.59497231e-02 -1.15143277e-01
  -3.51614565e-01  6.47221744e-01  2.13178638e-02 -1.05749100e-01
   2.08862185e-01  2.03557670e-01 -5.69917262e-04 -3.78107391e-02
  -3.44748765e-01 -5.51232621e-02  2.78645247e-01 -3.80469382e-01
   1.64239407e-01  2.70154744e-01 -2.16303870e-01 -1.25204787e-01
   2.57555768e-02 -7.94603229e-02  1.41737079e-02 -1.88751400e-01
   7.79390037e-02 -1.94843055e-03 -3.93229932e-01 -1.94124699e-01
   2.97435075e-01  2.95242146e-02  5.87495491e-02 -3.54808778e-01
  -2.50590324e-01 -1.06397504e-02  9.84317437e-02 -4.33154404e-03
   5.73688671e-02 -2.13576138e-01 -6.44488707e-02 -1.86938141e-02
   1.45609081e-02 -1.32024094e-01 -2.02960260e-02 -1.92682251e-01
  -1.44270509e-02  4.05548751e-01  1.80833027e-01  8.93526599e-02
   3.38653713e-01  1.69674382e-01  2.68081054e-02  7.75110871e-02
   1.35139748e-02 -7.91417360e-02 -9.40058231e-02 -1.30812498e-02
   2.63934821e-01 -3.13277006e-01  5.05457893e-02  1.78355202e-02
  -5.69269992e-02 -1.96561404e-02 -7.48394132e-02 -6.21532761e-02
   3.74079077e-03 -1.86725885e-01 -4.36635548e-03  1.96400913e-03
  -5.79128079e-02  1.85923681e-01 -1.42230630e-01 -4.10345078e-01
  -1.44878924e-01  2.15693876e-01  3.58335704e-01  1.54673919e-01
  -4.93226573e-03 -5.73926941e-02  3.85648236e-02  2.68424839e-01
  -5.06736105e-05 -8.20988417e-03 -7.40642175e-02 -1.28185347e-01
   9.02526081e-03 -1.95185132e-02 -4.20735963e-02 -1.13862753e-02
  -3.31282280e-02  5.63782826e-02  3.98215801e-02 -3.56171839e-02
  -9.97648295e-03 -1.02552705e-01 -6.91697374e-02 -2.87225675e-02
   1.57176822e-01 -1.72390863e-02  2.17049271e-01  2.91227221e-01
   2.49527972e-02 -4.75609563e-02  6.00598574e-01  3.74425471e-01
   5.69414208e-03 -3.67927626e-02 -6.19659461e-02  1.64371893e-01
   6.04382575e-01 -4.07161228e-02  1.91487491e-01 -6.33748919e-02
   2.79883742e-01 -6.18293174e-02 -1.60337165e-02 -4.73529100e-02
   2.99765822e-02 -1.70570984e-01 -2.82717030e-02  3.39229047e-01
  -1.91498287e-02  4.73305099e-02  1.82287186e-01 -5.88503219e-02]
 [-8.65866616e-03  2.94362634e-01 -6.22168593e-02 -4.83484641e-02
  -3.68153937e-02 -2.31628805e-01 -1.24384193e-02  3.88310514e-02
   1.80905491e-01  3.46578002e-01  5.31278364e-02  2.22502679e-01
   1.61507890e-01 -2.41489500e-01 -7.41148889e-02  2.29602400e-02
   2.51592547e-02 -7.32921064e-04 -2.73949981e-01 -2.87192076e-01
   2.28827626e-01  3.87847334e-01 -3.20751071e-01 -1.65469319e-01
  -1.26799317e-02 -2.28083394e-02  7.00889826e-02 -3.27232510e-01
  -1.22271717e-01  2.76944321e-02  1.65921837e-01  2.90994793e-01
   2.87337080e-02 -5.75181469e-02  1.52268410e-01  1.68765232e-01
  -8.51806849e-02 -3.84492315e-02  1.21654049e-01  7.19651803e-02
  -6.29268065e-02  6.61984980e-02  4.24279869e-02 -4.17984203e-02
   1.78691037e-02 -7.53412321e-02 -3.69301699e-02  2.10395247e-01
  -7.76588023e-02 -1.38821140e-01 -1.63922757e-01 -2.74944961e-01
   4.15835768e-01  9.88310054e-02  2.36068979e-01  1.02864355e-01
   7.57420436e-02 -1.77589450e-02 -2.30011031e-01 -9.56345797e-02
   1.11172050e-01 -1.53170571e-01 -7.59086683e-02  6.47977740e-03
   6.78089336e-02 -1.58712771e-02 -2.20531076e-02 -1.28331035e-03
   1.26856059e-01  6.00193702e-02  1.45845011e-01  1.11699946e-01
  -6.57899454e-02  2.44129226e-01  3.18368971e-02  1.17377467e-01
   1.06282681e-01  4.07491811e-02  1.65340304e-01 -8.82685483e-02
   3.60991746e-01 -4.26464751e-02  2.36778557e-02 -1.32789135e-01
  -2.63886243e-01  1.86216254e-02 -5.78938760e-02  3.48802842e-02
   1.31888047e-01 -1.12347752e-02  4.93755564e-02 -6.37098178e-02
   4.25075740e-02  6.93652257e-02 -3.83738452e-03  1.19616836e-03
   5.15632005e-03  1.58903301e-01 -1.24953380e-02 -1.17197491e-01
   9.75783169e-02 -8.71589854e-02  1.59604996e-02  1.11122079e-01
   1.44956246e-01  3.08564045e-02  4.59830791e-01  6.76048100e-02
  -9.37903896e-02 -3.16374237e-03 -5.24108931e-02 -1.80944726e-01
   9.38038379e-02 -1.65737271e-01  8.54789764e-02  2.77726222e-02
  -3.65038658e-03  1.39978215e-01  2.63324603e-02 -7.82710314e-02
   9.26089361e-02 -1.69495285e-01  1.64566517e-01  1.74154684e-01
  -1.05201527e-02  2.77637057e-02 -1.14251509e-01 -1.13983795e-01]
 [-1.90118223e-01  2.49799579e-01 -9.09994170e-02  8.61804113e-02
  -2.84700155e-01 -3.74429792e-01  1.00969277e-01 -1.01230554e-02
   3.31996232e-01  6.25685811e-01  4.36322317e-02  2.05009371e-01
   2.45223135e-01 -2.06100494e-01 -7.87849128e-02 -3.99671355e-03
  -4.50240970e-01  4.34856489e-02 -1.61124989e-01 -3.60238642e-01
  -7.06823394e-02  4.53822166e-01 -3.01946074e-01 -1.48338020e-01
  -3.44321579e-02  2.83378572e-03  1.37517706e-01 -4.19475883e-01
  -2.56748229e-01  6.11400492e-02  1.48705453e-01 -1.49829715e-01
  -1.20861545e-01 -3.66546363e-02  2.40662873e-01  2.19352514e-01
  -6.83911443e-02 -7.86230564e-02  1.34218901e-01 -4.64834534e-02
   5.43079004e-02  2.59459373e-02  5.16147688e-02  8.70987624e-02
   9.59443226e-02 -3.35848838e-01 -9.43918824e-02  7.77592883e-02
  -6.24407008e-02  3.06911647e-01 -2.54487455e-01 -2.53974468e-01
   3.71648282e-01  1.60830319e-01  1.61621928e-01  1.01671219e-01
   6.23012111e-02  5.02467826e-02 -4.29309189e-01 -1.62476152e-01
   5.89459896e-01 -1.90561131e-01  5.16117737e-02 -3.43873352e-03
   1.44259796e-01  1.24588255e-02  4.71069589e-02 -6.74764141e-02
   3.80239054e-03 -5.88312626e-01 -1.92277640e-01  9.55217406e-02
  -8.70824978e-02  3.52324724e-01 -5.07499874e-02  7.77424797e-02
   3.31257023e-02  1.67109743e-01  7.80412331e-02 -5.49289621e-02
   4.53286171e-01 -1.24747910e-01 -2.93995924e-02 -7.07492679e-02
  -4.87252057e-01  5.38096502e-02  8.83773714e-03 -2.75373727e-01
   1.00995630e-01 -6.50441647e-03  5.74201681e-02 -4.59517129e-02
   3.94016504e-02 -1.70130804e-02  1.49024706e-02  4.99730632e-02
  -1.66278526e-01  1.93945438e-01 -3.35708261e-02 -2.78423697e-01
   3.44747142e-03  7.83275738e-02  9.73332375e-02  2.43776917e-01
   8.35063867e-04  3.54665592e-02  5.06028414e-01  5.22380248e-02
  -2.41705701e-02  2.17456054e-02 -5.28372452e-02 -2.19544783e-01
  -3.22315725e-03 -3.04617435e-01  5.11933029e-01 -3.59877311e-02
   3.94853562e-01  3.59787434e-01 -6.56765401e-02 -1.85811624e-01
   1.39317229e-01 -6.81519955e-02  1.62666664e-01  1.23685159e-01
   8.30580294e-03 -6.75209343e-01 -2.53894702e-02 -7.01097846e-02]
 [-2.14867160e-01  5.90932602e-03 -2.71759123e-01 -4.93771285e-02
  -6.86234981e-02 -7.79844448e-02  2.76021481e-01 -2.67820064e-06
  -1.90726414e-01  4.80802506e-01 -1.17908493e-02 -8.58237445e-02
   2.71090120e-01  3.98570418e-01  6.04182482e-03 -4.15962823e-02
  -1.56624734e-01  4.22685519e-02  9.21447724e-02  7.03099594e-02
  -6.68707192e-02  4.36140358e-01 -5.01538217e-01 -2.00355351e-01
  -2.03563534e-02 -8.94234478e-02  1.49186581e-01 -4.23741162e-01
   9.46388617e-02  6.77771121e-02 -7.77738690e-02 -2.73176998e-01
   1.04924805e-01  4.72557880e-02  3.20974976e-01  3.04679871e-01
   2.33836904e-01 -4.19347584e-02 -8.31819847e-02 -6.38148040e-02
   6.48662448e-02  6.20101914e-02  5.76469721e-03  6.06588423e-02
   7.74503350e-02 -7.88117871e-02 -1.03733875e-01 -1.52272321e-02
  -2.49822587e-02  2.03005686e-01  1.64990678e-01 -4.39323336e-01
   8.65827501e-02 -3.50039005e-02 -1.46939710e-01 -3.86500917e-02
  -4.95155156e-03  2.21732616e-01 -2.45599225e-01  1.92994937e-01
   4.62641418e-01 -1.38299987e-01 -5.61701432e-02  2.68940479e-02
  -6.87449193e-03 -1.53357908e-02  2.76084617e-02 -6.14808835e-02
   1.01004824e-01 -3.39730501e-01 -2.02776700e-01  7.23270029e-02
   1.62809715e-02  4.21824932e-01 -3.17049861e-01  2.50330269e-01
   6.14677519e-02  1.67599559e-01 -2.15736240e-01 -3.17996182e-02
   4.62871492e-01 -1.21663302e-01  6.60704598e-02  2.02363908e-01
  -3.68371129e-01 -8.66972730e-02 -1.14135347e-01 -1.66973710e-01
   6.10521398e-02 -1.35886744e-02  1.80403396e-01  2.68072151e-02
   7.62201175e-02  1.46884024e-02 -8.69532004e-02 -3.89635414e-02
  -6.74909279e-02 -8.60819295e-02 -1.92093089e-01  5.01316115e-02
  -1.24596775e-01  7.09744394e-02  2.88164616e-01 -3.77225280e-02
  -1.19687036e-01  1.66902468e-02  9.05158520e-02  1.27834022e-01
  -3.05315144e-02  2.54775397e-02  1.45517588e-02 -2.25911662e-01
   7.23984390e-02 -2.01833367e-01  3.33008245e-02  3.77973258e-01
   4.97261852e-01  2.55541533e-01 -7.18179047e-02 -2.58483626e-02
  -1.42559960e-01  1.21805683e-01  2.16643527e-01  1.59078211e-01
  -7.48623908e-03 -4.34197456e-01  1.37070745e-01  3.02925587e-01]
 [-1.87064558e-01 -3.51282284e-02 -2.88289040e-01 -3.81526984e-02
  -2.03411981e-01  2.49892622e-01  5.20060100e-02 -2.37308927e-02
  -3.93948048e-01  5.64451873e-01  6.19757921e-03 -1.55729339e-01
   2.57328719e-01  3.52328479e-01 -1.73427612e-02 -2.07297266e-01
  -2.13802606e-01 -4.40482385e-02 -2.66587920e-02 -6.26841187e-02
   1.13906167e-01  4.01638627e-01 -1.68445349e-01 -1.39101908e-01
   4.95110378e-02 -5.06817065e-02  1.58756584e-01 -4.35193688e-01
   3.86176229e-01  7.19012618e-02  2.73186769e-02 -3.71646434e-01
   9.25422162e-02  1.00761745e-02  2.97127217e-02  2.94681162e-01
   1.90510467e-01 -5.90082407e-02  2.09274534e-02 -3.10948491e-03
   5.15383519e-02  3.75541672e-02 -2.56565046e-02  4.46758084e-02
  -9.08647478e-03 -1.24480024e-01 -1.58481926e-01 -5.92093263e-03
  -5.25550395e-02  9.83471721e-02  4.84237731e-01 -2.02567831e-01
   4.05229405e-02 -9.39067155e-02 -5.06538332e-01  1.88089177e-01
   4.14365530e-03  1.97214782e-01 -8.13061744e-02  8.99501517e-02
   3.51932257e-01 -7.95529112e-02 -2.89145112e-02  2.26365030e-02
   3.30736823e-02  7.19202235e-02  7.91249424e-03  2.95431856e-02
  -4.17666733e-02 -2.71289814e-02  4.38945852e-02 -2.99936663e-02
  -1.20324284e-01  3.35327446e-01 -2.91517556e-01 -9.52429101e-02
  -1.28133804e-01  5.87109029e-02 -2.30077691e-02  1.91099182e-01
   1.21074073e-01  1.46851659e-01  2.52084807e-02  2.68102586e-01
   1.13204075e-02 -6.12365454e-02 -3.50919038e-01 -3.08162749e-01
  -2.81754043e-02 -2.96551846e-02  2.66612750e-02  4.63582948e-02
  -1.65527537e-02 -4.06867005e-02  4.30344045e-02  5.22718057e-02
   1.48074806e-01 -1.52042076e-01 -6.00671396e-02  1.23378923e-02
   3.44734713e-02  1.28729001e-01  1.59238905e-01  5.26966788e-02
  -1.88026726e-01  7.20964745e-02 -1.28991291e-01  3.60079616e-01
  -1.19338110e-02 -4.35928302e-03 -5.24666831e-02  1.32769421e-01
   4.96406883e-01  6.75992519e-02  7.48765841e-02  4.27717596e-01
   5.31535149e-01  1.34925798e-01  8.09404254e-03 -1.24330118e-01
  -2.38513172e-01  1.34577975e-01  1.21160008e-01  4.98894870e-01
  -7.08713904e-02 -4.00848120e-01 -4.64280695e-02  2.56823242e-01]
 [-1.60823330e-01 -3.93163599e-02 -1.24794438e-01 -1.39909089e-01
  -1.05884939e-01  1.71459280e-02  4.30000946e-02  3.98118682e-02
  -2.05075353e-01  4.96932179e-01 -5.92435598e-02 -3.21171768e-02
  -3.14466991e-02 -4.73249927e-02 -7.60993809e-02  6.40756711e-02
  -5.53188860e-01  2.27940828e-03 -2.49900341e-01 -4.02781636e-01
   1.31740585e-01  1.47834331e-01 -8.53571519e-02  9.00581293e-03
   4.83009592e-02  2.78870389e-02  3.20184790e-02 -2.05964267e-01
  -5.53499162e-02 -4.98853289e-02 -4.77091551e-01 -4.13000196e-01
  -5.37537746e-02  1.81559790e-02  1.08502813e-01  5.44081740e-02
  -2.76762992e-01 -6.85112029e-02  5.43878563e-02  6.99883029e-02
  -1.78399459e-02 -1.32645294e-01 -8.27395171e-03  5.48121445e-02
   6.41036555e-02 -1.66397363e-01 -1.08504646e-01  3.40298504e-01
  -7.18172267e-02  8.40675831e-02  8.73535275e-02 -1.49662539e-01
   7.05308840e-02 -2.80992314e-02 -3.09882849e-01  1.56691432e-01
   6.03003576e-02 -1.72612086e-01  9.24847201e-02 -1.08308561e-01
   2.90321082e-01 -2.22648993e-01 -3.57249379e-02  4.61559072e-02
   6.16142787e-02 -5.93761615e-02  9.55694914e-03 -5.40111512e-02
   5.21692336e-02 -1.83997467e-01  4.58281666e-01  1.36823237e-01
  -1.22335613e-01  4.41560835e-01 -1.25890911e-01 -3.25945973e-01
  -1.31454110e-01 -1.28900409e-01  9.84144062e-02  2.14735329e-01
  -1.33275002e-01  3.32933009e-01  5.72168306e-02  2.59130210e-01
   4.79078680e-01 -7.72918165e-02 -2.01925829e-01 -1.68286011e-01
  -7.36934915e-02 -4.17143367e-02  3.10561657e-02  7.60993361e-03
   7.97341093e-02  1.50997117e-02  5.18502928e-02  4.69326973e-03
   9.31724086e-02 -2.69566532e-02 -5.53648174e-02 -1.35047913e-01
  -6.36729375e-02  1.04164369e-01  3.30211341e-01  4.82448578e-01
  -1.72434792e-01  5.39371297e-02  2.03051955e-01  6.14123166e-01
   1.57903619e-02 -7.61946216e-02  7.51534477e-02  3.81372899e-01
   4.84167337e-01 -1.42974064e-01  3.33559036e-01  2.51147896e-03
   6.48428321e-01  5.01094580e-01 -1.98493935e-02 -1.56366755e-03
   4.21216697e-01 -1.18320696e-01  3.40732150e-02  4.76223260e-01
   4.59573790e-02 -2.20580027e-01 -1.78664491e-01 -1.90291673e-01]
 [-2.83651292e-01  4.03527878e-02 -2.75239736e-01  1.00664921e-01
   6.18819110e-02 -3.60308625e-02  1.84949353e-01  1.17704775e-02
   1.33803025e-01  4.11737859e-01  4.34839651e-02  3.90601993e-01
   1.88172624e-01 -1.19325176e-01  1.09819323e-02 -5.17659411e-02
  -5.31041920e-01 -6.05543666e-02 -4.89257127e-02 -3.40986177e-02
   1.03378154e-01  7.35352635e-02 -1.01345472e-01 -9.51133296e-02
   1.27921700e-02 -3.99747211e-03  1.34271868e-02 -1.58767328e-01
  -2.00949222e-01 -5.78750446e-02 -3.39388460e-01 -2.93637663e-01
  -2.35622842e-03 -9.48899537e-02 -8.68399348e-03 -2.34787986e-01
  -3.43300849e-01 -1.69284940e-02  7.50669418e-03 -7.57646337e-02
